/*
 * Weight_bias.h
 *
 *  Created on: 18 mar 2018
 *      Author: Stefano
 */

#ifndef WEIGHT_BIAS_H_
#define WEIGHT_BIAS_H_

const float32_t Weight_array[]={
		0.069822602,
		0.033823159,
		0.17514051,
		-0.095706321,
		-0.17991452,
		0.038659696,
		-0.06693425,
		0.23168191,
		-0.00044165965,
		0.22568251,
		-0.070655935,
		0.16789986,
		0.01088096,
		0.12594353,
		0.20713231,
		0.17609574,
		0.024152275,
		-0.078265175,
		-0.022700975,
		-0.079764172,
		0.051140424,
		0.12247124,
		0.2073642,
		-0.019094286,
		0.081616476,
		-0.096574306,
		0.042519148,
		-0.0066946847,
		-0.028847679,
		-0.0087019857,
		0.0064322026,
		0.10477179,
		0.076732367,
		0.020655628,
		0.061348487,
		-0.001026932,
		-0.25087407,
		-0.15090966,
		0.14706933,
		-0.13567661,
		-0.04776917,
		0.22166899,
		-0.0023051819,
		-0.18189409,
		-0.14270781,
		-0.049165323,
		0.08936584,
		0.024172939,
		-0.1145283,
		-0.036995646,
		0.038028162,
		0.0080250222,
		0.05467834,
		-0.051677927,
		0.045140788,
		-0.15615265,
		0.0017772996,
		0.0020069315,
		-0.019162215,
		-0.052478541,
		0.074761488,
		0.026611242,
		0.065177456,
		-0.05458498,
		0.033497084,
		-0.14688738,
		0.0086210566,
		0.24778906,
		0.022683093,
		0.023475625,
		0.22956458,
		-0.075541504,
		-0.0382635,
		-0.1421192,
		-0.069241822,
		0.062588297,
		0.11031755,
		0.040444791,
		0.025335487,
		-0.1380025,
		0.20227318,
		0.12398298,
		0.017088268,
		-0.11820492,
		-0.061482348,
		0.20792146,
		0.098546691,
		-0.14479895,
		-0.041024238,
		-0.061262552,
		0.10027874,
		0.15186334,
		-0.029324513,
		-0.19401917,
		-0.10979925,
		-0.018806439,
		-0.14937359,
		0.10887696,
		0.013614192,
		0.059367284,
		-0.10865825,
		0.095296331,
		0.34604365,
		-0.097274311,
		0.013549457,
		0.13170552,
		-0.10978579,
		0.060324837,
		0.004630296,
		0.11914855,
		-0.26572165,
		-0.15788841,
		0.065542251,
		0.05107804,
		-0.1677494,
		-0.034856774,
		0.1587275,
		-0.11526328,
		0.099474303,
		0.091491804,
		0.023751389,
		-0.031719904,
		-0.052571122,
		0.097405605,
		0.066785328,
		-0.12209582,
		-0.15417922,
		0.050161038,
		-0.12652707,
		-0.11755358,
		-0.094332881,
		0.055078007,
		-0.0080879787,
		0.11242406,
		0.025917891,
		0.10317417,
		0.25270781,
		-0.048798706,
		-0.22471687,
		-0.22063597,
		-0.074618392,
		-0.02900316,
		-0.048679616,
		-0.029899629,
		0.01999869,
		-0.10467108,
		-0.023975419,
		-0.027719457,
		0.11949382,
		0.046406556,
		-0.066099837,
		-0.03066176,
		0.00427939,
		0.0630458,
		-0.049143836,
		0.0048769042,
		0.016664946,
		0.11513541,
		0.086254567,
		-0.057543848,
		0.023578741,
		0.077971667,
		0.059643991,
		-0.14642802,
		0.042619146,
		0.35536668,
		-0.096866749,
		0.011484654,
		-0.018470766,
		0.0047870623,
		-0.067888916,
		-0.0086314529,
		0.04903803,
		0.054610591,
		0.018178303,
		-0.080072574,
		0.068138689,
		0.07589376,
		0.13686648,
		0.019292668,
		0.092363626,
		0.17873336,
		-0.10846467,
		-0.073973887,
		-0.14754541,
		0.015009835,
		-0.032562006,
		-0.00046216667,
		0.16420847,
		0.019127976,
		-0.13145688,
		0.097589768,
		0.056603327,
		0.0087854266,
		0.07707157,
		0.059669379,
		0.15742284,
		0.1221055,
		0.054709252,
		-0.047748622,
		0.031134233,
		0.046089549,
		0.028801665,
		-0.0018323294,
		0.015953602,
		-0.0049685226,
		0.02085381,
		0.12624948,
		-0.1102474,
		0.07369221,
		0.022600681,
		0.19283597,
		-0.072470963,
		-0.028949009,
		0.039657708,
		-0.0094869966,
		-0.097032033,
		-0.13250862,
		-0.0087659759,
		0.088068411,
		-0.081222586,
		-0.02062553,
		-0.040315382,
		0.038769126,
		0.076428339,
		-0.078868613,
		-0.084708199,
		-0.094344646,
		-0.050024822,
		0.021909868,
		0.18959188,
		0.090933464,
		0.14257504,
		-0.067612432,
		-0.00015568471,
		0.040095072,
		-0.019532913,
		0.11678005,
		0.068331562,
		-0.24711555,
		-0.023512602,
		-0.17593125,
		0.027572712,
		0.047914844,
		0.093033046,
		0.015941588,
		0.0088799139,
		0.018990913,
		0.055258386,
		-0.12945451,
		0.10220899,
		-0.029519528,
		0.091521956,
		0.15816653,
		0.29668024,
		0.0089024166,
		0.054226995,
		-0.094682522,
		0.10786124,
		0.19537053,
		0.076787584,
		0.079681829,
		-0.016273489,
		0.0049559912,
		0.13825814,
		0.0064738546,
		0.12864226,
		-0.061873537,
		-0.0032055259,
		0.081898905,
		0.10983913,
		-0.00077685318,
		-0.18433075,
		-0.054405857,
		-0.1453857,
		-0.057258751,
		-0.14310916,
		0.07008937,
		0.11605363,
		0.036517382,
		0.074342057,
		0.17756595,
		-0.0085614435,
		-0.063546143,
		-0.020657621,
		-0.066822834,
		-0.017105725,
		0.045144398,
		-0.11095455,
		-0.083953753,
		0.095992118,
		-0.11726902,
		-0.013225444,
		0.11077305,
		0.074450225,
		0.12242088,
		0.082387947,
		-0.16176417,
		0.14227623,
		-0.10988876,
		0.23670648,
		0.052295577,
		-0.048190068,
		-0.052495364,
		0.12985618,
		-0.19984475,
		0.088319048,
		-0.0014098909,
		0.0072609112,
		-0.17131174,
		-0.061220527,
		0.092828661,
		-0.16385308,
		0.10042437,
		-0.15143979,
		-0.24888109,
		0.040718526,
		0.12884383,
		-0.030536711,
		-0.067322269,
		0.053556565,
		-0.079075299,
		-0.0062164203,
		0.021516239,
		0.0045463396,
		-0.23310561,
		-0.072004631,
		0.012688169,
		0.095550172,
		-0.072478481,
		-0.10764959,
		-0.16904238,
		-0.039617229,
		0.077022217,
		-0.064089827,
		-0.25573847,
		-0.0023678436,
		0.004759694,
		-0.022287315,
		0.088001437,
		-0.037036218,
		-0.052439425,
		-0.24551791,
		0.012345592,
		-0.031704664,
		0.033602711,
		0.091396816,
		0.10544915,
		-0.17663607,
		-0.082310766,
		0.087683633,
		0.017733525,
		-0.096868023,
		0.045149613,
		0.12092177,
		0.097850338,
		-0.17287686,
		0.085528374,
		0.0035673615,
		-0.09015055,
		-0.15345725,
		0.089419723,
		0.010989149,
		-0.01520675,
		-0.23074329,
		-0.18716706,
		0.1469412,
		0.0091466373,
		-0.13122529,
		0.078285344,
		0.07848914,
		0.12199182,
		-0.14812148,
		0.098319486,
		0.058131371,
		0.021328434,
		-0.025722215,
		0.25711975,
		0.080980018,
		-0.040096182,
		0.017033387,
		-0.0066375621,
		-0.17390038,
		-0.039538264,
		0.1435964,
		-0.30832118,
		0.15419403,
		-0.13661331,
		0.043211371,
		0.049288779,
		0.052253567,
		0.15257052,
		-0.090844594,
		0.040339842,
		0.023684161,
		0.12990896,
		0.26965359,
		-0.15721126,
		-0.069524765,
		0.07283964,
		0.079313554,
		-0.020430628,
		0.07239607,
		-0.15301232,
		0.034696262,
		-0.025030658,
		-0.07767082,
		0.025583735,
		0.0075107901,
		-0.068998389,
		-0.094399951,
		0.044212632,
		0.064185292,
		0.02958191,
		0.021225335,
		0.12968762,
		0.15977417,
		0.055496458,
		0.07905484,
		-0.0059582363,
		0.18245994,
		-0.031838223,
		0.036885388,
		0.06217099,
		0.23988803,
		-0.094829381,
		0.019928373,
		-0.0071455184,
		0.17461851,
		-0.21984012,
		0.11794762,
		0.064380065,
		0.0057037445,
		0.012606984,
		0.0065227915,
		-0.087385796,
		0.057504334,
		-0.18792495,
		0.18637979,
		-0.23772287,
		-0.12660284,
		0.05968808,
		0.15467183,
		0.040181678,
		0.032844387,
		-0.061578799,
		0.1348895,
		-0.059641659,
		0.070610993,
		-0.084510498,
		-0.15324737,
		0.12831056,
		-0.05030378,
		0.10671452,
		-0.22342952,
		-0.082042299,
		0.26352227,
		0.043496933,
		0.11113469,
		0.026935564,
		0.047490131,
		0.094340436,
		0.12628637,
		0.031019969,
		0.12578763,
		-0.098223388,
		-0.091281183,
		0.18251699,
		-0.052457571,
		-0.018315602,
		0.035886135,
		0.10849763,
		-0.042233538,
		-0.027878789,
		0.064681485,
		-0.15276428,
		-0.0038604161,
		0.071285784,
		0.047092058,
		-0.13853619,
		-0.10417616,
		-0.18648699,
		-0.057805754,
		-0.10989162,
		0.13213287,
		0.18333243,
		0.053399928,
		0.23883979,
		-0.20386039,
		0.0065074102,
		0.013395908,
		0.04190474,
		-0.006454403,
		-0.017967789,
		0.27323952,
		0.1266522,
		-0.062844612,
		-0.014820223,
		0.1145361,
		-0.0065899468,
		-0.021500012,
		-0.097472027,
		-0.0016485555,
		0.023144767,
		-0.13254136,
		0.11550155,
		-0.093541801,
		0.018207984,
		-0.1094479,
		-0.09883327,
		-0.00032036085,
		-0.07640896,
		-0.064394198,
		-0.077288844,
		-0.041070532,
		0.1686126,
		0.036324129,
		0.023127137,
		-0.0088997092,
		-0.061793752,
		-0.086074315,
		-0.043260157,
		0.033182837,
		-0.003770733,
		0.07812985,
		0.010397363,
		-0.017302975,
		0.081671216,
		0.026043491,
		-0.17847428,
		0.08956904,
		-0.058751371,
		-0.037533987,
		-0.10491185,
		0.03689643,
		0.10402812,
		-0.10327163,
		-0.031511251,
		0.023220431,
		-0.061696943,
		-0.038436584,
		0.00093049783,
		0.017895227,
		-0.01523271,
		-0.0012793569,
		-0.060511433,
		0.056184229,
		0.0051068114,
		-0.095681943,
		-0.098403953,
		0.055271477,
		-0.058298625,
		0.057183474,
		-0.10781215,
		-0.0093913144,
		-0.095930062,
		-0.087209992,
		0.17544745,
		-0.015855191,
		0.11459141,
		0.17456584,
		-0.10129787,
		-0.042431023,
		-0.1171761,
		0.017249404,
		0.039137147,
		0.069204427,
		-0.16802135,
		0.018098217,
		0.016177708,
		-0.01757738,
		-0.10642156,
		0.17599554,
		0.16373548,
		0.18887997,
		-0.071391851,
		-0.040660217,
		-0.10853249,
		0.059793852,
		0.046109378,
		0.037109531,
		-0.15350662,
		-0.043106347,
		0.032318681,
		-0.13493946,
		0.091913141,
		0.034785509,
		0.17421259,
		-0.10890714,
		0.013180666,
		0.02158503,
		-0.054208107,
		0.010434997,
		0.062841445,
		0.052020479,
		-0.029585144,
		-0.10374282,
		-0.031545851,
		-0.22265953,
		-0.040194705,
		-0.054041173,
		-0.027143378,
		0.15542729,
		-0.085547894,
		0.087231517,
		-0.071315385,
		0.025126114,
		-0.075538233,
		-0.087392069,
		0.041855086,
		0.12939957,
		-0.21894893,
		-0.047440529,
		-0.08025597,
		0.098863296,
		-0.12607263,
		-0.043048073,
		-0.002420828,
		0.034593128,
		0.033198003,
		0.021086358,
		0.14631662,
		0.11874555,
		0.11437619,
		-0.13356236,
		0.087832823,
		-0.055128343,
		0.12306052,
		-0.10707403,
		0.11266377,
		-0.097036645,
		0.067759961,
		0.11565886,
		-0.11429636,
		-0.086992972,
		0.04681211,
		-0.15946676,
		0.10032211,
		-0.074925862,
		0.02229343,
		-0.061495852,
		-0.0061713876,
		-0.12501188,
		-0.12799083,
		0.046170361,
		0.22912769,
		-0.030265938,
		-0.075442031,
		-0.077556632,
		0.004625746,
		0.060621984,
		0.1215857,
		0.10578858,
		-0.11462203,
		-0.15449262,
		0.0032041876,
		-0.13508034,
		0.13452473,
		-0.11490336,
		0.019586708,
		-0.051653638,
		0.12132213,
		0.073608987,
		0.084402174,
		-0.18665248,
		-0.1319759,
		0.10022204,
		0.014504859,
		-0.011561544,
		0.07933452,
		-0.048042618,
		0.28006279,
		-0.018819306,
		0.07328704,
		-0.034679115,
		0.19414338,
		-0.13425276,
		0.017912429,
		-0.014186515,
		-0.042656448,
		-0.0049581365,
		0.020611525,
		0.13731718,
		0.021522541,
		-0.034172211,
		-0.13570976,
		-0.077180617,
		0.13923556,
		0.072357744,
		0.095688775,
		-0.20443615,
		0.2408088,
		-0.21539126,
		0.078663118,
		-0.044378664,
		0.088935353,
		0.053948462,
		-0.039727028,
		-0.071247302,
		-0.014445385,
		-0.11077161,
		-0.052614007,
		-0.16761269,
		-0.10414958,
		-0.2547498,
		0.046647299,
		0.012315847,
		-0.024225481,
		-0.045150138,
		-0.11058749,
		0.0076406151,
		0.048283312,
		-0.10046211,
		0.099074937,
		0.17272842,
		0.025083983,
		-0.08237794,
		-0.048838951,
		-0.0018445975,
		-0.091531157,
		0.035168074,
		0.12999119,
		-0.020971017,
		0.13092594,
		0.037948206,
		0.20842943,
		0.17532332,
		0.033307716,
		0.030148063,
		-0.038269855,
		0.12281907,
		-0.14516494,
		0.054195434,
		-0.015622204,
		0.05311726,
		0.017843815,
		0.11480208,
		0.19890158,
		0.14117606,
		0.11572297,
		-0.13469695,
		0.034226786,
		0.12148184,
		-0.070555434,
		0.18070783,
		-0.057888992,
		-0.062275063,
		-0.025980629,
		-0.03043738,
		0.13257316,
		-0.062910669,
		-0.18092954,
		0.20949768,
		0.19863747,
		0.012837632,
		0.076699309,
		0.020224309,
		0.10248613,
		-0.19104472,
		0.081806138,
		0.0038295616,
		-0.025368277,
		-0.01530634,
		0.081472822,
		0.0056429417,
		0.14934191,
		-0.15267394,
		-0.13326567,
		0.073558748,
		-0.1905029,
		0.16539931,
		-0.033136632,
		0.10329983,
		0.11850652,
		-0.040615696,
		0.029446434,
		-0.05231268,
		0.17109503,
		0.16029759,
		-0.10706051,
		-0.020754993,
		0.092575796,
		-0.023939278,
		0.043654695,
		0.17585951,
		-0.039234892,
		0.030262774,
		0.22819431,
		0.039572705,
		0.075400092,
		-0.049089871,
		-0.10460621,
		0.012300198,
		0.13199797,
		-0.25184053,
		-0.21879028,
		0.025588447,
		0.084920093,
		-0.086727947,
		-0.13238187,
		-0.11796162,
		-0.017744392,
		0.064015254,
		-0.038722336,
		-0.020041641,
		0.14414313,
		0.021996651,
		0.039143,
		-0.086358495,
		0.10346633,
		0.027738025,
		0.051432069,
		-0.17711189,
		0.034640722,
		0.064703524,
		-0.15374333,
		0.17162834,
		0.039991476,
		0.061046865,
		0.088445373,
		0.057825252,
		0.090465903,
		0.08305072,
		0.086281516,
		-0.20727721,
		0.027464272,
		-0.027550742,
		0.02137945,
		-0.034320816,
		-0.13150355,
		0.0020742691,
		0.222802,
		-0.070234671,
		-0.14879419,
		-0.068920784,
		0.046319157,
		-0.13449316,
		-0.10967771,
		-0.039447039,
		0.12100746,
		0.083377533,
		-0.015903439,
		0.1121327,
		0.059539683,
		-0.15675448,
		-0.16154471,
		0.045381147,
		0.040444784,
		0.14642777,
		-0.039639395,
		0.080703743,
		0.060213145,
		0.053339839,
		0.11399416,
		-0.0022267895,
		0.2159438,
		-0.052936692,
		-0.044086535,
		-0.044428635,
		-0.061778676,
		0.01429672,
		-0.062303878,
		-0.026639616,
		0.13940771,
		-0.12075249,
		-0.0087598804,
		0.073600538,
		-0.042838801,
		0.016858581,
		0.088860273,
		-0.14278673,
		0.097655766,
		-0.051927771,
		0.12059625,
		-0.032239508,
		0.078643046,
		-0.091267899,
		-0.095670819,
		-0.041445054,
		-0.20826693,
		0.023521373,
		0.24637836,
		0.055863384,
		0.035989549,
		0.11858869,
		0.062236924,
		0.18959233,
		0.047416482,
		-0.21350047,
		0.12832564,
		-0.022758288,
		0.020579193,
		0.012488062,
		0.023614479,
		0.039648511,
		0.087344266,
		-0.14681935,
		0.12616625,
		0.081186533,
		0.058554731,
		-0.095332772,
		0.0039748368,
		-0.062223341,
		0.11338427,
		0.076326855,
		0.29958156,
		-0.079215236,
		-0.065695211,
		0.032288846,
		0.057881277,
		0.13433881,
		-0.06742014,
		-0.0014167766,
		0.0071643931,
		-0.14168623,
		0.017635683,
		0.054265764,
		0.15504652,
		0.11944118,
		0.023154974,
		0.16541559,
		-0.076723903,
		-0.060356505,
		0.15279441,
		0.04558963,
		-0.030719573,
		-0.11290441,
		0.22607577,
		-0.015417837,
		0.20529144,
		0.031199306,
		-0.10191429,
		0.030866046,
		0.13222474,
		0.13963175,
		0.10400487,
		-0.032141387,
		0.060338572,
		0.10795354,
		-0.1169347,
		0.1816684,
		-0.11283717,
		-0.031099018,
		0.040846206,
		-0.10972186,
		-0.064842381,
		-0.098955721,
		0.052968897,
		0.1424319,
		-0.10019169,
		0.12631005,
		0.11477816,
		0.092753746,
		0.011956573,
		-0.044066299,
		0.085234217,
		-0.0068027484,
		0.10309276,
		0.071445867,
		-0.078357346,
		-0.046581082,
		0.083751805,
		-0.0034108795,
		0.0077050249,
		-0.0047876504,
		-0.12349876,
		-0.053891681,
		0.062951185,
		-0.029165505,
		0.025647739,
		0.041150011,
		0.097155266,
		-0.0034186456,
		0.025938693,
		0.072445817,
		0.047601387,
		-0.011807979,
		0.042671457,
		-0.0079352977,
		0.035679039,
		0.092235848,
		-0.0090390677,
		-0.010820555,
		0.041983973,
		-0.094010554,
		0.076373592,
		-0.14960648,
		-0.1436893,
		0.20724902,
		0.08541549,
		-0.02109595,
		0.048172709,
		0.059545297,
		-0.065008245,
		0.044830561,
		-0.1182956,
		0.033485971,
		-0.15898825,
		-0.18533401,
		0.054173846,
		-0.12215453,
		0.011039688,
		0.054211993,
		-0.032960344,
		-0.043018643,
		-0.060771756,
		-0.037331775,
		-0.10619826,
		-0.067144156,
		0.023397239,
		-0.14055753,
		0.070786595,
		-0.24339359,
		0.060285598,
		0.045275807,
		0.22293632,
		-0.043155555,
		-0.11346264,
		-0.054107841,
		-0.14973651,
		0.021140888,
		-0.092315428,
		0.14471915,
		-0.021559455,
		0.030108742,
		-0.00017907508,
		-0.02010401,
		-0.093184233,
		-0.022769025,
		0.013768763,
		0.050977886,
		-0.042173132,
		-0.10920717,
		-0.11349009,
		-0.05225357,
		0.0316853,
		-0.025385264,
		0.06608437,
		-0.076178916,
		-0.11591636,
		0.14062491,
		0.02271568,
		0.098124251,
		0.066668868,
		0.015906563,
		0.047368899,
		-0.059398733,
		0.1288614,
		-0.25556856,
		0.074866273,
		-0.10754834,
		0.060329519,
		-0.061922736,
		-0.062782891,
		0.079518296,
		-0.046270993,
		0.010354835,
		0.12574099,
		-0.073312834,
		0.11182091,
		0.13552028,
		-0.069169015,
		0.11093199,
		0.069838762,
		0.026776277,
		0.063572749,
		-0.067472473,
		-0.024967771,
		-0.080203697,
		-0.14369617,
		-0.0089731757,
		-0.091739357,
		0.12877376,
		0.22967555,
		0.0052570091,
		0.12760642,
		0.080613986,
		0.12429821,
		-0.19542956,
		0.073936947,
		0.033537723,
		0.1129709,
		0.091106445,
		-0.052280858,
		0.095957071,
		0.046487283,
		-0.087456658,
		-0.029714225,
		-0.054162871,
		-0.053799558,
		-0.0015128251,
		-0.016766893,
		-0.20791507,
		-0.11970374,
		-0.062434617,
		0.082997672,
		0.27351674,
		0.0032356184,
		0.13377649,
		0.019743942,
		0.023196312,
		-0.15931849,
		0.080244988,
		-0.036455274,
		-0.10388986,
		0.21185371,
		-0.074019715,
		-0.10813699,
		-0.049647152,
		-0.14763023,
		-0.083519533,
		0.21584514,
		0.097687602,
		-0.033265583,
		-0.1899998,
		-0.070651665,
		0.072210491,
		-0.12924433,
		-0.098876983,
		0.010286177,
		-0.083317675,
		0.10874885,
		-0.13174768,
		0.12995769,
		0.031922724,
		0.061085291,
		0.022522207,
		0.022762194,
		0.10330452,
		-0.29791418,
		-0.0045197951,
		0.026375696,
		-0.041486915,
		0.039853625,
		0.073273979,
		-0.080872975,
		0.076183081,
		-0.10145044,
		0.19447237,
		0.048527252,
		0.092027202,
		-0.0056085824,
		0.040767077,
		-0.048623048,
		-0.098829068,
		0.057478681,
		0.14419182,
		0.10678305,
		0.078584611,
		-0.15394159,
		0.011060499,
		0.10886144,
		0.13878302,
		-0.19270024,
		0.024718527,
		0.16215634,
		0.082312241,
		-0.16541266,
		0.14929919,
		-0.099291973,
		-0.070648476,
		0.10295427,
		-0.011210155,
		-0.027598862,
		0.095015831,
		0.09380082,
		0.060847409,
		-0.046121936,
		0.11795141,
		-0.16171029,
		0.015087094,
		-0.065867364,
		0.10551026,
		-0.17945531,
		0.10679121,
		-0.059184216,
		0.13727674,
		0.14691155,
		0.097284794,
		-0.056171656,
		0.33042049,
		0.068545386,
		-0.064470969,
		-0.065846533,
		0.1151716,
		0.051211238,
		-0.021576012,
		0.04080968,
		0.091053784,
		0.24023077,
		-0.022675125,
		-0.015037008,
		0.03798116,
		-0.13841629,
		0.047327626,
		-0.071030684,
		0.051073678,
		0.025855634,
		0.075894624,
		0.013074202,
		0.085645221,
		-0.058172241,
		-0.14421213,
		-0.074158698,
		-0.04546747,
		-0.092863254,
		-0.16906862,
		-0.064852417,
		-0.045268785,
		-0.048498172,
		-0.056351125,
		-0.05156533,
		0.035153031,
		0.020933246,
		-0.051436327,
		0.046401203,
		-0.015612039,
		-0.034919962,
		0.06851811,
		0.13186815,
		-0.012223125,
		0.031975791,
		-0.1087508,
		0.10916779,
		-0.028797589,
		-0.089523107,
		-0.0079909358,
		0.062584847,
		0.027513003,
		0.088521659,
		-0.13730946,
		-0.086944886,
		-0.063654274,
		-0.12961815,
		0.068960585,
		-0.010671457,
		-0.09931007,
		-0.088579141,
		-0.14900082,
		-0.055361532,
		0.04548895,
		-0.12151632,
		0.1303274,
		-0.14520557,
		-0.043706071,
		0.20350629,
		-0.0045045456,
		0.12001304,
		-0.052764118,
		0.023412239,
		0.00049621175,
		0.09205123,
		0.041884091,
		0.092597321,
		0.0096538644,
		0.044332404,
		0.11449101,
		-0.043374553,
		-0.061335973,
		-0.05277051,
		0.052724149,
		-0.1007131,
		-0.023807982,
		-0.12068702,
		0.095717885,
		-0.20999649,
		-0.14507522,
		-0.023659497,
		-0.037517857,
		-0.053393994,
		0.0031013121,
		-0.011497677,
		0.079963781,
		0.0054302327,
		-0.091286458,
		0.15624143,
		0.020767901,
		-0.098292001,
		0.029905032,
		-0.059497416,
		0.090387583,
		0.059931237,
		0.11077645,
		0.051687043,
		-0.14355074,
		-0.099819534,
		0.20993288,
		-0.081195034,
		0.051777005,
		0.21444447,
		-0.071495727,
		0.029681569,
		0.020632194,
		0.030661985,
		-0.033323355,
		0.097612031,
		-0.0026067893,
		-0.081369512,
		-0.031697568,
		0.063624911,
		-0.070231713,
		0.04491704,
		0.071504533,
		0.016972015,
		0.054037679,
		0.1486326,
		0.038056355,
		0.019203164,
		0.073600858,
		-0.16240171,
		0.021492751,
		0.050813869,
		0.072349809,
		0.11530961,
		-0.20014054,
		-0.08869268,
		0.04352108,
		-0.036654539,
		-0.0039606406,
		-0.16099732,
		-0.0091424799,
		0.050934102,
		-0.09024132,
		-0.22001173,
		-0.0090959771,
		-0.034950491,
		-0.090371564,
		-0.00097836577,
		-0.032129504,
		0.018149214,
		-0.021508275,
		-0.035484202,
		-0.085711002,
		0.069010496,
		-0.058126006,
		0.010869142,
		-0.092746682,
		0.1692082,
		-0.12753074,
		0.038447708,
		0.13833621,
		0.23917769,
		0.078079849,
		0.043611735,
		-0.019056795,
		-0.083667204,
		-0.097600915,
		0.144518,
		-0.23218398,
		-0.10594381,
		-0.1139097,
		-0.057434551,
		0.050771344,
		0.15397619,
		-0.081141651,
		-0.039837025,
		0.14689155,
		-0.000042201569,
		-0.20572011,
		-0.16487244,
		0.011735795,
		-0.042297076,
		0.083284758,
		0.01916864,
		-0.075663231,
		-0.070934601,
		0.00031562071,
		-0.091026388,
		-0.031457294,
		0.037992906,
		0.081162587,
		-0.070081368,
		0.073423006,
		0.066407084,
		-0.062915139,
		0.089431815,
		-0.19288656,
		-0.064986244,
		0.01016271,
		0.11646492,
		0.070463479,
		-0.10731758,
		-0.11211006,
		-0.021142937,
		0.075004764,
		-0.070432484,
		0.21851012,
		-0.039245013,
		0.047727767,
		0.12674083,
		0.052390985,
		-0.090576209,
		0.17619149,
		0.065213725,
		-0.035151187,
		-0.13052802,
		0.12583786,
		0.038390692,
		-0.048897058,
		0.09939573,
		0.051207282,
		0.0084399153,
		0.184442,
		0.0082702274,
		-0.072805688,
		0.028031174,
		-0.10514045,
		0.012043121,
		0.020977482,
		-0.0071454984,
		-0.025578644,
		-0.17867158,
		-0.12340573,
		-0.1311125,
		-0.0036711777,
		-0.011207696,
		-0.005950022,
		0.065069541,
		-0.1678611,
		-0.098294862,
		0.051543403,
		-0.035272468,
		0.087654673,
		-0.074863628,
		0.023297915,
		0.012736889,
		-0.03087534,
		-0.099590242,
		0.047960524,
		-0.11592175,
		0.018057639,
		-0.10485773,
		0.019599227,
		-0.072104096,
		-0.061198056,
		0.022198834,
		0.091403015,
		-0.13184801,
		-0.021567693,
		0.17755739,
		0.11482245,
		0.1103648,
		-0.13080916,
		-0.01331924,
		0.18535528,
		-0.13009262,
		0.040913265,
		0.014793051,
		-0.1081696,
		-0.11499698,
		0.059527479,
		0.058992222,
		0.14541429,
		-0.098075256,
		0.023934379,
		-0.044263028,
		-0.022821195,
		-0.082517736,
		0.046500608,
		0.093842901,
		-0.092247888,
		0.038406417,
		0.099399887,
		0.10856818,
		-0.010681331,
		-0.10360891,
		-0.009204831,
		-0.12219493,
		0.13206969,
		0.074834429,
		-0.0031149436,
		-0.037347954,
		-0.23671907,
		0.11815127,
		0.17015548,
		-0.050781187,
		-0.045086566,
		0.083968639,
		0.025485514,
		0.10115223,
		0.11356826,
		-0.078586243,
		0.12657188,
		-0.066976011,
		0.06643644,
		0.06596335,
		0.057315934,
		-0.066001102,
		-0.039654862,
		0.1107407,
		-0.068134509,
		-0.084853306,
		0.22435082,
		0.061230835,
		0.020346589,
		0.0020176258,
		0.13031791,
		-0.035039216,
		0.18590637,
		0.039600573,
		0.31028619,
		-0.17661852,
		-0.071344681,
		0.037271436,
		0.028713038,
		-0.12473725,
		0.019796496,
		-0.043899938,
		0.058030024,
		0.073173828,
		0.041448388,
		-0.036556721,
		-0.032345738,
		-0.0592678,
		-0.035187054,
		-0.091735251,
		0.13236827,
		-0.124803,
		-0.067233548,
		0.21691971,
		0.046746347,
		-0.17922193,
		0.014015391,
		0.19609077,
		-0.079725213,
		-0.0926762,
		-0.14709686,
		-0.026652182,
		0.039209239,
		0.10752837,
		0.14993402,
		-0.003995134,
		0.0090484945,
		0.030365473,
		0.077465385,
		-0.12157144,
		-0.056676805,
		0.030427231,
		0.11300243,
		0.078292683,
		-0.13408548,
		0.092123225,
		0.051515017,
		-0.14392968,
		-0.14697146,
		-0.17539521,
		0.20094004,
		0.031284124,
		-0.011953094,
		0.021701889,
		-0.022576064,
		-0.064022876,
		0.031160509,
		-0.082790941,
		0.0091865854,
		0.19011861,
		0.016754828,
		-0.14239319,
		-0.095580116,
		0.060967106,
		0.02764274,
		0.21319591,
		-0.059282057,
		-0.071472041,
		-0.12984933,
		-0.040727559,
		-0.0067045609,
		0.0098466184,
		0.15184703,
		0.011371762,
		-0.074589998,
		0.078132309,
		0.036224239,
		0.019058622,
		0.10287278,
		-0.017004993,
		-0.017082406,
		0.04711327,
		0.038732316,
		0.10865219,
		-0.1197246,
		0.20909388,
		0.064185321,
		0.0027072118,
		-0.18455602,
		0.12165048,
		0.032105159,
		-0.028286083,
		0.029380135,
		0.029920254,
		-0.032116372,
		0.18438546,
		0.036806669,
		-0.012311446,
		0.065512821,
		0.0011390608,
		-0.011238798,
		0.15155736,
		0.071213566,
		0.0102824,
		0.06976933,
		0.17609428,
		-0.093257606,
		-0.0084051238,
		0.11193369,
		-0.15381515,
		-0.0049925605,
		-0.057601217,
		0.081918083,
		0.049808819,
		0.026765434,
		-0.055056412,
		0.092610501,
		0.11620159,
		-0.050580721,
		-0.13004912,
		-0.054382749,
		0.004609976,
		0.12890863,
		-0.10269228,
		-0.040142395,
		-0.0092959134,
		0.1080004,
		-0.18946564,
		0.037974715,
		-0.22859631,
		-0.060605429,
		0.18228021,
		-0.11863442,
		0.086937502,
		0.053403158,
		0.082658358,
		-0.070532285,
		0.097223312,
		-0.05673112,
		-0.047016054,
		-0.095064461,
		0.11662764,
		0.16861208,
		-0.12874854,
		-0.062924929,
		-0.071340106,
		0.096160524,
		0.017648559,
		-0.099315941,
		0.046622466,
		0.12148657,
		-0.079567805,
		-0.1667027,
		-0.13129911,
		0.072241515,
		-0.13013433,
		-0.11183579,
		-0.056236725,
		-0.10398817,
		0.043588467,
		0.11936874,
		0.060892437,
		-0.037008721,
		-0.025842598,
		0.10294738,
		0.17652483,
		0.031405892,
		-0.0031762866,
		-0.13118941,
		-0.09139502,
		-0.048261888,
		0.065113045,
		-0.43678561,
		-0.1885144,
		0.08963041,
		0.14537026,
		-0.052523497,
		-0.16713569,
		0.063438527,
		0.049254552,
		-0.14400816,
		-0.010287171,
		-0.084734276,
		0.04962194,
		-0.2014906,
		-0.20435417,
		0.072339736,
		0.019480573,
		0.000098331271,
		-0.10065874,
		-0.13992633,
		-0.013629873,
		-0.23402199,
		0.012386361,
		-0.037168253,
		0.028276395,
		-0.11032638,
		0.12793724,
		-0.00065226253,
		-0.032082673,
		-0.040486623,
		0.10773249,
		-0.017440606,
		-0.078097947,
		0.050938327,
		0.037518129,
		-0.0074869278,
		0.031380758,
		-0.067548707,
		0.077165537,
		0.0090661738,
		-0.0033397158,
		-0.1506869,
		-0.073061571,
		-0.017120114,
		-0.064389043,
		0.032573055,
		0.058494296,
		0.00038761721,
		-0.29126555,
		0.079546422,
		-0.023157356,
		-0.088188365,
		-0.083151653,
		0.17462149,
		0.22896022,
		-0.0023428586,
		-0.063677929,
		-0.07026916,
		0.080433555,
		-0.053741865,
		0.026190523,
		-0.049556132,
		0.027023626,
		0.13391283,
		-0.060483921,
		0.086536311,
		-0.045805622,
		-0.018947966,
		-0.1561581,
		0.078136027,
		-0.015389874,
		0.12635484,
		-0.022102868,
		-0.010109538,
		0.080689974,
		-0.15883347,
		0.037944652,
		0.11768281,
		0.001302912,
		0.09116713,
		-0.032229476,
		-0.039807297,
		-0.1606278,
		0.050271116,
		-0.18877175,
		0.22857781,
		0.042882495,
		-0.010028036,
		-0.0039503956,
		-0.067380548,
		-0.10575038,
		-0.014037068,
		-0.019335341,
		0.035232961,
		0.20739946,
		-0.070080623,
		-0.14724602,
		0.045821305,
		0.16079418,
		-0.070190139,
		0.049429718,
		0.20624946,
		0.046656229,
		0.15101998,
		0.031332888,
		-0.053490702,
		0.020306556,
		0.11743525,
		0.048344016,
		0.18589526,
		-0.12319063,
		0.10635731,
		0.083722077,
		-0.11220142,
		0.096389927,
		-0.15956008,
		-0.055032983,
		-0.087000675,
		-0.0059930938,
		0.16160221,
		-0.19786502,
		-0.069258988,
		0.13201849,
		0.033122055,
		0.02094448,
		-0.016984189,
		-0.10681657,
		-0.1505045,
		-0.064158365,
		0.11949313,
		0.13561103,
		0.091013364,
		-0.045047458,
		0.12852684,
		-0.025116382,
		-0.084913626,
		-0.12231088,
		0.11448044,
		0.083447807,
		-0.08877138,
		-0.0086387461,
		-0.011753526,
		0.050745212,
		0.14742775,
		0.002196199,
		-0.11831813,
		-0.21738115,
		-0.16820976,
		-0.21902606,
		-0.05885284,
		0.051786292,
		0.092488468,
		-0.034959033,
		-0.028606592,
		0.18629153,
		-0.18126209,
		-0.061928023,
		0.0078705605,
		0.093147784,
		-0.18621628,
		0.050008606,
		-0.1295321,
		0.036392931,
		-0.010499182,
		-0.12445361,
		-0.031215906,
		0.033432007,
		-0.01924886,
		-0.06592381,
		-0.0096773431,
		0.060329214,
		-0.09193518,
		-0.061361358,
		-0.11103129,
		0.079029121,
		-0.043117583,
		-0.1136177,
		0.068262652,
		-0.13959691,
		-0.041415595,
		0.089566194,
		-0.009301886,
		-0.0052847783,
		0.12642197,
		0.12775721,
		-0.18013304,
		-0.15806353,
		-0.01429565,
		0.0081534749,
		0.043558996,
		-0.15144615,
		-0.11931106,
		-0.1513699,
		0.10318564,
		-0.053080957,
		0.029196603,
		-0.038277533,
		0.1021529,
		-0.0018335774,
		0.016667204,
		0.10979608,
		0.078901775,
		-0.0092397798,
		-0.1346495,
		-0.14479315,
		0.047943387,
		-0.11154039,
		0.098611742,
		-0.16482179,
		-0.019402452,
		-0.12211023,
		0.1164857,
		0.01872134,
		0.066606656,
		-0.043308988,
		0.13303126,
		0.043522764,
		-0.24154417,
		0.03908617,
		-0.072806343,
		0.093609631,
		-0.070396855,
		-0.059663191,
		0.017293869,
		-0.026519394,
		0.023367802,
		0.037282221,
		-0.047315814,
		-0.21142189,
		-0.18579449,
		-0.081357971,
		-0.1793038,
		0.071080364,
		-0.04541225,
		0.0210176,
		0.016794017,
		-0.11784369,
		0.012597376,
		0.0080819735,
		0.051991258,
		-0.03513651,
		0.075138196,
		0.0078183478,
		0.054765947,
		-0.11300971,
		0.10466573,
		0.051606469,
		-0.021872735,
		-0.09816552,
		0.034842353,
		-0.035112437,
		0.064190038,
		-0.016218102,
		0.037964452,
		0.023635063,
		-0.021023182,
		-0.011324354,
		-0.18454501,
		-0.02806378,
		-0.090014406,
		0.12917969,
		-0.034711618,
		0.012833315,
		-0.034592625,
		0.009406345,
		-0.18613598,
		-0.07042817,
		0.092541687,
		0.11572903,
		0.0055513741,
		-0.11055532,
		-0.00085803762,
		0.148963,
		-0.037734345,
		0.19677286,
		-0.097610936,
		0.080526225,
		0.067937806,
		0.14054033,
		-0.16987878,
		-0.11088987,
		-0.024025528,
		0.014990138,
		0.074706785,
		-0.068233572,
		-0.045459636,
		-0.042899646,
		-0.026686847,
		-0.059401859,
		0.21662083,
		-0.092146434,
		-0.20199566,
		0.098660573,
		0.05878311,
		-0.078338295,
		0.19692521,
		-0.069912307,
		0.095079355,
		-0.061790258,
		0.019726979,
		0.022844156,
		-0.078631602,
		0.017662521,
		0.23058358,
		0.1730027,
		0.041327823,
		-0.087037995,
		0.084779732,
		0.035934202,
		-0.036212273,
		0.15343536,
		0.19802102,
		-0.08692947,
		0.0088258926,
		0.010250076,
		0.024076054,
		-0.047481447,
		-0.044615194,
		0.14570336,
		-0.015221783,
		-0.082444727,
		0.073600695,
		0.041657045,
		0.080397546,
		0.02480178,
		0.10608063,
		0.039665435,
		0.060661532,
		0.1951502,
		0.16129349,
		-0.066405632,
		-0.042757008,
		-0.11425887,
		-0.061188582,
		0.029323123,
		0.00054970698,
		0.022524917,
		-0.070381597,
		-0.076228872,
		-0.057609838,
		-0.18936642,
		0.071288757,
		-0.12408797,
		0.11257023,
		-0.06881886,
		0.15133582,
		-0.087739736,
		0.022999927,
		0.12523304,
		0.075019024,
		-0.035895552,
		0.12379488,
		-0.089682825,
		0.10686144,
		-0.22344181,
		0.21985973,
		0.063458465,
		-0.016453896,
		0.11118153,
		0.098616548,
		0.030439546,
		0.16411792,
		0.2129948,
		-0.08266367,
		0.092845738,
		-0.069769651,
		0.086983882,
		0.18312715,
		-0.23043352,
		0.057155553,
		-0.0060006208,
		0.040769927,
		-0.020175945,
		0.048613649,
		-0.15496102,
		-0.040767871,
		-0.015752582,
		0.080207787,
		0.037523873,
		0.17255732,
		0.016435912,
		0.0012816675,
		0.10920796,
		-0.20318013,
		0.06038193,
		0.066328026,
		-0.039676309,
		0.10422217,
		0.052402273,
		0.032668725,
		0.035246693,
		-0.049876288,
		-0.064241737,
		-0.0096482523,
		0.057436563,
		0.13813396,
		0.11971384,
		-0.16603282,
		-0.012595551,
		0.056174479,
		-0.13613367,
		-0.015564647,
		0.063982107,
		-0.12993708,
		0.04566237,
		0.051342096,
		-0.057927612,
		0.046139665,
		0.01878101,
		-0.14224355,
		-0.11109507,
		-0.23721746,
		-0.0077843713,
		-0.10410998,
		-0.071126431,
		0.002663872,
		0.032635126,
		-0.038122796,
		0.099422418,
		0.040588498,
		-0.089844011,
		-0.10475192,
		0.043398406,
		0.095346883,
		0.06708952,
		-0.039748654,
		0.068143457,
		0.11147109,
		-0.032410208,
		0.0082340296,
		0.025570953,
		0.11502013,
		-0.049727798,
		0.027917491,
		-0.080033101,
		-0.052277446,
		-0.061292998,
		0.051425409,
		0.053714875,
		-0.076923989,
		0.10659686,
		0.16026327,
		-0.15545034,
		-0.20574862,
		0.062978573,
		0.00072033505,
		0.070282683,
		0.056818143,
		0.013689762,
		-0.051422082,
		-0.061119955,
		0.017895944,
		0.075803526,
		0.11536362,
		0.059019707,
		-0.138871,
		0.10036736,
		0.0046643731,
		-0.042858679,
		0.15718585,
		-0.07013265,
		0.075170606,
		-0.065307058,
		0.0047478243,
		-0.058263723,
		0.080431856,
		-0.036337119,
		-0.006433913,
		-0.17706756,
		0.023974324,
		0.013730108,
		-0.14304566,
		0.06126317,
		-0.19704518,
		-0.044027325,
		0.036008384,
		0.053964596,
		-0.061900556,
		0.11750672,
		0.18205996,
		0.052711405,
		0.012256106,
		-0.014914231,
		-0.1829738,
		0.11754804,
		-0.15920793,
		-0.089739151,
		-0.01341248,
		0.1619733,
		0.07014212,
		0.12090667,
		-0.07211969,
		-0.047123943,
		0.22120312,
		-0.021978047,
		0.027787732,
		0.13388479,
		-0.14225085,
		0.000017119924,
		-0.075946875,
		-0.027483258,
		0.087989353,
		-0.0070227976,
		0.016984686,
		0.069485784,
		-0.041907132,
		0.017762169,
		0.1602356,
		0.1388326,
		0.076351076,
		0.065490209,
		-0.018865392,
		0.018427465,
		-0.053993333,
		-0.052048061,
		-0.031299371,
		0.0399694,
		0.0023771941,
		-0.11187854,
		-0.033677906,
		-0.020233197,
		-0.045268059,
		-0.17803869,
		0.051936455,
		-0.00051104679,
		-0.036193866,
		-0.10781838,
		0.037514683,
		0.104539,
		0.0065937443,
		0.098633237,
		0.1807618,
		0.031864543,
		0.049050782,
		0.073856525,
		0.0530807,
		-0.13475196,
		0.015344424,
		0.036373515,
		0.07265459,
		-0.041103102,
		-0.20392983,
		-0.072754219,
		-0.045487978,
		-0.11735523,
		-0.061622344,
		-0.055408359,
		-0.0034932953,
		-0.091023147,
		-0.069911204,
		-0.10819374,
		-0.025588054,
		-0.054978814,
		0.18763819,
		-0.038263351,
		0.052499462,
		0.093540505,
		-0.16453281,
		0.06516812,
		-0.11480553,
		-0.15526432,
		0.12054039,
		-0.074648559,
		-0.05055277,
		-0.072619975,
		0.015591132,
		0.093341231,
		-0.11478791,
		-0.00073889451,
		-0.081441604,
		-0.10643641,
		-0.10071798,
		0.096093468,
		-0.1142996,
		-0.043006662,
		-0.04904465,
		0.16918644,
		-0.010021678,
		0.049912665,
		0.064962626,
		0.074456252,
		0.054198314,
		0.15684356,
		0.063273698,
		0.060622092,
		0.23672831,
		-0.042280372,
		0.091606341,
		-0.080440402,
		0.08904431,
		-0.060011659,
		0.24017921,
		-0.14395444,
		-0.067307957,
		0.020238705,
		0.069398321,
		-0.031167779,
		-0.068768784,
		0.065794833,
		0.01683747,
		-0.033229515,
		0.01317927,
		-0.17716782,
		-0.068242721,
		-0.093982577,
		-0.068396419,
		0.15417214,
		0.038491473,
		0.076530173,
		-0.050040536,
		0.026377633,
		-0.02948292,
		-0.1769736,
		0.16494551,
		-0.038760122,
		-0.10043215,
		-0.079227775,
		-0.08972571,
		-0.040338803,
		0.068119764,
		0.099344239,
		-0.018499814,
		-0.0007321497,
		-0.053196445,
		0.012407953,
		0.0089337872,
		0.0016779647,
		-0.1369552,
		-0.044743612,
		-0.0076415362,
		-0.05651788,
		0.046810731,
		0.045127463,
		0.071228288,
		0.077250637,
		0.048460342,
		0.20503867,
		0.057855316,
		0.13188107,
		0.15094981,
		-0.061245065,
		0.16719832,
		-0.08315672,
		-0.37957859,
		-0.16128851,
		-0.05805622,
		0.0047512851,
		0.12552737,
		-0.068999089,
		0.031962149,
		0.14261299,
		0.055842247,
		0.049633931,
		0.048365071,
		0.13147497,
		-0.0014005433,
		0.13782965,
		0.045623049,
		0.099351615,
		-0.045360822,
		0.06680081,
		-0.14400019,
		-0.0275688,
		0.023898965,
		-0.043779179,
		0.0045599188,
		-0.047001299,
		0.041341595,
		-0.0072792075,
		-0.0039001519,
		-0.11979701,
		0.10550527,
		0.11980753,
		0.30897671,
		0.10722782,
		0.0110932,
		0.15938912,
		0.01961574,
		0.0024777092,
		0.014522019,
		0.0020149129,
		0.097604692,
		0.024576718,
		0.16695036,
		-0.11746932,
		-0.11508588,
		-0.20388989,
		0.015329807,
		-0.022193978,
		-0.015466543,
		0.10617361,
		0.099069729,
		-0.015652547,
		-0.084119365,
		-0.019065045,
		-0.044635624,
		-0.15094478,
		0.10680477,
		-0.091455266,
		-0.056446951,
		-0.19658856,
		0.15345499,
		-0.062115002,
		0.055112757,
		0.1316209,
		-0.12785627,
		0.093746603,
		0.10412294,
		-0.11087482,
		0.23263144,
		-0.054606177,
		-0.11692601,
		0.052476928,
		-0.099228464,
		0.06670098,
		0.027098654,
		0.080380015,
		-0.18677923,
		0.0096318759,
		0.089304037,
		0.11553474,
		-0.10582186,
		-0.091639981,
		0.15829183,
		-0.14785351,
		-0.11515549,
		0.051135398,
		0.042445377,
		-0.02570368,
		-0.064567685,
		-0.12041172,
		0.033983145,
		0.10351066,
		0.012354674,
		-0.097041927,
		0.099329449,
		0.029520134,
		-0.26674598,
		0.053917449,
		0.14347336,
		-0.081602938,
		0.2904363,
		-0.091905542,
		0.026882254,
		-0.039822519,
		0.14625981,
		0.0093376338,
		-0.0093849991,
		-0.026646167,
		0.10959142,
		0.16318811,
		-0.025158817,
		0.05842704,
		0.065750606,
		-0.026137091,
		-0.023316283,
		0.0072523816,
		0.15891357,
		0.13684765,
		0.0040258868,
		-0.033001967,
		0.18558003,
		0.13818742,
		-0.010258366,
		-0.047569428,
		-0.31412131,
		-0.10002617,
		-0.12428989,
		0.0032924144,
		0.062037081,
		0.10187678,
		-0.048472945,
		0.11911759,
		-0.21354626,
		-0.016382672,
		-0.11103405,
		0.0011279498,
		0.086745262,
		-0.039561871,
		0.02424025,
		0.07090915,
		-0.0049886992,
		-0.13182969,
		0.052934695,
		0.044507828,
		0.021733915,
		-0.090515293,
		-0.085826322,
		0.084025703,
		-0.19512035,
		0.0640449,
		0.072821237,
		0.2129159,
		-0.049576048,
		0.0075190025,
		0.18700138,
		0.11409006,
		-0.071669914,
		-0.10155644,
		-0.088296548,
		-0.036586523,
		0.043605372,
		0.11405084,
		-0.060424272,
		-0.053813383,
		-0.1250291,
		0.082951583,
		0.019528365,
		-0.021381879,
		0.0053440849,
		0.070757419,
		-0.17848413,
		0.17275286,
		-0.1289375,
		-0.09887702,
		-0.055083305,
		0.0060092881,
		0.023777533,
		-0.10027926,
		-0.021396609,
		0.038903221,
		-0.12703556,
		-0.085806765,
		-0.044120844,
		0.11785379,
		0.14993873,
		0.0091515556,
		-0.15729685,
		0.0015139426,
		-0.095041476,
		0.0063954839,
		0.11188612,
		0.085471444,
		0.075035915,
		-0.0037293113,
		-0.082923859,
		-0.021904366,
		-0.1486195,
		-0.049609613,
		0.061935902,
		-0.0078750588,
		0.000082069084,
		-0.090011828,
		-0.010489335,
		-0.036017157,
		-0.042956866,
		0.047947191,
		-0.015244571,
		0.031270776,
		0.17588179,
		0.0056323367,
		0.2145547,
		-0.039107151,
		-0.14619194,
		0.032658882,
		-0.033454835,
		0.030999418,
		0.13767846,
		0.070023276,
		0.030135628,
		0.012508374,
		-0.12223431,
		0.072085135,
		0.20734365,
		-0.059674863,
		-0.2117928,
		0.0118561,
		-0.065635584,
		0.073843807,
		0.042489715,
		0.21032566,
		0.017508656,
		0.082471766,
		-0.19020501,
		0.059210539,
		0.064749219,
		-0.0005862973,
		0.02981529,
		0.054948751,
		0.086186901,
		0.14799125,
		-0.034881055,
		0.12910974,
		0.021408128,
		-0.02388888,
		0.051021311,
		0.15214495,
		-0.011458127,
		0.052101791,
		0.070983991,
		-0.039218616,
		0.070302442,
		0.067270003,
		-0.038531695,
		-0.0086577125,
		0.00070154935,
		-0.15840487,
		-0.035331193,
		0.094472826,
		-0.075504132,
		0.005610426,
		-0.036978878,
		0.077864617,
		0.076957256,
		-0.11890496,
		-0.016437473,
		0.0096735768,
		0.14448003,
		-0.10484058,
		-0.13742487,
		-0.10121211,
		-0.10165334,
		-0.0075827329,
		-0.12875342,
		0.10406126,
		0.081610031,
		0.0112104,
		0.038440209,
		-0.042086534,
		-0.091135532,
		0.021512246,
		0.079400711,
		0.097946763,
		-0.13564631,
		-0.098295934,
		0.033212207,
		-0.064574584,
		-0.21407102,
		-0.061463505,
		0.21394892,
		0.085449286,
		-0.014220075,
		-0.075669639,
		0.022265822,
		-0.032537937,
		-0.065326802,
		0.080363594,
		0.0025654428,
		-0.086543806,
		0.053462852,
		0.025233924,
		0.15145603,
		0.03390662,
		-0.070120029,
		0.1113811,
		0.088308074,
		0.061212569,
		0.010694961,
		0.011870811,
		0.11672515,
		0.065820992,
		-0.0058480036,
		0.084564619,
		0.16403314,
		-0.079842307,
		0.090274528,
		-0.058891144,
		0.16281308,
		-0.0020950339,
		0.062200516,
		0.13066535,
		-0.23381944,
		0.14799415,
		-0.11088372,
		-0.044074424,
		0.11769854,
		-0.057493754,
		-0.071523875,
		-0.12382669,
		-0.083063073,
		-0.014052434,
		-0.0039901817,
		-0.0066311494,
		0.10838149,
		0.098807432,
		0.20367502,
		-0.11665839,
		-0.044894587,
		-0.030938543,
		-0.062968336,
		0.057204291,
		0.024892062,
		0.030912647,
		-0.065311313,
		0.015194756,
		-0.1745335,
		0.19090323,
		0.065896265,
		0.033346176,
		-0.005692034,
		0.0053133406,
		-0.010625425,
		0.032431316,
		-0.13300268,
		0.028582204,
		-0.013879256,
		-0.044473764,
		-0.060437113,
		0.016210608,
		-0.038384087,
		0.14676225,
		-0.20212305,
		0.11623012,
		-0.013336963,
		-0.085667975,
		0.23183522,
		0.045777153,
		0.01657694,
		-0.038744293,
		0.073187076,
		0.041093327,
		-0.077823982,
		-0.078976914,
		-0.18821339,
		-0.00036344762,
		-0.15392001,
		-0.19150063,
		0.015789101,
		-0.03382187,
		-0.09778133,
		0.15226991,
		0.00065382104,
		0.11209472,
		0.029253343,
		0.14762294,
		-0.030823238,
		0.032599524,
		0.15539183,
		0.0055016996,
		0.022172935,
		-0.043488424,
		0.028744631,
		-0.021007532,
		-0.037809435,
		0.085354194,
		0.051057145,
		0.040230114,
		0.19603308,
		-0.16310158,
		-0.080687858,
		-0.010083618,
		-0.064514741,
		-0.1217187,
		-0.23085096,
		-0.073584974,
		0.10202539,
		0.22537507,
		0.023512306,
		0.048557777,
		-0.011103256,
		-0.029144861,
		0.002378966,
		0.076711878,
		0.057165876,
		-0.002251615,
		-0.051473573,
		-0.03571457,
		0.21711355,
		0.041736137,
		0.011386821,
		0.043186888,
		-0.093143456,
		0.073432602,
		0.15731606,
		0.017394504,
		-0.16474861,
		0.031537086,
		-0.0056940452,
		-0.028268196,
		0.12509373,
		-0.12113431,
		-0.022510746,
		0.0022565892,
		0.14296331,
		-0.0297867,
		-0.010132982,
		-0.0539793,
		-0.12473463,
		0.090650626,
		-0.033192027,
		0.059523445,
		0.042700015,
		-0.068564184,
		-0.14569779,
		-0.036967054,
		0.053935971,
		0.022729577,
		0.028756199,
		-0.10175125,
		0.071287215,
		0.016970104,
		-0.087182932,
		0.056327846,
		0.063861176,
		-0.035233989,
		-0.070000082,
		0.05425432,
		-0.067287609,
		0.31205672,
		0.12041979,
		-0.09199062,
		0.023861015,
		0.0052591879,
		0.012889171,
		-0.099281698,
		-0.050208539,
		-0.097213633,
		0.018549625,
		0.095705941,
		0.070845217,
		0.12608668,
		-0.076289378,
		0.14082609,
		-0.049438406,
		-0.075365953,
		-0.22483625,
		-0.008083133,
		-0.062599063,
		-0.083629243,
		0.11899249,
		0.07973247,
		-0.09574604,
		0.064590938,
		-0.0058869743,
		-0.066385239,
		0.032213666,
		-0.17648225,
		-0.14936815,
		-0.068925843,
		0.060913924,
		0.107979,
		0.15564142,
		0.0058255987,
		-0.066816874,
		-0.25392202,
		-0.068266965,
		-0.12824675,
		-0.021229262,
		0.18626046,
		-0.20219864,
		-0.030170804,
		-0.059901405,
		0.044800889,
		0.12828812,
		-0.10985881,
		-0.014263305,
		0.056012549,
		-0.14582151,
		0.13761553,
		0.0074144835,
		-0.14321655,
		0.22226426,
		0.1596414,
		-0.0072294385,
		-0.044556893,
		0.034976464,
		-0.13514906,
		0.02716223,
		-0.19658719,
		-0.031830594,
		0.049119521,
		-0.070149682,
		0.064568423,
		0.036536314,
		-0.12835291,
		-0.10018943,
		-0.017709358,
		-0.15288253,
		0.088239342,
		0.0062824097,
		0.17415369,
		0.021383883,
		0.079521865,
		-0.15318044,
		-0.0778616,
		0.11729286,
		0.068368085,
		0.03299237,
		0.063003086,
		-0.0050484799,
		0.068946622,
		-0.023889754,
		-0.058240298,
		0.15300156,
		-0.10748848,
		-0.044411678,
		0.088223249,
		-0.1644209,
		-0.038241647,
		0.085117832,
		-0.21164277,
		-0.033143356,
		-0.0023420402,
		0.061572198,
		0.088849209,
		-0.043394893,
		0.01231361,
		0.041543372,
		0.021413835,
		-0.0062275832,
		0.24175899,
		0.11238578,
		0.043498963,
		0.08030276,
		0.053518984,
		-0.018229794,
		0.11398629,
		-0.019333987,
		0.095564343,
		-0.045387715,
		0.17253336,
		-0.056159049,
		0.085689537,
		-0.067627668,
		-0.054062288,
		-0.019019339,
		-0.014407045,
		-0.043627247,
		0.23555151,
		-0.059688732,
		-0.054128207,
		0.076252483,
		0.03088551,
		-0.048158884,
		0.11648909,
		-0.11268117,
		0.00049053424,
		-0.014899503,
		0.025501385,
		-0.0045032697,
		-0.1001581,
		-0.006706791,
		0.027287174,
		-0.16850519,
		-0.19794387,
		0.0032607801,
		0.07366322,
		0.081859134,
		0.089903817,
		0.017843315,
		-0.12066227,
		-0.031688269,
		0.16274489,
		0.025227541,
		-0.0081863478,
		-0.10024546,
		-0.014405149,
		-0.15201549,
		-0.16045617,
		-0.0085325846,
		-0.11198722,
		0.0095701795,
		0.080493927,
		-0.084739603,
		0.20477667,
		-0.077945009,
		-0.10580985,
		0.05843351,
		-0.15792951,
		0.060911357,
		0.1624184,
		0.037515704,
		-0.088306598,
		0.1429829,
		-0.052628443,
		0.048843648,
		0.012687271,
		-0.10328358,
		-0.073615655,
		-0.082456425,
		-0.241144,
		0.055718109,
		-0.12329154,
		-0.022276254,
		-0.0035491786,
		-0.099356718,
		-0.090839006,
		0.05345165,
		-0.037866171,
		-0.20448218,
		-0.12150755,
		0.0098171933,
		0.033833135,
		-0.023242299,
		0.048213556,
		-0.17585838,
		0.050473966,
		0.012942727,
		0.061408874,
		-0.062297162,
		0.040339056,
		0.092880741,
		-0.16706575,
		0.087476149,
		-0.016670676,
		-0.008291862,
		0.17367448,
		0.15964124,
		0.082402349,
		-0.19090302,
		-0.014497165,
		0.17637791,
		-0.076250054,
		0.086104773,
		0.10710989,
		-0.019778637,
		-0.085361511,
		-0.072503142,
		-0.050826255,
		0.032912005,
		0.067555822,
		-0.015366116,
		-0.092773139,
		0.072876275,
		0.092357852,
		-0.13463783,
		0.022681613,
		0.022897802,
		0.10288171,
		0.15436634,
		-0.012879323,
		0.066726893,
		-0.14581935,
		0.0061386088,
		0.11548807,
		0.22586358,
		-0.12402065,
		-0.064895153,
		0.17806624,
		0.0082751289,
		0.027018212,
		-0.035479046,
		-0.091620766,
		-0.083275169,
		-0.093435854,
		0.22200076,
		-0.093375459,
		-0.0012126693,
		-0.068639696,
		-0.061041597,
		0.084397234,
		-0.0092881657,
		-0.04169504,
		-0.066451833,
		0.022503216,
		-0.01509972,
		0.091386706,
		0.012132366,
		-0.11019533,
		0.014950584,
		-0.049874675,
		-0.02217833,
		-0.048819747,
		0.14624339,
		0.019341387,
		0.11981423,
		0.073576614,
		-0.0040120925,
		0.058740709,
		0.029805524,
		0.15586142,
		-0.13106945,
		-0.15800789,
		-0.23815933,
		-0.031190999,
		0.048214685,
		0.064605385,
		-0.040337723,
		-0.013534787,
		-0.23693612,
		0.0056293467,
		0.00010256151,
		-0.12990718,
		-0.073450617,
		0.0069997567,
		0.059449472,
		0.17923862,
		-0.068781093,
		-0.020717558,
		-0.09044984,
		0.032675836,
		-0.074129514,
		0.098231763,
		-0.084102347,
		0.084574118,
		0.16167763,
		-0.17203782,
		-0.02810148,
		-0.034781847,
		-0.026825078,
		0.076088645,
		-0.0016099622,
		0.017605139,
		-0.046275992,
		0.13877624,
		0.022428764,
		-0.25507328,
		-0.1651012,
		0.10872711,
		-0.23211248,
		0.029767824,
		-0.020467129,
		-0.028833834,
		-0.11341564,
		0.089116417,
		0.033929691,
		-0.011847354,
		0.13638099,
		-0.029938933,
		0.091392234,
		0.099300444,
		0.062264726,
		0.040987473,
		0.057879731,
		0.17297402,
		-0.078191258,
		0.026370671,
		0.15563087,
		-0.033375937,
		0.11776938,
		0.15013024,
		0.031588905,
		0.066182412,
		0.04224883,
		-0.081900403,
		0.15882033,
		-0.068158507,
		0.098516494,
		0.051428653,
		-0.017916886,
		0.16162919,
		-0.020178873,
		-0.028049814,
		-0.0094071599,
		-0.14338659,
		-0.027431069,
		-0.055355102,
		-0.01567347,
		-0.083369613,
		-0.0056678513,
		0.079810515,
		0.09608008,
		0.021915549,
		-0.0015501176,
		-0.072795376,
		0.066428199,
		0.15325202,
		0.13712102,
		0.16246903,
		-0.17180748,
		0.12733056,
		-0.14806983,
		0.094287395,
		0.14062367,
		-0.058741063,
		-0.027001498,
		0.20739309,
		-0.10674793,
		0.028149696,
		-0.12825575,
		0.060307816,
		0.057649568,
		-0.080430299,
		0.1920943,
		-0.15108339,
		0.018878777,
		-0.206293,
		-0.036056608,
		-0.003216265,
		0.078623861,
		0.057388652,
		-0.15268196,
		-0.007317883,
		0.042165022,
		-0.090009071,
		-0.21850519,
		0.1554013,
		-0.32012695,
		0.027400121,
		0.13109788,
		0.015211205,
		-0.068769969,
		0.010211478,
		0.026157817,
		0.038309347,
		0.049430992,
		-0.0051445202,
		-0.062813364,
		0.0049769338,
		-0.15433931,
		-0.085234396,
		-0.12023918,
		-0.027961073,
		-0.062073957,
		-0.23041683,
		0.20114025,
		0.00058792497,
		-0.014163799,
		-0.020140886,
		0.13218701,
		-0.0046624974,
		0.17743607,
		0.10969333,
		-0.049857762,
		0.05735128,
		0.0062672873,
		0.080445662,
		0.056799125,
		-0.031446297,
		0.089275979,
		-0.14434239,
		-0.13995267,
		0.058335364,
		-0.0044786483,
		0.014731622,
		0.24652824,
		0.083558306,
		-0.034064498,
		0.063384928,
		-0.12579267,
		0.21049841,
		0.0042015375,
		0.068287469,
		-0.13017644,
		0.11172171,
		0.093361065,
		-0.063344911,
		0.050238572,
		-0.16009986,
		-0.27996469,
		0.010978458,
		0.025499132,
		0.13548206,
		0.06644877,
		-0.16169158,
		0.053211343,
		-0.10222161,
		0.11458108,
		-0.10952571,
		0.036478393,
		0.06633389,
		-0.03339155,
		-0.051307537,
		0.085068978,
		0.031161783,
		0.050933275,
		0.048810653,
		0.019055134,
		-0.17307737,
		0.069571845,
		0.16268609,
		-0.18700778,
		0.24740277,
		-0.19912091,
		-0.11317538,
		0.078134984,
		-0.040760431,
		-0.011324801,
		-0.11283548,
		-0.020055128,
		0.043418091,
		0.033053953,
		-0.038052808,
		-0.0079105953,
		0.05809065,
		-0.033712581,
		-0.007142595,
		-0.072176978,
		0.053903535,
		-0.011412748,
		0.060645036,
		-0.15191703,
		-0.0033085959,
		0.12744209,
		0.15914539,
		-0.0012581117,
		-0.045040485,
		-0.15045646,
		0.097373269,
		-0.065772086,
		-0.012893086,
		0.14878944,
		-0.145624,
		0.18691832,
		-0.047344502,
		-0.021738004,
		-0.12287894,
		-0.081982613,
		0.072109655,
		0.049168672,
		0.19316848,
		-0.025985776,
		-0.15007186,
		-0.11517439,
		0.084058538,
		-0.081884913,
		-0.047235217,
		0.15100373,
		0.16327858,
		-0.069194049,
		-0.054059561,
		-0.27057892,
		-0.095843337,
		0.01226845,
		-0.20466906,
		-0.063404344,
		-0.129704,
		0.087067343,
		0.054844059,
		-0.18378638,
		-0.0078630988,
		0.1426947,
		-0.12377528,
		0.0095255496,
		0.10010559,
		-0.067221835,
		0.019585298,
		0.11911038,
		0.19393681,
		0.11159303,
		-0.10520297,
		-0.099261872,
		0.194131,
		0.25420782,
		-0.0036213226,
		-0.091939345,
		0.13694353,
		-0.024295796,
		0.04098383,
		-0.0091831964,
		-0.065034993,
		-0.20704356,
		-0.059822764,
		-0.024505084,
		-0.035284068,
		0.098131344,
		0.077403881,
		-0.058257207,
		0.0079356385,
		-0.14418349,
		0.042554319,
		-0.0830312,
		0.071562417,
		-0.043389246,
		0.13292991,
		0.024312332,
		-0.0675667,
		-0.11358866,
		0.093438514,
		-0.0047718002,
		-0.03849709,
		-0.012187663,
		-0.16629967,
		-0.058371045,
		-0.051892377,
		0.11433724,
		0.0072213192,
		-0.077902973,
		-0.054834083,
		0.0078990934,
		-0.13792317,
		0.070829973,
		-0.0098208645,
		-0.24084158,
		0.0029575315,
		0.07933706,
		0.038666703,
		-0.051701061,
		-0.078328252,
		-0.053000197,
		-0.061469227,
		-0.024365004,
		-0.10890783,
		0.14829478,
		0.11049695,
		0.00448411,
		0.14605808,
		-0.028774455,
		-0.18851429,
		0.086927064,
		0.00048470165,
		-0.078914165,
		0.10123421,
		0.12604931,
		-0.0043133046,
		-0.22740479,
		-0.05454677,
		-0.15923105,
		-0.12754831,
		0.04845804,
		-0.0072971475,
		0.027532628,
		0.14809442,
		0.15765183,
		-0.062621668,
		0.066248804,
		-0.15649518,
		0.04414092,
		0.12750058,
		-0.062535807,
		0.19188675,
		-0.0606695,
		-0.0027705852,
		0.081290044,
		-0.21330282,
		-0.11031906,
		0.16223817,
		0.028094588,
		0.17747413,
		0.047954105,
		-0.073247038,
		-0.024406038,
		0.12815826,
		-0.022403911,
		0.032142244,
		-0.098520026,
		0.15557565,
		-0.10222533,
		-0.13335104,
		-0.022468992,
		-0.14971238,
		-0.11348365,
		0.027703531,
		0.093055375,
		-0.087563567,
		0.04239874,
		-0.10147943,
		-0.10084723,
		-0.061092529,
		-0.058494687,
		0.075794615,
		-0.031004071,
		0.046755161,
		0.17481312,
		-0.17234448,
		-0.077219784,
		-0.073489487,
		0.12692457,
		0.093715437,
		-0.29466361,
		0.066930555,
		0.11260578,
		0.13044313,
		-0.017498687,
		-0.17703645,
		-0.099385582,
		-0.15503776,
		-0.11928304,
		0.11236148,
		0.093696527,
		0.23176385,
		0.055564046,
		0.075627394,
		0.003701861,
		0.0078840088,
		-0.0455948,
		-0.18134956,
		0.12546593,
		0.0037971477,
		-0.096541479,
		0.074457467,
		0.1153505,
		0.095155813,
		-0.16737576,
		-0.072958335,
		0.040923402,
		0.055194639,
		-0.055246938,
		-0.014594625,
		-0.042970225,
		-0.0020649815,
		0.023597591,
		0.033242222,
		-0.047367673,
		0.023312915,
		-0.11761447,
		-0.31828994,
		0.025018301,
		0.043402322,
		-0.11370318,
		-0.039762057,
		-0.0073413881,
		0.083703831,
		0.074040785,
		-0.023394935,
		-0.24174707,
		0.15771028,
		0.0903861,
		-0.020120481,
		0.034182373,
		0.20865087,
		-0.080245525,
		0.041531265,
		0.0087449821,
		-0.069215126,
		0.054552659,
		-0.13405551,
		-0.056267876,
		-0.0080796797,
		-0.055124059,
		0.12606177,
		-0.16335906,
		-0.038956176,
		-0.085452072,
		-0.19572833,
		-0.083071187,
		-0.11573158,
		-0.023882307,
		-0.082078151,
		-0.029312015,
		0.21322571,
		-0.0080814455,
		0.035051383,
		0.14270774,
		0.10031452,
		-0.0206833,
		0.07670974,
		-0.11167688,
		-0.062185898,
		0.15625528,
		-0.02492835,
		0.020209111,
		0.085796997,
		-0.0013071116,
		-0.072083883,
		0.069055721,
		0.088800669,
		0.28698266,
		0.067481577,
		0.20620233,
		-0.017451406,
		-0.0079231476,
		-0.20221753,
		-0.042308901,
		0.043994214,
		-0.073843315,
		-0.074282549,
		-0.05505228,
		0.0051203654,
		0.047540434,
		0.12497308,
		-0.043727979,
		0.0017412977,
		0.079255529,
		0.0024505442,
		0.12795949,
		-0.044019997,
		0.091468088,
		0.010410258,
		-0.13221079,
		0.18291375,
		0.035896048,
		0.080872886,
		-0.038874656,
		-0.10379803,
		-0.11954314,
		0.082788803,
		-0.010861114,
		-0.049782615,
		-0.25156689,
		-0.16494471,
		-0.015544989,
		0.098177403,
		-0.092457794,
		-0.036146622,
		-0.045836657,
		0.068060599,
		0.026474694,
		-0.049321428,
		-0.010825791,
		0.069329187,
		0.057861451,
		-0.20614821,
		0.10795134,
		0.051526058,
		-0.23696697,
		-0.024242193,
		0.050678577,
		-0.036422588,
		-0.015909698,
		-0.12171745,
		-0.0014709235,
		0.084267765,
		-0.089061789,
		-0.19222835,
		0.044898652,
		-0.015487589,
		-0.11957556,
		0.018977933,
		0.12459891,
		0.09204872,
		-0.14754423,
		-0.19678396,
		0.0043508504,
		-0.2163516,
		0.069508307,
		-0.057407543,
		-0.067825906,
		0.028107842,
		-0.024135554,
		0.0046857405,
		0.029841686,
		-0.0022453296,
		-0.00032242484,
		-0.12936682,
		0.073165849,
		0.26104295,
		0.10621986,
		-0.05756231,
		0.076456249,
		-0.0069186427,
		0.14750235,
		-0.09667743,
		0.052885078,
		-0.07645382,
		-0.2606954,
		-0.075950339,
		-0.049009524,
		-0.004317394,
		0.064907953,
		-0.10661461,
		-0.0033069546,
		0.059193399,
		-0.063128799,
		-0.11433194,
		0.079679392,
		-0.10183156,
		0.016868548,
		-0.16269699,
		0.021099776,
		0.040998254,
		0.14055513,
		0.046706885,
		-0.043827787,
		-0.030483786,
		0.12088715,
		-0.090498187,
		-0.032622356,
		-0.31501496,
		-0.039615154,
		-0.14374687,
		0.097476289,
		0.074648112,
		-0.022054126,
		0.02419607,
		0.035697345,
		0.081490137,
		0.26911998,
		-0.031124594,
		-0.12506194,
		0.13303411,
		0.21420652,
		-0.10636681,
		-0.053717352,
		-0.055605698,
		0.11248603,
		0.10019616,
		0.01892665,
		0.02899236,
		-0.046086598,
		0.047882844,
		0.1160516,
		-0.040960737,
		-0.017303966,
		-0.13685846,
		0.017567905,
		0.063648187,
		-0.10577249,
		-0.06086348,
		0.084901005,
		0.13096339,
		0.16613071,
		-0.024034971,
		0.06201065,
		0.07446491,
		-0.064280301,
		-0.04174054,
		0.030675957,
		0.058093656,
		0.083119169,
		0.0002583614,
		-0.13353302,
		-0.15290047,
		-0.10297796,
		-0.017628599,
		-0.033572003,
		0.031470705,
		-0.15066861,
		-0.028246241,
		-0.14615135,
		0.015247177,
		-0.035257109,
		-0.086873151,
		0.016725466,
		-0.010125096,
		-0.072110154,
		0.11081282,
		0.0079567386,
		-0.037369817,
		0.076596461,
		0.18505269,
		0.060887359,
		-0.12445274,
		-0.0094989277,
		0.089914687,
		0.084111497,
		-0.083373323,
		-0.000063707332,
		0.098363824,
		-0.10147239,
		-0.067260161,
		-0.1269909,
		0.024981244,
		-0.01417187,
		0.011259949,
		-0.19355083,
		0.061082736,
		0.065174602,
		-0.079868376,
		0.095030814,
		0.21712172,
		0.14412956,
		-0.13117462,
		-0.028397255,
		-0.13872664,
		0.17119038,
		-0.027642895,
		-0.055929314,
		0.085657023,
		-0.09449289,
		0.035867471,
		-0.057940904,
		-0.0041647437,
		-0.096529089,
		-0.026787778,
		-0.084973671,
		0.069389448,
		-0.05668246,
		-0.12166817,
		0.16592981,
		-0.15292619,
		-0.13812703,
		-0.22007409,
		-0.10139656,
		-0.073701687,
		0.037514746,
		-0.01864239,
		-0.093570851,
		-0.13705693,
		0.20638077,
		-0.031663984,
		0.1447489,
		-0.14241922,
		0.15942882,
		0.079975396,
		0.017855911,
		0.041068695,
		0.060840957,
		-0.13327338,
		0.09507852,
		0.013950121,
		-0.016766321,
		-0.027685672,
		-0.29836223,
		0.059705641,
		0.037083954,
		0.052767757,
		-0.044391725,
		-0.041006088,
		-0.24472611,
		-0.080684483,
		-0.16527097,
		0.12681995,
		0.090799913,
		-0.055054668,
		-0.051738031,
		0.1660016,
		0.12519161,
		0.067546725,
		0.097928561,
		0.33715796,
		-0.033380534,
		-0.056550469,
		0.0092412708,
		0.084869236,
		0.071000762,
		0.082125075,
		0.074082285,
		-0.16644149,
		0.11088332,
		0.11006901,
		0.063304737,
		0.022880333,
		0.089044914,
		-0.038967609,
		-0.095034972,
		-0.119679,
		0.0093049109,
		0.039625529,
		0.10943332,
		-0.04855052,
		0.22879732,
		-0.1231148,
		0.064131677,
		-0.20222181,
		0.060689084,
		-0.070904769,
		-0.022278411,
		-0.017892744,
		-0.029671796,
		-0.046815813,
		-0.049837098,
		0.067950226,
		-0.059614044,
		0.044920407,
		0.16728105,
		-0.017793467,
		-0.18738945,
		0.04485302,
		0.0021461996,
		-0.010158528,
		-0.046769701,
		-0.16228169,
		0.056298144,
		-0.045388717,
		-0.068770625,
		-0.10661004,
		-0.084198505,
		0.05420414,
		-0.036557354,
		-0.11323049,
		-0.0063027828,
		0.040977217,
		0.052173339,
		0.091011457,
		0.095552035,
		-0.054332007,
		0.090602718,
		-0.15350133,
		0.076905824,
		-0.0065489062,
		0.094862603,
		0.12365898,
		-0.027633313,
		0.060756564,
		0.14189725,
		0.024459908,
		0.13081191,
		0.02290516,
		-0.07092572,
		-0.029564703,
		0.053847395,
		0.062882647,
		-0.14049822,
		-0.14631329,
		0.059309471,
		0.014571772,
		0.039516114,
		0.17717741,
		0.061790522,
		-0.042213652,
		0.1503226,
		0.075773925,
		-0.086714901,
		0.18851347,
		0.099031053,
		-0.10549558,
		0.18150644,
		-0.019977164,
		0.017649103,
		-0.18144806,
		0.096841149,
		0.07653635,
		0.14361696,
		-0.039388206,
		-0.2737875,
		-0.13965181,
		0.06419339,
		0.025910636,
		0.0055971458,
		-0.068233855,
		-0.04760839,
		-0.17295955,
		-0.2055878,
		-0.029278904,
		-0.15313919,
		0.13393191,
		-0.023229808,
		0.19899517,
		-0.12659885,
		0.091995329,
		-0.081172682,
		0.044913415,
		0.11439806,
		-0.024271369,
		0.021566322,
		0.12992245,
		0.052026633,
		-0.00063967629,
		-0.12622063,
		-0.011252087,
		0.049616519,
		0.075423405,
		0.08074262,
		-0.093043946,
		-0.017085135,
		-0.087894402,
		-0.04849143,
		0.25635257,
		0.088055491,
		0.064178333,
		-0.12002104,
		0.16237585,
		0.053907357,
		0.10373577,
		-0.013263646,
		0.088681325,
		0.00089954911,
		0.18322334,
		0.04702571,
		0.15542792,
		-0.087645419,
		-0.078753911,
		-0.16802017,
		0.043576811,
		0.11530832,
		0.024657946,
		-0.12187834,
		-0.080332354,
		0.0018212317,
		0.21868846,
		0.023426801,
		-0.037578747,
		-0.074018784,
		-0.033330295,
		-0.1357794,
		-0.012551789,
		0.13122731,
		-0.068517946,
		0.087870471,
		0.028137397,
		0.0075999317,
		-0.12523293,
		-0.00774273,
		0.12066819,
		0.016305743,
		-0.073548682,
		0.091798261,
		-0.0054003047,
		-0.045672506,
		-0.27441362,
		-0.23568158,
		-0.049200561,
		-0.014356597,
		0.078945875,
		-0.22262122,
		0.14993057,
		0.075663067,
		-0.11766658,
		-0.019733978,
		0.047619477,
		-0.086438261,
		-0.19301806,
		-0.3037653,
		-0.014147785,
		0.10514535,
		0.019165412,
		-0.039698247,
		0.10593525,
		0.0014960697,
		0.12540285,
		-0.094263136,
		0.047928162,
		0.088064678,
		0.073917136,
		-0.164344,
		0.038274743,
		-0.14999336,
		0.088156298,
		-0.068276137,
		-0.036652841,
		-0.069655225,
		-0.074539259,
		-0.032444105,
		-0.10591105,
		-0.057036627,
		0.020058824,
		0.007541392,
		-0.039856821,
		-0.15823977,
		0.10820415,
		-0.109772,
		0.036653653,
		-0.16973297,
		0.034730539,
		0.12871481,
		-0.014688515,
		-0.10790822,
		0.040797457,
		-0.037468288,
		-0.0030625728,
		0.026771057,
		0.050572343,
		0.14814781,
		-0.030787762,
		0.093083322,
		0.13104543,
		0.074976735,
		-0.28708079,
		-0.037094668,
		0.067333676,
		0.028180795,
		0.037719857,
		-0.088555433,
		0.0064077331,
		-0.016788559,
		0.032085817,
		0.17549732,
		-0.11672635,
		0.054441441,
		0.14577477,
		0.045608684,
		-0.10272734,
		0.2379237,
		-0.012850591,
		0.033515804,
		0.16089118,
		-0.0048401025,
		-0.15788183,
		0.10598174,
		0.070191078,
		-0.030717235,
		0.18449105,
		0.096166939,
		-0.049902409,
		0.10617847,
		0.027105395,
		0.10689395,
		-0.016070373,
		-0.082191467,
		0.027675426,
		0.097611941,
		0.23068561,
		-0.042818774,
		0.042737249,
		0.021486981,
		0.19832072,
		-0.042525072,
		0.015492791,
		0.10331789,
		-0.052819058,
		0.014681783,
		0.025609447,
		-0.001879603,
		0.17812154,
		0.12767838,
		-0.063005127,
		0.00063003373,
		-0.038777094,
		0.033290748,
		-0.01221477,
		-0.030438513,
		-0.053554378,
		0.027604425,
		-0.014278104,
		-0.13725837,
		-0.08698763,
		-0.11119236,
		0.033729788,
		-0.074541897,
		0.098534763,
		0.026423624,
		0.072100542,
		0.21440463,
		-0.1563905,
		0.11461938,
		0.078796178,
		-0.15872529,
		0.12948784,
		0.16349514,
		0.13099301,
		-0.0088396678,
		0.090868488,
		-0.024388818,
		-0.13963366,
		0.076294594,
		-0.15573423,
		-0.064325623,
		0.19238546,
		0.10728111,
		0.044930734,
		-0.048831996,
		-0.067244485,
		0.057952009,
		0.084567435,
		-0.051563781,
		0.040024884,
		0.011404258,
		0.10607999,
		-0.074824803,
		-0.059852436,
		-0.031329256,
		0.042884443,
		-0.016541086,
		0.18115632,
		-0.11111918,
		0.16297768,
		-0.0096382368,
		-0.008379383,
		-0.22194076,
		-0.073438048,
		-0.16898528,
		-0.021486474,
		-0.23551041,
		-0.069799237,
		-0.10988014,
		0.0063687768,
		-0.0069230329,
		0.1143666,
		-0.078573234,
		0.10825659,
		-0.016394496,
		-0.20662805,
		-0.0096747531,
		-0.059572559,
		0.070972733,
		0.058431782,
		-0.12695847,
		-0.043598182,
		0.1123171,
		0.053142529,
		-0.12630217,
		0.010853224,
		0.098992229,
		0.090168111,
		0.08042375,
		-0.008417543,
		0.24182819,
		0.015769497,
		-0.13874942,
		-0.049956426,
		0.06168852,
		0.075855307,
		0.017844187,
		0.020448547,
		0.10840301,
		-0.012552965,
		-0.23744678,
		0.14850874,
		-0.00088710996,
		0.065049812,
		0.095358774,
		0.020093646,
		-0.14829688,
		0.14995672,
		0.00063173263,
		0.10631715,
		-0.17723604,
		0.011998817,
		-0.12101562,
		-0.04245273,
		0.041978884,
		0.055974402,
		0.07775709,
		0.02690202,
		-0.041834086,
		-0.047599413,
		-0.022406954,
		-0.059655011,
		-0.038614441,
		-0.011118931,
		-0.13031627,
		0.022390028,
		0.10951404,
		0.15661815,
		0.035894215,
		0.0040415344,
		-0.017699629,
		0.060204871,
		-0.043371167,
		0.012069545,
		0.037714299,
		-0.1826411,
		0.047211774,
		0.13773724,
		-0.033782557,
		0.21713316,
		0.1097941,
		0.010236403,
		-0.10337029,
		-0.043493029,
		0.034666512,
		0.027982179,
		-0.032968231,
		0.0082449066,
		0.019994112,
		0.044966735,
		-0.090116277,
		-0.062062144,
		0.12340242,
		-0.15160362,
		0.042731535,
		0.092948608,
		-0.017888598,
		-0.04746956,
		0.091589436,
		-0.12614596,
		0.019343188,
		0.028621271,
		-0.066341236,
		0.060460009,
		0.033630177,
		0.039448164,
		0.11095439,
		-0.033765752,
		-0.012187241,
		-0.0070174658,
		-0.10981261,
		-0.017394129,
		-0.051707938,
		0.020335458,
		-0.06085277,
		0.053687658,
		-0.21847394,
		-0.01660073,
		0.057476167,
		0.092040502,
		0.11709668,
		-0.22081088,
		-0.0034015952,
		-0.03892114,
		0.13632885,
		0.12005661,
		-0.10273926,
		0.16036998,
		0.084848836,
		-0.097410135,
		-0.12378103,
		-0.13928026,
		0.10150117,
		-0.12038298,
		0.016865984,
		-0.087210171,
		0.044103011,
		-0.021571551,
		0.087624624,
		0.093124777,
		-0.092461824,
		-0.16041425,
		0.066357568,
		0.06016314,
		0.10800621,
		0.14598009,
		0.084152944,
		-0.06246604,
		-0.16478582,
		0.072314292,
		-0.13036433,
		0.038355935,
		0.017191121,
		-0.030945446,
		-0.0069056419,
		0.0033812667,
		-0.046284996,
		0.10920308,
		0.096889794,
		0.33122933,
		0.11058865,
		0.075217947,
		-0.14473808,
		0.031622432,
		0.057993073,
		0.19520311,
		0.019623196,
		-0.024755854,
		0.089977026,
		-0.038977087,
		-0.017297912,
		0.11344071,
		-0.046140738,
		0.10414547,
		0.078929707,
		0.030689612,
		-0.084615812,
		-0.043608811,
		-0.038349509,
		0.054223232,
		-0.047602553,
		-0.062795199,
		-0.0027084027,
		0.10469449,
		0.017270418,
		0.086849727,
		0.1819312,
		-0.010667352,
		0.074407324,
		-0.051182382,
		0.054448944,
		0.10673803,
		0.041202858,
		0.030075993,
		-0.23154177,
		-0.15214668,
		0.21370916,
		0.013400603,
		0.11836077,
		0.10234191,
		0.14416887,
		-0.15663572,
		-0.16063717,
		-0.012008509,
		0.12795007,
		-0.15718327,
		0.083949938,
		-0.1249057,
		-0.02027392,
		0.042047281,
		0.14731899,
		0.19176665,
		0.23345783,
		0.055834901,
		-0.0050374763,
		-0.053363871,
		-0.10298195,
		-0.13902694,
		-0.073916495,
		0.073956124,
		-0.10467788,
		-0.24295002,
		-0.055726495,
		-0.13823356,
		-0.10831904,
		-0.088039592,
		-0.0060002813,
		0.10830266,
		0.140466,
		-0.054535378,
		-0.016349766,
		-0.0035139874,
		-0.024463927,
		0.0018342654,
		-0.046049487,
		0.0019444518,
		0.12177555,
		0.018916635,
		-0.030856961,
		0.10316697,
		-0.02156876,
		0.027447494,
		-0.089041062,
		-0.056099858,
		0.013585693,
		0.11702166,
		0.00060168724,
		-0.11397916,
		0.077127904,
		-0.14033617,
		0.15256731,
		-0.014389297,
		0.21162187,
		-0.11359651,
		-0.046174262,
		0.08416725,
		0.1501299,
		-0.15751041,
		0.065353461,
		0.12642123,
		-0.049147114,
		0.020038899,
		-0.010132028,
		-0.076122932,
		-0.22330181,
		-0.13278432,
		0.13340354,
		-0.058981307,
		-0.20959665,
		0.034965701,
		0.12562139,
		-0.080620199,
		-0.19807501,
		-0.13760652,
		-0.041829534,
		-0.050780877,
		-0.1556803,
		0.077260256,
		-0.12449274,
		-0.064326726,
		0.065972999,
		-0.20609695,
		0.079394586,
		-0.027734883,
		-0.047721911,
		-0.12056538,
		-0.059322357,
		0.048876096,
		-0.19982684,
		-0.095773928,
		0.18038836,
		-0.09904319,
		-0.017121101,
		-0.1594924,
		0.10732701,
		0.030436963,
		-0.030098671,
		0.020346571,
		-0.075495981,
		-0.079346731,
		0.056789055,
		-0.097543269,
		-0.12181655,
		0.0020194394,
		-0.032294583,
		0.010165403,
		-0.11430062,
		0.030243086,
		0.04674796,
		0.26258069,
		0.22428504,
		-0.16229621,
		-0.0025836262,
		-0.026165677,
		0.06088686,
		-0.083705515,
		-0.042275779,
		-0.21938999,
		-0.23219842,
		0.11642691,
		0.0500727,
		-0.057935931,
		-0.095957316,
		0.11840574,
		-0.11260164,
		-0.096055463,
		0.072949342,
		0.016142592,
		-0.02295799,
		0.10930754,
		0.011904993,
		0.085000873,
		-0.051276702,
		-0.15687639,
		-0.094848625,
		-0.052969914,
		-0.020157481,
		0.037280921,
		-0.020619277,
		-0.11531449,
		0.10798141,
		0.10658653,
		-0.011238695,
		-0.064961314,
		-0.13164006,
		-0.12978865,
		-0.1856636,
		-0.30551451,
		0.098893963,
		-0.13395241,
		-0.24322341,
		-0.03519085,
		0.11421596,
		0.072643042,
		-0.017316265,
		-0.0067291977,
		-0.2050148,
		-0.12111965,
		-0.14068522,
		0.0019558335,
		-0.047206428,
		-0.19496278,
		-0.051048722,
		0.024299858,
		-0.0014863668,
		0.055843435,
		-0.11752651,
		0.15005575,
		-0.097139411,
		0.18120399,
		-0.084163979,
		0.050671488,
		0.065286793,
		-0.0018440573,
		-0.22723907,
		-0.09574306,
		0.17143916,
		-0.021286948,
		0.025591599,
		0.0074484558,
		-0.010725281,
		-0.012960083,
		-0.19051868,
		-0.099795796,
		0.10866552,
		-0.0075640054,
		-0.03189135,
		0.21928626,
		-0.047428388,
		-0.1385317,
		0.11266617,
		-0.022370348,
		-0.18238679,
		-0.033778094,
		-0.020233203,
		0.11175244,
		-0.28677791,
		0.041574545,
		0.099701159,
		-0.093811639,
		0.082626306,
		0.10271591,
		0.22362046,
		0.078705259,
		-0.12037719,
		0.10537597,
		-0.053323667,
		-0.13179944,
		0.050288171,
		0.020944856,
		0.059921652,
		-0.015947804,
		-0.14529721,
		-0.19507344,
		-0.0047703059,
		-0.070610374,
		0.0073733414,
		-0.29286966,
		-0.0097794905,
		-0.043774482,
		0.056140468,
		0.20840429,
		0.069677927,
		0.061751176,
		-0.048302744,
		0.13111268,
		-0.025259551,
		-0.064395271,
		-0.062754624,
		-0.10129286,
		-0.012589799,
		0.18835458,
		-0.11513852,
		-0.013160415,
		0.29974362,
		-0.025315318,
		-0.19044521,
		-0.12113776,
		0.12520583,
		0.20968984,
		0.0035452205,
		0.23315707,
		0.017540522,
		0.12850942,
		0.060454573,
		0.065681003,
		0.04858201,
		0.1649567,
		0.11678872,
		-0.10069446,
		-0.16169886,
		0.011966547,
		0.034887124,
		-0.12901655,
		0.08108782,
		-0.12305768,
		-0.10995379,
		-0.11822609,
		0.018002052,
		-0.090711899,
		0.048428088,
		0.043503031,
		-0.0018754691,
		0.12996818,
		-0.020211531,
		-0.0089620817,
		-0.2937915,
		-0.014792245,
		0.044065088,
		-0.081488647,
		-0.034222733,
		0.10071339,
		-0.070502959,
		-0.00093034696,
		-0.14501394,
		0.081732064,
		-0.062156543,
		0.081147991,
		-0.00099695532,
		-0.040942911,
		-0.026939793,
		-0.12640733,
		0.016613156,
		0.15250853,
		0.20023264,
		0.048885174,
		-0.10007299,
		0.28874317,
		-0.12093138,
		0.030423343,
		0.10392379,
		-0.024623165,
		-0.015718015,
		0.055882428,
		-0.12532187,
		-0.16912246,
		0.059894364,
		-0.03750525,
		0.0518643,
		0.036659088,
		0.068001486,
		0.0018847981,
		-0.02360688,
		-0.11720748,
		0.14065056,
		-0.002171271,
		0.004430728,
		-0.15059319,
		-0.017016459,
		0.0075012897,
		0.17508391,
		-0.045400031,
		0.032158572,
		0.020532971,
		-0.2542406,
		0.033655271,
		-0.10590056,
		-0.12195495,
		0.036078054,
		-0.12038907,
		-0.029992659,
		0.053012826,
		0.061573155,
		-0.25398183,
		0.21868502,
		-0.13028406,
		-0.0065116785,
		0.014197561,
		0.039652776,
		-0.11385346,
		-0.12857711,
		0.15825379,
		0.0022006391,
		-0.0055833915,
		-0.20499212,
		0.21944213,
		-0.12200584,
		0.01519295,
		0.15368707,
		-0.14816551,
		0.022572963,
		0.19653291,
		0.075337134,
		0.075393125,
		0.083688721,
		-0.025598213,
		0.15413965,
		0.021472875,
		-0.012332782,
		-0.12885,
		-0.065027647,
		0.065232784,
		-0.098853275,
		0.043939896,
		-0.0520196,
		-0.11661287,
		0.042879075,
		0.087032557,
		-0.0069232127,
		-0.065726124,
		-0.24274126,
		-0.054335114,
		0.11528417,
		0.098719656,
		-0.1210092,
		0.23066708,
		-0.069161803,
		-0.11455514,
		-0.17768726,
		-0.18484575,
		-0.10020311,
		0.16172887,
		0.059132177,
		-0.040801842,
		0.28694132,
		-0.043411914,
		0.18269134,
		0.0044526448,
		0.080727644,
		-0.00027099162,
		0.035253193,
		-0.11080231,
		0.014974887,
		-0.074311271,
		0.20876054,
		-0.14876062,
		-0.0016400527,
		0.0043674,
		-0.097338066,
		-0.11715376,
		0.044121571,
		0.11024714,
		-0.12340995,
		-0.00020767163,
		0.032548413,
		0.02055005,
		-0.20143096,
		-0.20750882,
		-0.041545309,
		0.078274481,
		-0.03958977,
		-0.024307717,
		-0.19564873,
		-0.1972308,
		-0.049353186,
		0.048844885,
		0.12411226,
		0.016161557,
		-0.14419259,
		-0.22223942,
		-0.11104132,
		-0.15972571,
		0.10658972,
		-0.042282708,
		0.029522529,
		-0.045915823,
		-0.074717514,
		-0.12222753,
		-0.12413203,
		-0.0045671673,
		-0.14303154,
		-0.18790855,
		0.079165213,
		0.15407497,
		-0.0099619022,
		0.24221915,
		-0.097900279,
		0.073969297,
		0.012876047,
		0.12450193,
		-0.1660981,
		0.029934661,
		0.1819413,
		-0.22640486,
		0.039635055,
		0.1533767,
		-0.0029014642,
		0.061983313,
		-0.033525068,
		0.023053922,
		-0.02228931,
		-0.040187903,
		0.073970415,
		0.079743661,
		0.057373736,
		0.13957171,
		0.075636789,
		-0.054440297,
		0.11027469,
		-0.16379657,
		0.033076674,
		-0.20407572,
		0.050278209,
		0.020407861,
		0.21940768,
		0.056791596,
		-0.082351118,
		-0.026938243,
		0.050605807,
		0.056235552,
		0.092277713,
		-0.14017767,
		-0.024445683,
		-0.055895668,
		-0.035744213,
		0.085254729,
		-0.17786466,
		0.087135397,
		0.059397347,
		0.062810197,
		0.020737652,
		-0.066210799,
		-0.12754217,
		0.11907671,
		-0.14698373,
		-0.0085808383,
		-0.12247188,
		-0.08430595,
		-0.024691161,
		0.14177978,
		-0.016495002,
		-0.0078484388,
		-0.088443115,
		0.13686328,
		-0.081565611,
		0.10766852,
		-0.058450151,
		-0.26101777,
		-0.0022314957,
		0.10286345,
		-0.086197473,
		-0.12106332,
		0.13647488,
		0.23570676,
		-0.1413108,
		-0.12953329,
		-0.04846881,
		0.19857809,
		0.067056201,
		-0.043439794,
		-0.03442549,
		-0.035623536,
		0.10163046,
		0.0051383218,
		0.14754243,
		-0.028909657,
		-0.055294447,
		0.049545296,
		0.1094176,
		-0.0064511541,
		0.034771394,
		-0.078601897,
		0.13540284,
		-0.07111381,
		-0.03633767,
		-0.023785446,
		-0.11429322,
		0.04684002,
		-0.090090185,
		0.010143531,
		-0.068551801,
		0.058929604,
		-0.031513482,
		-0.072631724,
		0.017557012,
		-0.072122775,
		0.024658989,
		0.0081712119,
		0.18026021,
		0.020064179,
		-0.072611779,
		0.031690452,
		-0.0039234222,
		0.064928778,
		0.053973436,
		-0.035009395,
		0.047997519,
		0.006778107,
		-0.042096075,
		0.12704876,
		-0.058062825,
		-0.098262928,
		0.0054116887,
		-0.1197596,
		0.031801868,
		0.083538786,
		-0.090524547,
		0.022570202,
		0.015538337,
		0.035939887,
		0.20014021,
		-0.076304071,
		0.025173897,
		0.14271641,
		-0.08714477,
		0.12032355,
		-0.095363967,
		0.045048825,
		0.056641914,
		-0.048807986,
		0.093605176,
		-0.00083435402,
		0.066626288,
		0.042178027,
		-0.10601632,
		0.12880959,
		0.096658744,
		0.081001662,
		0.1950974,
		0.056263115,
		0.0094329137,
		0.021506023,
		-0.00037495422,
		0.14579988,
		0.046411928,
		-0.0061673643,
		-0.0582272,
		0.00472135,
		0.078743078,
		0.10269838,
		0.17919387,
		-0.045727883,
		0.078535147,
		0.024074143,
		0.13497475,
		-0.10854557,
		0.047409184,
		0.050152645,
		0.12040682,
		-0.01662715,
		-0.009378829,
		-0.15358384,
		0.11038215,
		-0.10833957,
		0.04060873,
		0.092990175,
		-0.13058743,
		0.03747173,
		0.02874903,
		-0.17101233,
		-0.063377663,
		-0.071950659,
		0.059398279,
		-0.079567507,
		0.1174794,
		-0.086291566,
		0.12147357,
		-0.13063695,
		0.27529925,
		0.13532273,
		-0.1065607,
		-0.0055541275,
		0.14447151,
		0.024128316,
		-0.14634018,
		-0.043339025,
		-0.24810405,
		0.10801015,
		-0.048586715,
		0.1214141,
		0.026546272,
		-0.052337196,
		0.039055146,
		0.15218499,
		-0.1185036,
		-0.12065874,
		-0.084245995,
		-0.10909794,
		0.14373301,
		0.13175233,
		-0.13267118,
		0.064898916,
		-0.082151927,
		-0.14832024,
		0.089903608,
		-0.12230923,
		0.042222008,
		0.15320282,
		-0.19717842,
		-0.12098626,
		-0.013513993,
		0.081690341,
		0.013516583,
		0.071072042,
		0.028521897,
		0.042175431,
		0.23933798,
		0.075591736,
		0.018568762,
		-0.032415021,
		-0.15239792,
		-0.12992269,
		0.099412754,
		-0.099426284,
		-0.11318854,
		-0.025458828,
		-0.21818168,
		0.1429216,
		0.013709904,
		-0.051502559,
		0.0038069601,
		0.074662261,
		0.02914593,
		0.1862321,
		-0.047581892,
		-0.14078268,
		-0.11285716,
		-0.027218556,
		0.03862676,
		0.038244668,
		-0.086459011,
		-0.066864125,
		0.07654269,
		0.069419108,
		0.06573046,
		0.049631622,
		0.064839706,
		0.034719948,
		-0.079782359,
		0.096091747,
		-0.15852831,
		0.00230614,
		-0.11085021,
		-0.04796011,
		-0.027327083,
		-0.082094915,
		-0.059100427,
		0.027698126,
		0.19292171,
		0.099436201,
		-0.0087141609,
		-0.027136624,
		0.069667242,
		-0.07150083,
		-0.05144326,
		0.19151722,
		-0.12406409,
		0.11931989,
		0.19258004,
		-0.0087857405,
		0.033599753,
		-0.075980552,
		0.11949024,
		0.10894057,
		0.069669731,
		0.097682469,
		0.11539268,
		-0.053182792,
		0.11207169,
		0.15361498,
		-0.0040681534,
		0.035018455,
		-0.11901043,
		0.03469301,
		0.14403664,
		-0.037550505,
		0.0098045096,
		0.23028377,
		-0.00043171871,
		0.03010538,
		0.0023941887,
		-0.06440413,
		0.090524212,
		-0.015231938,
		-0.057859134,
		-0.012463947,
		0.048887555,
		0.27572569,
		0.1044108,
		0.18543506,
		0.10688743,
		0.083309986,
		0.014741101,
		0.036268786,
		-0.061981045,
		-0.05844995,
		0.14909104,
		-0.10370093,
		-0.042977814,
		-0.068711869,
		0.023307526,
		-0.013245579,
		0.19858609,
		0.0032827295,
		-0.15580605,
		-0.062485933,
		0.024220515,
		0.038243193,
		0.051521521,
		0.18048428,
		0.058959316,
		0.13764766,
		-0.17625143,
		0.020673096,
		0.030184036,
		0.042613979,
		-0.027168037,
		-0.097481757,
		0.23584878,
		-0.051296104,
		0.081100874,
		-0.050221,
		0.1084379,
		-0.031831026,
		0.15363628,
		0.017162994,
		-0.019897209,
		0.094146699,
		-0.11025719,
		0.18749444,
		-0.034016281,
		-0.29418159,
		-0.15967505,
		-0.10337939,
		0.047924943,
		-0.14024396,
		-0.10359237,
		-0.0041088667,
		-0.049266215,
		0.00986546,
		0.08310397,
		0.034127671,
		0.10791017,
		-0.090028048,
		-0.13836379,
		0.12120714,
		0.037396461,
		0.037380774,
		0.06465397,
		0.16840261,
		-0.098300561,
		0.047360126,
		0.16047609,
		-0.026382674,
		0.044383805,
		0.13898654,
		0.035162691,
		0.045750793,
		-0.031302541,
		-0.12527478,
		0.084795833,
		-0.1470957,
		0.03721394,
		-0.078054294,
		0.087621309,
		-0.11454949,
		0.044416852,
		0.10673589,
		0.12586227,
		0.0044845445,
		0.020653654,
		-0.042895991,
		-0.11543855,
		0.025975728,
		0.12031057,
		0.11467178,
		-0.15875997,
		-0.065340616,
		-0.075698785,
		0.010254505,
		-0.19236131,
		-0.056895401,
		0.038335696,
		0.018568492,
		0.0047077294,
		-0.045444027,
		0.033848528,
		-0.070103019,
		0.21993656,
		-0.017160513,
		-0.065365031,
		-0.12820037,
		0.067633875,
		-0.036986444,
		-0.0253131,
		0.030167555,
		-0.23368901,
		-0.21404479,
		0.11403789,
		-0.14988326,
		0.052285705,
		-0.0047009387,
		0.20849432,
		0.017119229,
		0.017358882,
		0.14436562,
		0.10157745,
		0.14378271,
		-0.12094446,
		-0.10132249,
		-0.075510494,
		0.069500312,
		-0.15598941,
		0.011081279,
		-0.022705982,
		0.10462736,
		0.051023535,
		0.11828806,
		0.17968045,
		0.11615851,
		-0.11174611,
		0.019694168,
		0.20186877,
		0.0610108,
		0.10029499,
		0.060198724,
		-0.12019941,
		0.012506628,
		-0.11852523,
		-0.043005131,
		-0.11942136,
		0.017400514,
		0.035367977,
		0.0096772574,
		0.013585058,
		-0.13491555,
		-0.18381675,
		0.11582493,
		0.12248898,
		-0.1640971,
		0.070038505,
		0.02168021,
		-0.038695849,
		-0.099611424,
		-0.014841695,
		-0.038676858,
		0.1068389,
		-0.051202245,
		-0.045696143,
		-0.024001878,
		-0.29799938,
		-0.042525973,
		-0.045879841,
		0.0056477049,
		-0.17984438,
		-0.17803475,
		-0.075341351,
		0.014039032,
		-0.010453716,
		-0.073938012,
		-0.10705294,
		-0.10729931,
		0.14058222,
		0.20444104,
		0.1549454,
		0.032579679,
		0.060106736,
		-0.18046694,
		0.066488653,
		-0.10905821,
		-0.078195587,
		-0.033806793,
		-0.039252024,
		-0.13260534,
		-0.041753978,
		0.052406967,
		0.092481628,
		0.0042197634,
		-0.030534234,
		-0.19392926,
		-0.15642138,
		-0.05588406,
		0.15602981,
		-0.10295574,
		-0.088424861,
		-0.12818128,
		-0.13303424,
		0.17211494,
		-0.054690998,
		-0.05306628,
		0.10205276,
		-0.1130225,
		0.069744855,
		-0.083280921,
		0.072243705,
		-0.018828267,
		-0.014142105,
		0.078924172,
		0.11857943,
		0.11152442,
		0.16346289,
		0.15917687,
		0.048310399,
		-0.066172041,
		-0.077612609,
		-0.057784151,
		-0.25417963,
		0.21391569,
		-0.061116997,
		0.058601946,
		0.0030257169,
		-0.074325934,
		0.026977891,
		-0.048739657,
		-0.082491532,
		0.070750199,
		0.098916143,
		-0.037540261,
		0.02139472,
		-0.0075369314,
		-0.15676901,
		0.018785652,
		0.13994795,
		-0.0079803737,
		-0.083468772,
		-0.02869782,
		0.059446938,
		0.10648787,
		0.016172029,
		0.001671831,
		0.19998603,
		-0.13244095,
		-0.0064330758,
		-0.10765659,
		-0.006809629,
		0.070784472,
		0.038284495,
		0.088654585,
		-0.16832052,
		-0.037547823,
		-0.091961883,
		0.079562344,
		-0.042372949,
		-0.092937477,
		-0.13731535,
		0.091788225,
		-0.0047892118,
		0.034575999,
		0.052872282,
		-0.18445583,
		0.0021760203,
		0.055748962,
		0.031088434,
		0.12156036,
		-0.063082606,
		0.2293144,
		-0.053962473,
		-0.048060328,
		0.022757359,
		-0.063761644,
		-0.018070292,
		-0.034838896,
		0.067539558,
		-0.0083772847,
		-0.21613421,
		0.13627419,
		-0.02288313,
		0.020233059,
		-0.037170287,
		0.051054969,
		-0.061391264,
		-0.072971418,
		0.038073942,
		-0.197768,
		0.075803801,
		-0.23870736,
		0.01850062,
		0.049066007,
		0.0031490286,
		-0.22226247,
		-0.086420968,
		0.1627481,
		-0.18089604,
		0.10093676,
		-0.13636237,
		0.030394964,
		0.076166369,
		-0.0060037617,
		0.12496438,
		0.11439706,
		0.070757449,
		-0.12698947,
		-0.0057006693,
		0.021613961,
		-0.070776604,
		0.07099802,
		-0.053389505,
		0.050856486,
		-0.020432713,
		0.018234381,
		0.0063415854,
		0.096699804,
		0.087763801,
		-0.06173024,
		0.0085029146,
		-0.081197657,
		0.17146216,
		-0.050003517,
		0.0026490733,
		-0.082764834,
		0.0064656897,
		0.087913871,
		0.048555825,
		-0.026601164,
		0.048722435,
		-0.035194118,
		-0.11400115,
		-0.035996445,
		-0.071448676,
		-0.081707492,
		-0.015051475,
		0.10102302,
		0.070357896,
		0.091999367,
		-0.092200249,
		-0.021096723,
		0.037667435,
		0.0044746567,
		0.036801945,
		0.18482004,
		-0.0082753031,
		0.0019152228,
		0.059355389,
		0.064728089,
		0.089292727,
		0.13960038,
		0.11926612,
		-0.049228922,
		0.10074337,
		0.07098747,
		-0.14824554,
		0.12157319,
		0.018466234,
		0.037356131,
		0.022047056,
		-0.15428203,
		0.20799211,
		0.076220281,
		-0.022638118,
		-0.099233523,
		0.12171604,
		-0.16051473,
		-0.056958202,
		0.094267651,
		-0.092618354,
		-0.045123938,
		0.12741537,
		-0.095355041,
		0.032945998,
		0.22064789,
		0.10231054,
		-0.075639561,
		-0.019491781,
		-0.20861927,
		0.036187835,
		-0.045331381,
		-0.041688517,
		0.086560547,
		0.032355256,
		0.029829992,
		-0.02049662,
		-0.059518594,
		0.077742055,
		0.071515754,
		-0.12998319,
		0.25713515,
		0.011837624,
		-0.011821738,
		-0.092845425,
		0.019320523,
		-0.036742255,
		0.014214043,
		0.14193043,
		0.080848165,
		0.095830083,
		-0.035094459,
		0.0013644322,
		-0.18155132,
		-0.048217807,
		-0.13128154,
		-0.074237578,
		0.0010396193,
		-0.075968757,
		0.019424682,
		0.085175797,
		-0.027202062,
		-0.12061018,
		0.015205653,
		0.19610201,
		-0.033063076,
		0.06682194,
		-0.1394148,
		0.022175968,
		0.18917271,
		-0.048172344,
		-0.016676642,
		-0.099511087,
		0.048374176,
		-0.06120934,
		0.095384017,
		0.17975666,
		0.0542688,
		0.052871764,
		0.0086815832,
		-0.045382112,
		0.20969251,
		0.027987048,
		0.081600949,
		0.053459942,
		-0.078466579,
		-0.10480213,
		0.24271193,
		0.130334,
		-0.051094431,
		0.046305373,
		-0.04403216,
		0.026605802,
		0.089668542,
		-0.0065032146,
		-0.00452941,
		-0.029378364,
		-0.011620516,
		0.10656422,
		0.12202273,
		0.06870985,
		0.051664025,
		0.19776863,
		-0.054624263,
		-0.035369627,
		0.17213127,
		0.038610961,
		0.039408423,
		0.026153428,
		-0.10751039,
		0.064186476,
		0.0024525451,
		-0.053539626,
		-0.06717249,
		0.066598594,
		0.16727675,
		-0.013359036,
		0.17248134,
		0.0010999171,
		0.093065672,
		-0.016844189,
		0.13656326,
		0.0088213421,
		0.094272502,
		0.060310554,
		0.077620052,
		0.079254933,
		-0.11188348,
		-0.052749336,
		-0.12269077,
		-0.048919801,
		0.017549662,
		0.067858472,
		0.068645857,
		-0.10067074,
		0.16728671,
		-0.037573211,
		0.0467344,
		-0.013488237,
		0.080246307,
		0.0057110474,
		0.026935196,
		0.055544101,
		-0.052853543,
		0.20685546,
		0.081241347,
		0.096356131,
		0.011100768,
		0.15376589,
		-0.082976922,
		-0.046048418,
		-0.086549595,
		0.074500494,
		0.086332612,
		0.10812406,
		0.014068568,
		-0.11059005,
		-0.1027952,
		0.02550808,
		0.10325387,
		-0.13813579,
		0.1485102,
		0.012745688,
		0.17029308,
		0.061466515,
		-0.0053209588,
		0.068178944,
		0.051306274,
		-0.047949877,
		-0.13222398,
		0.04289775,
		-0.016099764,
		-0.075229086,
		-0.015958402,
		-0.17495023,
		0.043255679,
		0.083337456,
		-0.024621062,
		-0.089532815,
		-0.14885616,
		-0.045747012,
		0.10616167,
		0.026343921,
		-0.12225844,
		0.078898244,
		-0.029057238,
		0.02579809,
		-0.019203365,
		0.14146772,
		0.021657197,
		-0.058504865,
		-0.08480785,
		-0.070644781,
		-0.063278258,
		0.012655143,
		0.080502056,
		-0.050832957,
		0.077068426,
		0.021539824,
		0.022100477,
		0.080892615,
		-0.0076426878,
		0.12565453,
		-0.05465338,
		-0.13502175,
		0.13866505,
		0.062594995,
		0.17529009,
		-0.085720122,
		-0.12294459,
		0.010470466,
		0.065729983,
		-0.16697635,
		0.13475229,
		-0.049607977,
		-0.059546676,
		0.038285371,
		0.12000816,
		0.045424879,
		-0.11921708,
		-0.021910761,
		-0.08640293,
		0.023766993,
		-0.19888952,
		0.11359967,
		-0.093994252,
		0.054634426,
		-0.11427497,
		-0.062666133,
		0.10975832,
		-0.033156626,
		0.08666341,
		-0.039259091,
		-0.11771768,
		-0.0071578692,
		-0.045353711,
		-0.041602962,
		-0.069799073,
		-0.015518492,
		0.11367802,
		-0.12068515,
		0.27942505,
		-0.098236017,
		0.056071635,
		-0.17486335,
		-0.027566053,
		-0.024416937,
		-0.10591274,
		-0.057838049,
		0.057157189,
		0.047565453,
		0.12755294,
		0.086905867,
		0.032230224,
		-0.2065644,
		-0.014124087,
		0.16218764,
		0.027977955,
		-0.074064128,
		0.080389582,
		-0.11034402,
		0.009268974,
		0.15304986,
		0.033610959,
		0.068011917,
		0.22305119,
		-0.060820609,
		0.06478893,
		0.097252928,
		0.058606818,
		0.11297426,
		0.029661592,
		-0.054297879,
		0.17849584,
		-0.10791959,
		-0.12997146,
		-0.043254282,
		-0.063279219,
		0.041314479,
		0.11328763,
		-0.074004985,
		-0.17027037,
		0.027889704,
		-0.026686344,
		0.10674091,
		-0.014046663,
		0.040300123,
		0.06716004,
		0.035860643,
		-0.076037295,
		-0.047657494,
		-0.068543427,
		-0.028204447,
		-0.27090213,
		0.0020421613,
		-0.027271053,
		-0.12891981,
		0.066889115,
		0.11386962,
		0.17453316,
		-0.017671766,
		-0.037617769,
		0.030947374,
		0.02578696,
		0.16101818,
		0.027702929,
		-0.051869046,
		0.057316072,
		-0.029397352,
		0.066598579,
		-0.052828476,
		-0.041302174,
		-0.098246202,
		-0.04562521,
		-0.12487227,
		0.042585619,
		-0.026208028,
		-0.14857839,
		0.10156772,
		0.069136336,
		-0.34910354,
		0.1361284,
		0.019325102,
		-0.090322755,
		-0.12972449,
		0.0082965922,
		-0.037427161,
		0.13050598,
		0.010938304,
		-0.040488336,
		-0.060318958,
		-0.1045035,
		-0.030682767,
		0.082656778,
		0.024283731,
		0.02284418,
		-0.10344077,
		0.0884104,
		-0.0066076461,
		0.078691818,
		0.079839334,
		0.03542975,
		0.062700734,
		-0.066110604,
		-0.13242146,
		0.080100976,
		-0.043573495,
		-0.1737086,
		0.19380291,
		0.033856273,
		0.10927752,
		-0.11130902,
		-0.11639492,
		0.11769328,
		0.052018475,
		-0.22338313,
		0.050578229,
		0.0069195391,
		0.015862923,
		-0.044893842,
		-0.11031827,
		-0.16968584,
		0.022012705,
		-0.014526977,
		-0.083750546,
		0.072553843,
		-0.040176678,
		-0.050786883,
		-0.031523272,
		0.075758912,
		-0.19799994,
		-0.088525027,
		0.025311511,
		0.028695852,
		0.16309305,
		-0.038615085,
		0.10878512,
		0.070125431,
		-0.099672288,
		0.08222305,
		-0.044920113,
		0.10998438,
		-0.039734911,
		-0.26298514,
		0.18884602,
		-0.064418681,
		0.13551518,
		0.044712033,
		0.12237634,
		-0.049855411,
		0.061555363,
		-0.11887103,
		0.0099526756,
		-0.04657083,
		-0.15923391,
		0.030587461,
		-0.023603363,
		0.04898433,
		-0.14927436,
		-0.046381298,
		0.043150578,
		-0.086263143,
		0.15188159,
		0.20424965,
		0.13097699,
		-0.041329321,
		0.025550321,
		-0.07390999,
		0.080970638,
		-0.028740583,
		0.17966263,
		0.071524546,
		-0.091214485,
		0.33262295,
		-0.069680117,
		0.012077401,
		0.029363567,
		0.041221272,
		0.081904016,
		-0.14871007,
		-0.045591351,
		-0.096246466,
		-0.11869103,
		-0.22983092,
		-0.085262828,
		-0.22597517,
		0.006043606,
		-0.010167915,
		0.20769094,
		-0.10500209,
		0.04243008,
		0.017866546,
		0.040001571,
		0.045446444,
		0.086391144,
		0.058444601,
		-0.13010144,
		0.17174503,
		0.12533732,
		-0.054831509,
		-0.16067696,
		-0.037403937,
		-0.040342335,
		0.11052369,
		0.34760335,
		0.045913339,
		0.11159171,
		-0.069860719,
		0.060042981,
		-0.036826648,
		-0.046671383,
		-0.015089741,
		0.024329316,
		0.0046467106,
		0.15071429,
		0.0066602286,
		0.13994876,
		-0.11510652,
		0.17152172,
		0.025684621,
		-0.080225855,
		0.040185668,
		-0.13986333,
		-0.053719964,
		-0.054521672,
		-0.17824581,
		0.22110973,
		0.0084146867,
		-0.09556292,
		-0.046968285,
		0.077368192,
		-0.0044561918,
		-0.052959982,
		-0.013505457,
		-0.17597261,
		0.041223321,
		0.18941863,
		0.089810178,
		-0.018671084,
		-0.11359909,
		-0.024590187,
		0.015394981,
		-0.1122486,
		-0.1992186,
		-0.066860408,
		0.0053412444,
		-0.057786118,
		-0.064752102,
		-0.12989694,
		-0.028234202,
		-0.052255519,
		0.11748711,
		0.0047774967,
		-0.0075697429,
		-0.034589425,
		0.05905484,
		-0.0073792767,
		0.065157205,
		-0.054545056,
		-0.024619116,
		-0.15247706,
		-0.10706905,
		0.13422717,
		-0.051046841,
		-0.023978645,
		-0.048833802,
		0.12059972,
		-0.26617742,
		0.19914463,
		-0.037276141,
		0.13703638,
		-0.25743523,
		-0.053456169,
		-0.0033328254,
		-0.15941709,
		0.12457328,
		-0.15895171,
		-0.064036533,
		0.121768,
		-0.091984436,
		0.054384895,
		0.030932285,
		0.0058971988,
		0.099379584,
		-0.10276329,
		0.055183243,
		-0.051655006,
		0.053745452,
		0.098001592,
		-0.10318766,
		0.028363844,
		0.17810984,
		0.055019632,
		0.032979578,
		0.037163861,
		0.070424698,
		0.10540067,
		0.019206233,
		0.15110189,
		0.11652519,
		0.088374101,
		0.032778941,
		-0.03773322,
		0.098188899,
		0.044017654,
		-0.0080725737,
		0.10232142,
		-0.025940066,
		-0.039296713,
		-0.12641923,
		0.17151316,
		0.0095466552,
		0.25139421,
		0.4572466,
		-0.028800519,
		-0.023484934,
		-0.14782201,
		0.032163855,
		-0.15907693,
		0.022269525,
		0.055238064,
		-0.029199202,
		-0.019993974,
		-0.061992273,
		0.075164884,
		0.10955156,
		-0.060493287,
		0.0039866287,
		0.16353181,
		0.046110492,
		-0.048108339,
		-0.25990722,
		0.027677886,
		-0.14210209,
		0.056291435,
		-0.031547226,
		-0.15086116,
		-0.17738523,
		-0.017817117,
		-0.052340925,
		0.16122198,
		-0.055032976,
		-0.2473754,
		0.04855226,
		-0.024192024,
		-0.0096409088,
		0.068234578,
		0.067669928,
		-0.000081954458,
		-0.049249291,
		-0.032054234,
		0.021447489,
		0.01666571,
		-0.037408378,
		-0.11095059,
		-0.12599047,
		-0.14538968,
		0.12750924,
		-0.080098204,
		0.1028666,
		0.062172763,
		0.010354104,
		-0.040091835,
		-0.014780167,
		0.020847488,
		0.058121558,
		0.058653474,
		-0.07012061,
		-0.070071056,
		-0.006033103,
		0.063931286,
		-0.09542194,
		-0.057005718,
		0.15025359,
		0.27738625,
		-0.09802255,
		0.0079096435,
		0.20688207,
		-0.22227061,
		0.047797479,
		0.18369818,
		-0.13976897,
		-0.20633571,
		-0.043104563,
		0.07804288,
		0.041179985,
		0.047314826,
		0.068645872,
		0.012224928,
		0.16693075,
		0.012922881,
		-0.1127716,
		0.086388156,
		-0.1819323,
		-0.071310885,
		0.048041809,
		-0.093430988,
		-0.11927779,
		-0.18806067,
		-0.037190884,
		0.0087331058,
		0.14693673,
		0.061753292,
		0.10240391,
		-0.05095806,
		-0.085699059,
		0.069870509,
		0.14324199,
		0.023731669,
		0.14422689,
		-0.0050443751,
		-0.05619226,
		0.04024921,
		0.016187074,
		-0.19333601,
		0.052934054,
		-0.092913248,
		0.00059520837,
		-0.10320786,
		0.0096134944,
		-0.16899487,
		0.18913671,
		-0.0015988923,
		-0.037168276,
		-0.044593979,
		0.016723337,
		-0.044617988,
		-0.33713478,
		-0.034326404,
		0.086687021,
		-0.13984922,
		0.012643904,
		-0.0083405245,
		0.047509536,
		0.064862676,
		-0.049378179,
		-0.12713836,
		-0.19465639,
		0.082432099,
		0.087363593,
		0.017897859,
		-0.047119357,
		-0.14412038,
		0.095305413,
		0.1674291,
		-0.12978864,
		0.13151371,
		0.058246382,
		0.00048593024,
		0.08777196,
		-0.0019348058,
		0.014728372,
		-0.10201951,
		0.047664829,
		0.23558448,
		0.1439375,
		-0.011582403,
		-0.0051109497,
		-0.056548543,
		0.048587669,
		-0.11296064,
		0.087121159,
		0.14850524,
		-0.1313135,
		0.021219794,
		-0.068822868,
		-0.019654756,
		-0.15195355,
		-0.16278182,
		-0.094035693,
		-0.11819316,
		-0.19353762,
		0.24363646,
		-0.13607411,
		-0.22823684,
		-0.014109151,
		0.012304083,
		0.021849584,
		-0.10714439,
		-0.04537604,
		-0.041832108,
		0.24778767,
		0.054207906,
		0.06347204,
		0.083379582,
		0.11124065,
		-0.035919037,
		-0.019278197,
		0.029210757,
		0.0036016367,
		-0.10207102,
		-0.094452292,
		-0.020778803,
		-0.043697719,
		-0.068425834,
		0.01050257,
		0.005178005,
		0.13254681,
		0.14406212,
		-0.092382893,
		-0.038143493,
		-0.044011373,
		-0.0081403879,
		-0.14702304,
		0.061634272,
		-0.0069725062,
		-0.11891831,
		-0.047869876,
		-0.16401485,
		-0.15335189,
		0.041319549,
		-0.07307408,
		0.15122136,
		-0.037162468,
		0.17654638,
		0.12358897,
		0.0514463,
		0.027117612,
		0.11888988,
		0.054901388,
		0.13293369,
		0.011912992,
		0.024336966,
		0.053364433,
		-0.09826193,
		-0.036821041,
		-0.070749417,
		0.17680258,
		-0.068128116,
		0.12320096,
		-0.022724688,
		-0.076316215,
		-0.048177473,
		-0.0011675761,
		-0.10094031,
		0.049050521,
		-0.078346893,
		-0.11582077,
		-0.04304447,
		0.0073153959,
		0.14466733,
		-0.055135418,
		0.11816655,
		0.0082813436,
		0.089115679,
		-0.14061324,
		-0.031687729,
		-0.075436972,
		0.056355458,
		0.023945214,
		0.040183604,
		-0.13908397,
		0.053485651,
		-0.11560664,
		0.08724574,
		-0.056468099,
		-0.01539061,
		-0.029711824,
		0.13497858,
		0.13781816,
		-0.016957026,
		-0.21422693,
		0.12158605,
		-0.049011301,
		-0.032297753,
		-0.11031891,
		0.13450713,
		0.069772847,
		-0.14102039,
		0.035015609,
		-0.13960586,
		0.011303589,
		-0.10005361,
		0.0017043718,
		0.036708988,
		0.12593456,
		-0.066734992,
		-0.11090703,
		-0.077356383,
		0.16266809,
		0.073506974,
		0.0092184097,
		-0.038022172,
		0.083541587,
		-0.016695894,
		0.23420006,
		0.020319726,
		-0.21916001,
		-0.033223927,
		0.079440258,
		-0.086952001,
		0.10361219,
		0.1978482,
		0.12571919,
		0.10042991,
		-0.037161592,
		0.12372015,
