/*
 * Weight_bias.h
 *
 *  Created on: 18 mar 2018
 *      Author: Stefano
 */

#ifndef WEIGHT_BIAS_H_
#define WEIGHT_BIAS_H_

const float32_t Weight_array[]={
		-0.00743960682302713,
				0.16183415055275,
				-0.0662078335881233,
				-0.0680098831653595,
				0.018220828846097,
				0.185196712613106,
				0.0588738769292831,
				-0.00696361716836691,
				-0.0996697321534157,
				0.216833233833313,
				-0.00882027763873339,
				0.0758981853723526,
				0.172527760267258,
				-0.382234007120132,
				0.0687127783894539,
				-0.149288430809975,
				0.307312279939651,
				0.17610090970993,
				0.206988319754601,
				-0.0828279927372932,
				-0.0842588022351265,
				0.383675336837769,
				0.142282098531723,
				0.169396057724953,
				-0.030943475663662,
				-0.105083882808685,
				-0.062261488288641,
				-0.075910359621048,
				0.137600272893906,
				-0.0241028629243374,
				0.0927081853151321,
				-0.0387557446956635,
				0.249477356672287,
				0.0850883349776268,
				-0.121848724782467,
				0.0847987234592438,
				-0.0734096169471741,
				0.0527203567326069,
				0.162669017910957,
				-0.223794236779213,
				0.0532904267311096,
				0.235571846365929,
				0.0204081069678068,
				0.0388816110789776,
				-0.0368011631071568,
				0.126035004854202,
				-0.0972934663295746,
				-0.102381743490696,
				0.053404726088047,
				0.056472584605217,
				-0.158309638500214,
				0.140598803758621,
				0.00849641114473343,
				-0.211839750409126,
				-0.0347650982439518,
				0.251093477010727,
				0.0671807676553726,
				-0.00858387257903814,
				0.0276729632169008,
				-0.140797764062881,
				0.0923986807465553,
				0.198673635721207,
				-0.0270245745778084,
				0.195391669869423,
				-0.0925331190228462,
				-0.0159005057066679,
				-0.195100232958794,
				-0.0853752717375755,
				0.0250910054892302,
				0.111373394727707,
				-0.272601097822189,
				-0.273944705724716,
				0.315864205360413,
				0.186198949813843,
				0.0388468056917191,
				-0.037749707698822,
				0.094696469604969,
				-0.0195864848792553,
				0.18059778213501,
				-0.106544978916645,
				0.0640240460634232,
				0.347994148731232,
				0.0631693229079247,
				0.0159761123359203,
				-0.247570022940636,
				0.153254151344299,
				0.09852634370327,
				0.182911261916161,
				-0.372255742549896,
				0.175680816173553,
				-0.188588201999664,
				-0.101177476346493,
				-0.217911705374718,
				0.228622913360596,
				0.0548014789819717,
				-0.193295180797577,
				-0.0659103691577911,
				0.180943623185158,
				0.00802143290638924,
				-0.0130728874355555,
				-0.138786241412163,
				-0.0640555322170258,
				-0.0453693531453609,
				0.0462518557906151,
				0.0573475211858749,
				-0.0105510801076889,
				0.0421246215701103,
				-0.0440282672643661,
				-0.153809070587158,
				0.115192577242851,
				0.0107848457992077,
				0.156279549002647,
				0.128170251846313,
				0.141065940260887,
				0.138941958546638,
				-0.0813167542219162,
				0.0891134291887283,
				0.282584249973297,
				-0.0355292148888111,
				-0.091722384095192,
				-0.10257887840271,
				-0.275431394577026,
				0.0474860556423664,
				0.234093219041824,
				-0.117512658238411,
				0.0114453760907054,
				0.0455987937748432,
				0.130174353718758,
				0.0587807968258858,
				0.194141909480095,
				-0.252529442310333,
				0.0308122485876083,
				0.0597991682589054,
				0.175039708614349,
				0.171832919120789,
				-0.07704808562994,
				-0.103235691785812,
				-0.221498444676399,
				-0.150189220905304,
				-0.100493036210537,
				-0.198610216379166,
				-0.0129076894372702,
				0.0948261693120003,
				0.206598609685898,
				-0.0174622293561697,
				-0.110022842884064,
				-0.0991721078753471,
				-0.0768682584166527,
				-0.0792323127388954,
				0.410198181867599,
				-0.240686938166618,
				-0.21507428586483,
				-0.179266154766083,
				-0.113562121987343,
				-0.0308609120547771,
				-0.148171678185463,
				0.00987452827394009,
				0.00181206676643342,
				0.0245806369930506,
				0.066519170999527,
				0.147426620125771,
				-0.262453645467758,
				-0.00283613801002502,
				-0.125360637903214,
				0.0137806413695216,
				0.165214404463768,
				0.00160124059766531,
				-0.0494651719927788,
				-0.0708218216896057,
				-0.11166063696146,
				0.126447767019272,
				0.498015582561493,
				0.0315434411168098,
				-0.0662481188774109,
				0.0176727920770645,
				-0.0916305631399155,
				0.474658101797104,
				0.361351132392883,
				0.00838803686201572,
				-0.309743851423264,
				0.317071348428726,
				0.211552858352661,
				0.0369329452514648,
				-0.0876566544175148,
				-0.0980845540761948,
				-0.0878663808107376,
				-0.0964746549725533,
				-0.0601601153612137,
				-0.14020724594593,
				-0.152261301875114,
				0.0865611284971237,
				0.188411489129066,
				-0.108613803982735,
				-0.151595458388329,
				0.141052320599556,
				0.0544376447796822,
				0.0424402877688408,
				0.0488667413592339,
				-0.0966666489839554,
				-0.182097107172012,
				0.193890661001205,
				0.0161118283867836,
				0.264472246170044,
				-0.22777746617794,
				-0.14676895737648,
				0.0219193678349257,
				-0.0730191320180893,
				-0.17833623290062,
				0.0328932665288448,
				-0.168118894100189,
				0.324323087930679,
				0.439190983772278,
				0.285083562135696,
				-0.158813446760178,
				-0.0338345281779766,
				-0.226883962750435,
				0.153810292482376,
				0.14089073240757,
				-0.0769350752234459,
				-0.228621304035187,
				0.0376226976513863,
				-0.20399272441864,
				0.0572105348110199,
				-0.0871366411447525,
				0.052760437130928,
				0.00366662535816431,
				0.103751868009567,
				-0.0642107874155045,
				-0.19789445400238,
				-0.237670063972473,
				0.30833899974823,
				0.541966795921325,
				-0.133565172553062,
				-0.21980382502079,
				-0.126226916909218,
				0.130102142691612,
				0.248079136013985,
				0.162187486886978,
				-0.194525837898254,
				-0.178376153111458,
				0.332024842500687,
				-0.11017183214426,
				0.104511968791485,
				-0.128757521510124,
				0.117387928068638,
				-0.0219283159822226,
				0.0263325851410627,
				-0.144154906272888,
				-0.146972432732582,
				0.170244768261909,
				-0.268242299556732,
				-0.00262259133160114,
				-0.186054691672325,
				0.137023746967316,
				-0.0132612194865942,
				-0.121427901089191,
				0.131870895624161,
				-0.478912681341171,
				-0.0415453277528286,
				-0.052707239985466,
				-0.000275601691100746,
				-0.0574544370174408,
				-0.0579404644668102,
				0.0871820598840714,
				0.1082718744874,
				0.355812519788742,
				-0.0529535077512264,
				0.0235751774162054,
				0.015191113576293,
				0.364757269620895,
				0.229783460497856,
				0.0588761009275913,
				0.109497636556625,
				0.0771914944052696,
				0.199129834771156,
				0.14633397758007,
				-0.154306516051292,
				0.52657926082611,
				-0.283566176891327,
				0.123343035578728,
				0.196886941790581,
				-0.243152916431427,
				0.287790030241013,
				-0.0211119931191206,
				0.0196267906576395,
				0.265508413314819,
				-0.0805809423327446,
				0.156125232577324,
				0.00319083244539797,
				0.385348230600357,
				0.0152657963335514,
				0.0655606389045715,
				0.324044346809387,
				-0.0199928283691406,
				-0.0829856246709824,
				-0.00275930250063539,
				0.0975699722766876,
				0.0907738208770752,
				0.0669116973876953,
				0.0416663959622383,
				-0.0909360125660896,
				-0.0858437344431877,
				-0.0397007614374161,
				-0.0728113204240799,
				0.0715146511793137,
				0.0208990983664989,
				-0.129850044846535,
				-0.014496891759336,
				0.0721562430262566,
				0.223605051636696,
				0.240954667329788,
				0.0887659639120102,
				-0.0573862344026566,
				0.0659576207399368,
				0.239797100424767,
				-0.004899051040411,
				0.188234806060791,
				0.15333865582943,
				-0.0634524896740913,
				-0.037425585091114,
				0.0638572499155998,
				-0.099641926586628,
				0.0984262600541115,
				-0.203735336661339,
				0.035766527056694,
				-0.0934195667505264,
				0.168635413050652,
				0.0939954519271851,
				-0.09158094227314,
				0.0286644473671913,
				0.0747567936778069,
				0.0738460123538971,
				-0.0955463051795959,
				-0.0191836878657341,
				0.191699638962746,
				0.0573434866964817,
				0.125955268740654,
				-0.233832761645317,
				0.105262905359268,
				0.170728445053101,
				0.111060574650764,
				0.0394521094858646,
				0.227116212248802,
				0.207855835556984,
				-0.111656621098518,
				0.125159204006195,
				-0.0821513459086418,
				0.0800029188394547,
				0.00838579516857862,
				0.0664826259016991,
				0.154605075716972,
				-0.124011248350143,
				0.159499481320381,
				-0.336473017930984,
				-0.0715595036745071,
				-0.331257253885269,
				-0.0719495043158531,
				0.225068435072899,
				-0.342583924531937,
				0.0955338552594185,
				-0.0542344376444817,
				-0.00775327067822218,
				0.224483355879784,
				-0.0658110678195953,
				-0.376813113689423,
				0.17461222410202,
				0.100076377391815,
				0.126322507858276,
				-0.0492403768002987,
				-0.0502363182604313,
				-0.0397479794919491,
				-0.0657767131924629,
				0.031993430107832,
				-0.0580274425446987,
				-0.132605612277985,
				-0.00241472409106791,
				-0.10633908957243,
				-0.103435724973679,
				0.147707581520081,
				0.15812548995018,
				0.0329990647733212,
				-0.0554461628198624,
				0.209749102592468,
				0.308453440666199,
				0.045641154050827,
				0.0876428782939911,
				-0.0555207654833794,
				0.059435311704874,
				-0.195696979761124,
				0.0643797814846039,
				0.109391152858734,
				-0.0987477675080299,
				-0.0892272442579269,
				-0.127651005983353,
				-0.25517800450325,
				-0.283910989761353,
				0.0472002774477005,
				-0.170206591486931,
				-0.112589560449123,
				0.0450627729296684,
				-0.084003709256649,
				-0.128829479217529,
				0.0499509498476982,
				-0.00961805693805218,
				-0.277613818645477,
				0.28170719742775,
				0.0280342120677233,
				0.29598331451416,
				-0.117020301520824,
				-0.143461212515831,
				0.21689036488533,
				0.108870573341846,
				0.254077583551407,
				-0.0416438654065132,
				0.427597552537918,
				-0.0895804390311241,
				0.238896921277046,
				0.0155127784237266,
				-0.267059415578842,
				0.0901747718453407,
				-0.0621684677898884,
				0.0248464327305555,
				-0.052163764834404,
				0.0403929688036442,
				0.00485454499721527,
				-0.000247190851951018,
				-0.00704468367621303,
				-0.051259845495224,
				0.164663046598434,
				-0.20337125658989,
				0.214626297354698,
				-0.0815350338816643,
				-0.208350375294685,
				0.066956952214241,
				-0.237368375062943,
				0.0227415878325701,
				-0.0390024781227112,
				0.0231979750096798,
				0.116972491145134,
				-0.413743793964386,
				0.156462341547012,
				-0.154568612575531,
				-0.0376356989145279,
				0.396266520023346,
				0.0323955751955509,
				0.235472142696381,
				0.228067010641098,
				-0.121829755604267,
				-0.16751666367054,
				0.0111987283453345,
				0.128851965069771,
				-0.150910660624504,
				-0.222330093383789,
				-0.29111260175705,
				0.0842523127794266,
				-0.348459601402283,
				0.2649065554142,
				0.128158450126648,
				-0.198957055807114,
				-0.214226737618446,
				0.216018334031105,
				-0.189714357256889,
				-0.143822625279427,
				-0.0473279356956482,
				-0.0609471090137959,
				0.0575519315898418,
				0.086277961730957,
				0.0715833902359009,
				-0.0426430255174637,
				0.0146452458575368,
				0.224531844258308,
				-0.110585354268551,
				0.141290456056595,
				-0.00159803591668606,
				-0.174872159957886,
				-0.0832891017198563,
				-0.103899210691452,
				0.0730817839503288,
				0.0235473327338696,
				-0.210656762123108,
				-0.165510773658752,
				-0.213848263025284,
				-0.230132177472115,
				0.0201762765645981,
				-0.103113122284412,
				0.0103556038811803,
				0.010723726823926,
				0.169435173273087,
				-0.0544816665351391,
				-0.0177504513412714,
				0.136582687497139,
				-0.134300380945206,
				-0.0175244566053152,
				-0.0895991697907448,
				-0.0498677529394627,
				-0.278997480869293,
				0.0532474555075169,
				0.045989353209734,
				0.116298697888851,
				0.127342909574509,
				0.183348879218102,
				-0.0524806976318359,
				-0.346869051456451,
				-0.0960742235183716,
				-0.174875363707542,
				-0.109982199966908,
				0.18002063035965,
				-0.0847238376736641,
				-0.0661636218428612,
				0.0557439848780632,
				0.305493175983429,
				0.164426401257515,
				0.0772542133927345,
				-0.0930034294724464,
				-0.509625554084777,
				-0.0374458692967892,
				-0.152631551027298,
				0.0580829940736294,
				-0.0156563222408295,
				-0.177500635385513,
				0.138578370213509,
				-0.178463131189346,
				0.107493355870247,
				0.223030775785446,
				-0.483400583267212,
				0.142346739768982,
				-0.11794389039278,
				-0.110383413732052,
				-0.0325013436377048,
				-0.0840134173631668,
				0.216858968138695,
				0.099643275141716,
				0.0950401872396469,
				0.0141399968415499,
				-0.164914205670357,
				-0.0691329166293144,
				0.00118194043170661,
				0.0643544942140579,
				-0.00378815224394202,
				-0.00404040049761534,
				0.0555088594555855,
				-0.443332523107529,
				-0.188290953636169,
				0.0743508785963058,
				-0.138771757483482,
				-0.194709330797195,
				0.0391363613307476,
				-0.0852770060300827,
				-0.0863340646028519,
				0.021330401301384,
				0.0609735511243343,
				-0.0966986119747162,
				0.170805737376213,
				-0.0714279115200043,
				-0.302928328514099,
				-0.0259022675454617,
				0.0045969607308507,
				0.161302864551544,
				-0.23733489215374,
				0.178302511572838,
				0.0933607071638107,
				-0.0620315931737423,
				-0.153597787022591,
				-0.0721525177359581,
				0.0406527742743492,
				-0.075657032430172,
				0.0591473579406738,
				-0.0853187218308449,
				-0.0186637230217457,
				0.00700342608615756,
				0.103326335549355,
				0.135537415742874,
				-0.370932042598724,
				0.278432965278625,
				-0.0853551775217056,
				0.0840674564242363,
				0.0817814916372299,
				-0.134333059191704,
				-0.163422137498856,
				-0.0191742964088917,
				-0.134437412023544,
				-0.0701834186911583,
				0.184999898076057,
				0.0122063811868429,
				0.0855414643883705,
				0.131413161754608,
				0.137400895357132,
				0.0508862435817719,
				0.022882916033268,
				0.0944077000021935,
				-0.0221463162451982,
				0.0938226729631424,
				-0.112245574593544,
				0.299896478652954,
				0.327582895755768,
				0.2664774954319,
				-0.0607077330350876,
				-0.168002083897591,
				0.148837596178055,
				-0.0453847013413906,
				0.0392829403281212,
				0.0168768335133791,
				0.0123572116717696,
				-0.0454945936799049,
				0.0415526367723942,
				-0.271660685539246,
				0.150953054428101,
				-0.133840769529343,
				-0.188071206212044,
				-0.0170475598424673,
				0.0199001487344503,
				0.119009286165237,
				-0.303131282329559,
				0.345596045255661,
				-0.0629198625683784,
				0.173546373844147,
				-0.258832782506943,
				-0.129286229610443,
				0.0152164902538061,
				-0.0136475013568997,
				-0.161807253956795,
				-0.196963652968407,
				-0.0295154582709074,
				0.0663735494017601,
				0.151732549071312,
				0.0333901904523373,
				0.259286433458328,
				-0.00463022803887725,
				-0.107493251562119,
				-0.127186134457588,
				-0.0398603156208992,
				0.139151781797409,
				-0.0523690208792686,
				0.145663246512413,
				0.193172663450241,
				0.34767097234726,
				0.141621336340904,
				0.116910837590694,
				0.23070602118969,
				-0.0714397057890892,
				-0.0327016562223434,
				-0.0396398864686489,
				0.359176158905029,
				-0.161223396658897,
				0.140812456607819,
				0.00871945265680552,
				0.365252792835236,
				-0.316529124975204,
				0.07969631254673,
				-0.0747974589467049,
				0.00195271044503897,
				-0.247743383049965,
				-0.119057059288025,
				0.280641466379166,
				-0.13467039167881,
				-0.196985170245171,
				0.268753528594971,
				-0.143623754382133,
				-0.315926402807236,
				-0.0468648225069046,
				-0.47040119767189,
				0.246157735586166,
				-0.249669328331947,
				0.0630867034196854,
				-0.176205143332481,
				0.0818780213594437,
				0.126603022217751,
				-0.076291024684906,
				-0.128317698836327,
				-0.110814146697521,
				0.114518910646439,
				-0.0832024142146111,
				0.00952218938618898,
				-0.135419398546219,
				0.158273220062256,
				0.121191956102848,
				-0.1903465539217,
				0.09597497433424,
				-0.56667947769165,
				-0.186689734458923,
				0.155373588204384,
				-0.234946608543396,
				0.159101337194443,
				-0.0594115741550922,
				-0.0505034103989601,
				0.0671494975686073,
				0.0117279579862952,
				0.169188931584358,
				0.0701103806495667,
				-0.097114309668541,
				-0.0247013587504625,
				-0.389994561672211,
				0.0217576567083597,
				-0.0716552287340164,
				0.180624842643738,
				-0.00373989436775446,
				0.0384285636246204,
				-0.180472686886787,
				-0.446973025798798,
				0.00140729872509837,
				-0.00980345904827118,
				0.067798063158989,
				-0.0269734729081392,
				-0.18917940557003,
				0.0123012363910675,
				-0.0699865967035294,
				-0.0394703634083271,
				-0.25151601433754,
				-0.0377265512943268,
				-0.157699972391129,
				0.174371123313904,
				-0.168385937809944,
				0.051751546561718,
				0.0317179039120674,
				-0.205553784966469,
				-0.00798686780035496,
				0.0331470929086208,
				-0.152766674757004,
				-0.164592295885086,
				0.0880194529891014,
				-0.0712770819664001,
				-0.00774957239627838,
				-0.0905814990401268,
				-0.274574011564255,
				0.0140045201405883,
				0.0491332709789276,
				0.0354865826666355,
				-0.160296618938446,
				0.107382774353027,
				-0.139972433447838,
				0.0251363217830658,
				-0.158896014094353,
				-0.381725251674652,
				-0.0135946292430162,
				0.123295053839684,
				-0.216094046831131,
				0.0931567773222923,
				0.106719382107258,
				0.0528567470610142,
				0.0523855537176132,
				-0.142579853534698,
				-0.187142461538315,
				0.0861178934574127,
				-0.0722176507115364,
				0.294453978538513,
				0.0961248800158501,
				0.0647697970271111,
				0.0190332252532244,
				0.040915809571743,
				-0.0309381596744061,
				-0.0663356631994247,
				-0.0955953374505043,
				-0.0486236698925495,
				-0.0113533856347203,
				-0.0245070606470108,
				0.00620509218424559,
				0.267122894525528,
				-0.0528580881655216,
				0.275028735399246,
				0.0382611453533173,
				0.169106423854828,
				-0.165553867816925,
				-0.124801881611347,
				0.141980603337288,
				0.0423720590770245,
				-0.0897323489189148,
				-0.321218967437744,
				-0.114296190440655,
				-0.210773006081581,
				-0.39179664850235,
				-0.0927737429738045,
				-0.0557106658816338,
				-0.266244322061539,
				-0.12627574801445,
				-0.0946279689669609,
				-0.0595120266079903,
				0.152190893888474,
				0.232557281851768,
				0.260931700468063,
				0.207076326012611,
				-0.0254588834941387,
				0.00608744472265244,
				-0.214513510465622,
				0.119807094335556,
				0.113972440361977,
				0.171645075082779,
				0.0535221211612225,
				-0.183611363172531,
				-0.189858332276344,
				-0.3850317299366,
				-0.083147868514061,
				0.0883248150348663,
				-0.0694248229265213,
				0.0442638471722603,
				-0.0147137427702546,
				-0.190932556986809,
				0.0603493936359882,
				-0.0526327006518841,
				0.142060488462448,
				0.294238537549973,
				0.0905847251415253,
				-0.195782601833344,
				-0.0805774927139282,
				0.0698056742548943,
				0.0290064066648483,
				0.0636989995837212,
				-0.0101622249931097,
				-0.085597962141037,
				-0.198756769299507,
				-0.174101635813713,
				-0.0281343068927526,
				-0.000361470913048834,
				0.195372730493546,
				0.108480721712112,
				0.168356731534004,
				0.0169123765081167,
				-0.0771671161055565,
				0.0514789633452892,
				0.18289241194725,
				-0.164848670363426,
				-0.201148867607117,
				0.160435155034065,
				-0.0642856657505035,
				0.0852966904640198,
				-0.217061311006546,
				-0.112892657518387,
				0.170125111937523,
				-0.0885469242930412,
				0.0210731215775013,
				-0.128896743059158,
				-0.147738978266716,
				0.0902920365333557,
				0.0928598046302795,
				-0.0503358915448189,
				0.0489770472049713,
				-0.0641520172357559,
				0.0609040409326553,
				0.110855095088482,
				-0.074515663087368,
				-0.112351059913635,
				-0.211836293339729,
				0.0988806262612343,
				0.154225021600723,
				-0.0590400472283363,
				0.230820998549461,
				-0.208559602499008,
				-0.055092204362154,
				-0.0717962607741356,
				-0.322682678699493,
				-0.0689197853207588,
				0.163512080907822,
				-0.0796866863965988,
				-0.081660270690918,
				0.0589845068752766,
				0.22997622191906,
				-0.0517072826623917,
				0.00128692388534546,
				0.197679087519646,
				0.220950692892075,
				-0.144504204392433,
				0.056017454713583,
				0.210463717579842,
				-0.249594688415527,
				-0.196178540587425,
				0.173457890748978,
				-0.0364345945417881,
				0.166207060217857,
				0.079594574868679,
				-0.0887283086776733,
				-0.304517090320587,
				0.0686633437871933,
				0.0585809983313084,
				0.160087808966637,
				-0.0812803953886032,
				-0.168699204921722,
				-0.338623970746994,
				0.0708647593855858,
				-0.233779862523079,
				0.148381099104881,
				-0.145192235708237,
				-0.158737197518349,
				-0.155085206031799,
				-0.0821573883295059,
				-0.194906875491142,
				0.408360838890076,
				0.0923154354095459,
				0.0897989198565483,
				-0.227588161826134,
				-0.204021722078323,
				0.105763554573059,
				0.164596974849701,
				0.121113926172256,
				0.126499325037003,
				0.150671914219856,
				0.114599570631981,
				0.406854242086411,
				-0.079547218978405,
				0.0802503898739815,
				-0.0494466312229633,
				-0.115717694163322,
				-0.0868458673357964,
				0.322043865919113,
				0.207298532128334,
				0.0692626461386681,
				0.228055909276009,
				-0.0539324954152107,
				0.0504065416753292,
				0.135857939720154,
				0.0440304987132549,
				0.0379208698868752,
				0.103335104882717,
				0.262420415878296,
				0.0807051509618759,
				0.362530916929245,
				0.0684589818120003,
				0.236769318580627,
				-0.170239195227623,
				0.145116344094276,
				0.297562479972839,
				-0.115063644945621,
				0.169617563486099,
				0.0379549264907837,
				-0.055855680257082,
				-0.162658140063286,
				0.0512667335569859,
				0.0216997563838959,
				-0.201533257961273,
				-0.0867548137903214,
				0.165976718068123,
				0.298111349344254,
				0.0969652533531189,
				0.0339344330132008,
				0.0575980693101883,
				0.0977155864238739,
				0.244875401258469,
				0.272947251796722,
				-0.0463270768523216,
				0.262034744024277,
				0.0238027237355709,
				-0.0369513668119907,
				-0.123867824673653,
				0.00252527836710215,
				0.0914260149002075,
				-0.10110916942358,
				-0.0718588307499886,
				-0.197684869170189,
				-0.00415684282779694,
				0.0607292540371418,
				-0.0489624068140984,
				-0.0623235963284969,
				-0.00274088955484331,
				0.117790602147579,
				-0.0112008219584823,
				0.286879271268845,
				0.211406081914902,
				0.0647892281413078,
				-0.0399786904454231,
				0.140746787190437,
				-0.107145227491856,
				-0.196687906980515,
				0.175215214490891,
				0.0587594136595726,
				0.0925506725907326,
				0.0220137294381857,
				0.227952852845192,
				-0.308735817670822,
				0.0321672558784485,
				0.0667028725147247,
				-0.0491644777357578,
				0.21515716612339,
				-0.028438962996006,
				0.169374048709869,
				0.115902453660965,
				0.0617943294346333,
				-0.275991082191467,
				-0.0676830857992172,
				-0.170376524329185,
				0.315442860126495,
				0.0971631184220314,
				-0.296211749315262,
				0.283507525920868,
				-0.137389004230499,
				0.108993507921696,
				0.134727716445923,
				-0.0897479206323624,
				0.113288052380085,
				-0.30061948299408,
				-0.098208412528038,
				0.0176980793476105,
				-0.00181983131915331,
				0.0667953342199326,
				-0.138663828372955,
				-0.107833512127399,
				0.0561398603022099,
				0.150438904762268,
				-0.16236737370491,
				0.0844085440039635,
				0.0825522989034653,
				-0.0564810894429684,
				0.10815455019474,
				0.264393746852875,
				-0.0356220379471779,
				-0.00646558264270425,
				-0.0172750521451235,
				0.162382423877716,
				0.026817724108696,
				-0.125969216227531,
				0.287367314100266,
				-0.0368099175393581,
				0.18523596227169,
				-0.158305510878563,
				0.0788717716932297,
				-0.28975784778595,
				-0.021748935803771,
				-0.127012088894844,
				-0.136747658252716,
				-0.0602418296039104,
				0.122513562440872,
				-0.077017642557621,
				-0.103625237941742,
				-0.108654677867889,
				-0.00841450784355402,
				0.111749328672886,
				0.0966558754444122,
				0.188715547323227,
				0.101343780755997,
				-0.120260328054428,
				0.00802601594477892,
				0.0145556619390845,
				0.0864716544747353,
				0.0451391600072384,
				-0.139159455895424,
				0.0737840160727501,
				-0.0242664739489555,
				-0.0607108026742935,
				-0.0697630420327187,
				-0.0915342792868614,
				0.186934247612953,
				-0.0961419120430946,
				-0.0276495926082134,
				0.164623573422432,
				-0.0360231399536133,
				0.0110124992206693,
				-0.105856597423553,
				-0.0379054099321365,
				0.178304433822632,
				0.0741023793816566,
				-0.0969472974538803,
				-0.0624072551727295,
				-0.113677069544792,
				-0.00619697198271751,
				0.0919533744454384,
				-0.294692933559418,
				-0.118280358612537,
				0.0660748481750488,
				0.29657045006752,
				-0.161305800080299,
				-0.323718935251236,
				0.0228251740336418,
				0.111248917877674,
				0.322010606527328,
				0.202775716781616,
				0.213044673204422,
				-0.148691892623901,
				0.0669292658567429,
				-0.00753131508827209,
				-0.0675584822893143,
				-0.0256392247974873,
				-0.147112786769867,
				0.0365161895751953,
				0.0188836343586445,
				-0.102105736732483,
				0.164816901087761,
				0.158425942063332,
				0.18956346809864,
				-0.070433035492897,
				-0.108434371650219,
				-0.233885690569878,
				-0.0482230260968208,
				-0.214949727058411,
				0.0178642030805349,
				-0.0914620533585548,
				-0.0410581044852734,
				0.187455579638481,
				0.338087409734726,
				0.0659866482019424,
				-0.168302312493324,
				-0.275757908821106,
				-0.258951157331467,
				-0.236212000250816,
				-0.110197313129902,
				0.119481146335602,
				-0.0318546928465366,
				-0.0598784722387791,
				-0.0956527143716812,
				0.138191044330597,
				0.09122284501791,
				-0.204501420259476,
				0.038307785987854,
				-0.0824615061283112,
				0.229352653026581,
				0.0102570960298181,
				0.132792264223099,
				-0.110132932662964,
				0.0446286350488663,
				0.00670652789995074,
				-0.245631501078606,
				0.0787506997585297,
				-0.47157409787178,
				-0.185662105679512,
				0.0600061826407909,
				0.174737721681595,
				0.0357632078230381,
				0.0814289674162865,
				-0.11901992559433,
				0.347595691680908,
				-0.124575175344944,
				1.34049796542968E-05,
				0.108705580234528,
				-0.0349771045148373,
				0.093856506049633,
				0.00794590078294277,
				-0.146718263626099,
				-0.3011574447155,
				0.307478487491608,
				0.121523670852184,
				0.131704688072205,
				-0.131209939718246,
				0.000591231568250805,
				-0.125532120466232,
				0.00953665189445019,
				-0.0198341477662325,
				-0.123810663819313,
				0.131912082433701,
				-0.162284299731255,
				-0.159819006919861,
				-0.132161468267441,
				-0.201777249574661,
				-0.0931603386998177,
				-0.108138017356396,
				0.0827519372105598,
				-0.194516807794571,
				0.00371596426703036,
				-0.260854512453079,
				-0.0288589857518673,
				0.262383610010147,
				0.0773885920643806,
				0.197582796216011,
				0.0164074581116438,
				-0.161073595285416,
				-0.128546521067619,
				0.259274929761887,
				0.379265069961548,
				-0.141516804695129,
				0.0185458734631538,
				-0.0291765928268433,
				-0.0588421225547791,
				-0.138227701187134,
				0.0334118418395519,
				-0.00894810538738966,
				-0.249178022146225,
				0.0844953581690788,
				-0.00317798159085214,
				-0.134793922305107,
				0.0729420408606529,
				0.142513185739517,
				0.1689832508564,
				-0.0950840190052986,
				-0.0139739383012056,
				-0.193160936236382,
				-0.183511421084404,
				-0.224076360464096,
				-0.0586865395307541,
				-0.165312677621841,
				0.1774051040411,
				-0.312689423561096,
				0.0697543025016785,
				-0.117648415267467,
				0.171168446540833,
				-0.0534275136888027,
				-0.0127618489786983,
				0.109473779797554,
				-0.125692248344421,
				-0.129931434988976,
				0.209884598851204,
				0.223356351256371,
				-0.0572331584990025,
				-0.0034509738907218,
				0.226789221167564,
				0.0385020971298218,
				-0.0387100130319595,
				-0.175698235630989,
				0.092934176325798,
				-0.13741971552372,
				-0.116710230708122,
				-0.210182592272758,
				0.130391553044319,
				0.0239490400999784,
				0.0659781619906425,
				-0.151497706770897,
				-0.13129685819149,
				-0.241272076964378,
				-0.0944464430212975,
				-0.2102220505476,
				0.101250633597374,
				0.535189867019653,
				-0.128523275256157,
				0.101212918758392,
				-0.114257901906967,
				0.119267918169498,
				-0.272939682006836,
				-0.028750529512763,
				0.132501542568207,
				-0.0380291379988194,
				-0.0902669057250023,
				-0.172149047255516,
				-0.0998926982283592,
				0.0191778708249331,
				0.257302463054657,
				-0.0386093035340309,
				-0.010019589215517,
				-0.147300824522972,
				-0.0738827809691429,
				-0.31519228219986,
				-0.131224304437637,
				0.25083589553833,
				-0.230438739061356,
				0.105668015778065,
				0.115863718092442,
				0.0268666762858629,
				0.194392055273056,
				-0.0922941789031029,
				-0.0756598860025406,
				-0.0847098007798195,
				-0.158221825957298,
				0.170383915305138,
				-0.0661552399396896,
				0.0393358655273914,
				-0.188381031155586,
				-0.125815868377686,
				0.178811594843864,
				0.022238701581955,
				0.0143780615180731,
				-0.108110822737217,
				0.113584615290165,
				0.148470804095268,
				-0.0152936745434999,
				0.0308156311511993,
				-0.0321807786822319,
				0.115820467472076,
				-0.0565521083772182,
				-0.245805233716965,
				0.150858789682388,
				0.0713265985250473,
				0.161651462316513,
				0.176500871777534,
				-0.14804795384407,
				0.167209923267365,
				-0.101506412029266,
				-0.199277490377426,
				-0.0234036948531866,
				0.020192189142108,
				0.0467964857816696,
				-0.163885548710823,
				-0.0380582064390182,
				0.214814558625221,
				-0.30367249250412,
				-0.175939291715622,
				0.00649717403575778,
				-0.0448307208716869,
				0.26002162694931,
				-0.00780866015702486,
				-0.116088137030602,
				-0.166560754179955,
				0.0717031806707382,
				0.436181366443634,
				-0.227254822850227,
				0.193751767277718,
				-0.14417627453804,
				0.162986382842064,
				0.205494552850723,
				-0.00194414355792105,
				-0.058256734162569,
				-0.159543409943581,
				0.0608337000012398,
				0.19716902077198,
				-0.352622777223587,
				-0.251185268163681,
				0.155299782752991,
				-0.16045480966568,
				0.0401285402476788,
				-0.244607418775558,
				0.117032945156097,
				-0.128631830215454,
				-0.283834964036942,
				-0.0341597087681293,
				-0.171924248337746,
				-0.00835539400577545,
				0.0587072297930717,
				0.180749788880348,
				0.271808296442032,
				-0.0985462442040443,
				-0.01404710393399,
				0.0421966202557087,
				0.142298758029938,
				-0.187627136707306,
				-0.0213047470897436,
				-0.0879403054714203,
				-0.0187762919813395,
				0.138461276888847,
				0.0634470209479332,
				0.096014715731144,
				-0.276815176010132,
				0.204488545656204,
				0.156000450253487,
				-0.129151284694672,
				0.35201969742775,
				0.0493048280477524,
				-0.0400600619614124,
				0.157479360699654,
				-0.0354747287929058,
				-0.263508707284927,
				0.0283818542957306,
				0.378649562597275,
				0.111840814352036,
				0.0688981711864471,
				-0.0502618514001369,
				0.25184965133667,
				-0.11458246409893,
				-0.275231093168259,
				0.354063808917999,
				-0.268866062164307,
				-0.105345509946346,
				0.389498084783554,
				-0.11506475508213,
				0.0845561623573303,
				0.0701749250292778,
				0.121431238949299,
				-0.0707400590181351,
				-0.0197479911148548,
				-0.0441253334283829,
				0.0218193959444761,
				0.120857216417789,
				0.123955301940441,
				0.100483477115631,
				-0.0821729674935341,
				0.0465721227228642,
				0.0865190550684929,
				-0.139233410358429,
				-0.0485193058848381,
				0.234612852334976,
				-0.128023415803909,
				0.0209864657372236,
				0.20855376124382,
				-0.0378149375319481,
				-0.142618328332901,
				-0.0507813133299351,
				0.12120246887207,
				-0.025109538808465,
				0.107866004109383,
				-0.279643148183823,
				-0.127260714769363,
				0.00772895943373442,
				0.0973669067025185,
				-0.121357083320618,
				-0.494445413351059,
				0.122067973017693,
				-0.238596439361572,
				-0.151135206222534,
				0.0319776050746441,
				0.0963949039578438,
				0.0290266238152981,
				0.0811560302972794,
				0.314399778842926,
				-0.15642836689949,
				-0.146605387330055,
				0.0961212366819382,
				-0.0421416088938713,
				0.283683747053146,
				-0.045761838555336,
				-0.183480381965637,
				-0.298706889152527,
				0.00425343681126833,
				0.0886709243059158,
				0.031276922672987,
				-0.0573587194085121,
				0.258124560117722,
				0.0847694724798203,
				-0.0656074658036232,
				0.0123290996998549,
				0.0406625382602215,
				0.326748728752136,
				-0.273916393518448,
				-0.0412361100316048,
				0.0216238517314196,
				-0.263771861791611,
				-0.040539812296629,
				0.121137730777264,
				0.412702351808548,
				0.131617859005928,
				-0.0674084275960922,
				-0.233672261238098,
				0.192335024476051,
				0.0342292711138725,
				-0.172411769628525,
				-0.0525692068040371,
				-0.0211273822933435,
				-0.0874200686812401,
				0.0383210442960262,
				-0.178040757775307,
				0.0430817566812038,
				0.0552009977400303,
				0.0733721777796745,
				0.103836067020893,
				0.200594618916512,
				0.0804577395319939,
				-0.102589458227158,
				0.120881021022797,
				0.199658617377281,
				-0.0495114512741566,
				-0.0402931831777096,
				-0.117270432412624,
				-0.0493331179022789,
				0.0991319268941879,
				0.0386885032057762,
				0.004559809807688,
				0.057462003082037,
				0.00819515157490969,
				0.104584522545338,
				-0.135124668478966,
				-0.167626813054085,
				0.111920394003391,
				-0.104199044406414,
				0.0498229116201401,
				0.19688980281353,
				0.00534155871719122,
				-0.0780142098665237,
				0.27025431394577,
				0.267600685358047,
				-0.0897959396243095,
				0.00939892511814833,
				-0.232807502150536,
				0.0725287050008774,
				0.093317486345768,
				-0.0276715233922005,
				0.17122058570385,
				0.105208486318588,
				0.107283517718315,
				0.134110003709793,
				0.0735169798135757,
				0.0965543389320374,
				0.153237357735634,
				-0.135175049304962,
				-0.0546611994504929,
				0.0897238403558731,
				0.0668254271149635,
				-0.225557461380959,
				0.0541600212454796,
				0.0759957730770111,
				0.0121204433962703,
				0.205996498465538,
				-0.161650106310844,
				-0.0227792300283909,
				0.0506221279501915,
				0.184159860014915,
				-0.204155310988426,
				-0.126957610249519,
				0.179847195744514,
				0.0674517899751663,
				-0.277231603860855,
				0.0786051526665688,
				-0.0455993376672268,
				-0.0280372984707355,
				0.0518130399286747,
				0.264771372079849,
				0.26822093129158,
				0.0726165995001793,
				-0.129238292574883,
				-0.139194086194038,
				-0.135423839092255,
				0.28561607003212,
				0.139575034379959,
				0.126865327358246,
				0.123354211449623,
				-0.0327171459794044,
				-0.0133355855941772,
				-0.104288809001446,
				-0.080037035048008,
				-0.0622868649661541,
				-0.0824397578835487,
				-0.085572674870491,
				-0.416370719671249,
				-0.282973051071167,
				-0.00237695616669953,
				0.010494845919311,
				0.111726485192776,
				0.174185737967491,
				-0.0800393968820572,
				0.125428348779678,
				-0.0135047771036625,
				0.26268008351326,
				0.282174944877625,
				0.11576783657074,
				-0.233526572585106,
				-0.176405861973763,
				-0.100675828754902,
				0.0790514498949051,
				0.0338578447699547,
				-0.034177590161562,
				-0.00844182074069977,
				0.118729315698147,
				-0.19214940071106,
				-0.226670295000076,
				0.0244391653686762,
				-0.084362730383873,
				0.307095021009445,
				0.190902546048164,
				-0.181359797716141,
				0.10084855556488,
				-0.198770791292191,
				0.287264078855515,
				-0.275915771722794,
				0.113797523081303,
				0.134673565626144,
				-0.147075325250626,
				-0.122775971889496,
				-0.0267541538923979,
				-0.193785160779953,
				0.189027667045593,
				-0.133162379264832,
				0.0742424726486206,
				-0.346448212862015,
				-0.0298520792275667,
				0.0118458885699511,
				-0.0818157866597176,
				-0.0358071513473988,
				-0.0359484553337097,
				0.124497957527637,
				-0.213002905249596,
				0.256439656019211,
				-0.129991993308067,
				-0.213626518845558,
				-0.248488008975983,
				-0.214481458067894,
				-0.0891717746853828,
				0.0362324900925159,
				-0.0821260139346123,
				-0.0696159973740578,
				0.252226680517197,
				0.017331326380372,
				-0.103691034018993,
				0.347091555595398,
				-0.0345478802919388,
				-0.138022273778915,
				0.156845048069954,
				0.0286206547170877,
				-0.0546637065708637,
				-0.0304464902728796,
				0.172805517911911,
				-0.0607884898781776,
				-0.124547980725765,
				0.0365421585738659,
				-0.201504766941071,
				-0.308169931173325,
				-0.00749295530840755,
				0.0823076218366623,
				0.0269525200128555,
				-0.105566620826721,
				0.0039940900169313,
				-0.187161326408386,
				0.195955842733383,
				0.205530941486359,
				-0.236749023199081,
				0.0373664014041424,
				-0.0534917749464512,
				0.0691030770540237,
				0.243328422307968,
				-0.14565546810627,
				0.0889880955219269,
				-0.0105675412341952,
				-0.0447877980768681,
				0.0556612201035023,
				-0.131169468164444,
				-0.0188420452177525,
				0.126160591840744,
				0.0267952345311642,
				-0.0144089870154858,
				-0.13800972700119,
				-0.128601297736168,
				0.0226620975881815,
				-0.00376626406796277,
				0.0265674274414778,
				-0.0146553069353104,
				0.116394951939583,
				-0.298474192619324,
				0.166790947318077,
				-0.135726317763329,
				-0.229019612073898,
				0.418501615524292,
				0.121221520006657,
				-0.035516694188118,
				0.00656530680134892,
				-0.198284491896629,
				0.0838359296321869,
				-0.041527047753334,
				0.0775891691446304,
				-0.130266219377518,
				0.0953964069485664,
				0.192883566021919,
				-0.182395994663239,
				0.0972399637103081,
				0.409326285123825,
				-0.0915096923708916,
				-0.0369464531540871,
				-0.0774783194065094,
				-0.0896031036973,
				-0.278531432151794,
				-0.228686720132828,
				0.0584081523120403,
				-0.0841573998332024,
				0.0528417713940144,
				-0.268152415752411,
				0.14688067138195,
				0.150402218103409,
				0.216472581028938,
				-0.097336046397686,
				0.143175676465034,
				-0.00270013068802655,
				-0.244900315999985,
				0.209623441100121,
				-0.0450429543852806,
				-0.0407952144742012,
				-0.03525210916996,
				-0.278350561857224,
				-0.0757096782326698,
				-0.0566967763006687,
				0.148043483495712,
				0.0703641772270203,
				-0.0338384732604027,
				0.228535801172256,
				-0.11284477263689,
				-0.344693332910538,
				-0.174290522933006,
				0.00454331003129482,
				-0.0153028219938278,
				-0.0955038741230965,
				0.139468118548393,
				-0.0193040668964386,
				0.0917873382568359,
				0.0525709316134453,
				0.0302678793668747,
				0.0503996387124062,
				-0.0753241181373596,
				0.0522526651620865,
				-0.420245826244354,
				0.0687887594103813,
				0.0464266948401928,
				-0.0763382092118263,
				-0.177917584776878,
				-0.103719793260098,
				0.100229240953922,
				-0.38660004734993,
				-0.109417125582695,
				0.0836963132023811,
				-0.146533012390137,
				-0.0832337960600853,
				0.214326813817024,
				-0.0959481447935104,
				-0.109825521707535,
				-0.0715904533863068,
				0.0200018510222435,
				0.102179020643234,
				-0.186218127608299,
				-0.20054367184639,
				-0.0288741029798985,
				0.115214876830578,
				0.278194546699524,
				0.131177380681038,
				0.0483304709196091,
				0.156188309192657,
				-0.0865257680416107,
				-0.274348646402359,
				0.0850417912006378,
				0.189674437046051,
				0.218968898057938,
				0.0807929039001465,
				-0.130720302462578,
				-0.0713374838232994,
				-0.102007023990154,
				0.162564650177956,
				0.149045944213867,
				0.130949750542641,
				-0.0330420918762684,
				-0.015194358304143,
				-0.385947048664093,
				-0.230596169829369,
				0.233132854104042,
				-0.22577977180481,
				-0.12694776058197,
				-0.0581327937543392,
				-0.146832689642906,
				0.0700877085328102,
				0.0862927734851837,
				0.276005208492279,
				0.155264556407928,
				0.0160595569759607,
				-0.2568399310112,
				-0.0731019526720047,
				-0.270756781101227,
				0.376422673463821,
				-0.234949171543121,
				-0.0985766425728798,
				-0.155293941497803,
				0.0731243640184402,
				-0.183462157845497,
				0.0828791111707687,
				-0.129573464393616,
				0.0181088484823704,
				0.0972848311066628,
				0.0788556039333344,
				-0.0201137512922287,
				0.00307462178170681,
				-0.0496795065701008,
				0.270233958959579,
				0.128715097904205,
				0.0352541990578175,
				-0.00529631646350026,
				-0.11002704501152,
				0.0544869974255562,
				0.25308620929718,
				0.109941609203815,
				0.0266490187495947,
				0.00732208881527185,
				0.0288486070930958,
				-0.0110580511391163,
				0.0840416252613068,
				0.0386316031217575,
				0.109933346509933,
				-0.039009977132082,
				-0.344258010387421,
				-0.151291891932487,
				0.0999189615249634,
				0.020198741927743,
				0.358519196510315,
				0.138053566217422,
				-0.0025748813059181,
				-0.161215990781784,
				-0.316443741321564,
				-0.0973467379808426,
				0.109821274876595,
				-0.0675761923193932,
				-0.14632074534893,
				-0.10441017895937,
				0.121673986315727,
				0.00633393554016948,
				0.203557595610619,
				-0.0287954080849886,
				0.0818185582756996,
				0.0482451841235161,
				0.200841024518013,
				0.0822091847658157,
				0.0658272579312325,
				0.227189570665359,
				0.485933601856232,
				0.156257808208466,
				0.167427748441696,
				-0.0557031556963921,
				-0.209371522068977,
				-0.163788333535194,
				0.210497751832008,
				-0.293394833803177,
				-0.270618945360184,
				0.0312564373016357,
				0.137879595160484,
				-0.0786491483449936,
				-0.0397073850035667,
				-0.182948008179665,
				0.0590681470930576,
				0.072313979268074,
				-0.442475557327271,
				-0.116408787667751,
				0.0165462251752615,
				0.232660561800003,
				-0.0607611797749996,
				0.00925368349999189,
				0.041121818125248,
				-0.0649540945887566,
				0.190657272934914,
				0.190965637564659,
				0.403838306665421,
				-0.10437099635601,
				0.283752083778381,
				0.134559169411659,
				0.214495792984962,
				-0.281824111938477,
				-0.077287845313549,
				-0.115978494286537,
				0.0605541169643402,
				0.210518673062325,
				0.0404042415320873,
				-0.056681215763092,
				-0.26061600446701,
				0.120548211038113,
				-0.0118150683119893,
				-0.296833068132401,
				0.0709917992353439,
				-0.04225143045187,
				-0.125511556863785,
				-0.0940640717744827,
				-0.074926882982254,
				-0.145319163799286,
				-0.0286012962460518,
				0.202601373195648,
				-0.159237250685692,
				-0.186059534549713,
				0.273348063230515,
				-0.18102990090847,
				0.134807214140892,
				0.00216942164115608,
				-0.0122443567961454,
				-0.132136538624763,
				-0.217342212796211,
				-0.0768415108323097,
				-0.16621907055378,
				-0.167688310146332,
				-0.0980717539787292,
				-0.0203595254570246,
				0.0308372713625431,
				0.0920758545398712,
				0.0923021882772446,
				-0.0597914569079876,
				-0.128378689289093,
				0.0473658964037895,
				0.212055772542953,
				-0.111332468688488,
				0.19835664331913,
				-0.100642502307892,
				-0.115055114030838,
				-0.122934378683567,
				-0.0711298286914825,
				-0.00288153346627951,
				-0.175798535346985,
				0.0611212179064751,
				0.0773560032248497,
				-0.270198822021484,
				-0.0434491410851479,
				-0.108627550303936,
				-0.0164088644087315,
				0.161060616374016,
				-0.0104461759328842,
				-0.110241666436195,
				0.0947859138250351,
				-0.0735190659761429,
				0.0599638111889362,
				-0.0638658404350281,
				-0.0549070425331593,
				-0.131243050098419,
				0.0120078073814511,
				0.148401319980621,
				0.184960097074509,
				-0.169763773679733,
				-0.309564203023911,
				-0.0301196537911892,
				-0.123052984476089,
				0.304632693529129,
				0.05265748873353,
				-0.197793900966644,
				0.172700420022011,
				-0.175705552101135,
				0.0301384087651968,
				-0.276192486286163,
				-0.0586406551301479,
				-0.152970895171165,
				-0.0700662210583687,
				-0.498175531625748,
				0.241549238562584,
				0.403932899236679,
				0.0886611789464951,
				-0.0192126408219337,
				-0.159355416893959,
				-0.194723471999168,
				0.276066035032272,
				0.00243601808324456,
				-0.0589945800602436,
				0.0812187194824219,
				0.196467846632004,
				-0.0830966606736183,
				-0.132265105843544,
				-0.103411421179771,
				-0.180975735187531,
				0.0197719689458609,
				-0.0524084083735943,
				0.0521347485482693,
				0.0704550370573997,
				0.0947669520974159,
				0.141492798924446,
				-0.259559750556946,
				0.263764560222626,
				0.0498756729066372,
				0.0400454998016357,
				-0.0310128945857286,
				0.0821473002433777,
				-0.190174415707588,
				-0.373080313205719,
				0.0515491180121899,
				0.0411904118955135,
				-0.134310618042946,
				0.232873722910881,
				-0.172850638628006,
				-0.186080276966095,
				0.0357645601034164,
				-0.223467156291008,
				-0.0268711410462856,
				0.0699067786335945,
				-0.0399291329085827,
				0.186796620488167,
				0.305132001638412,
				0.109871417284012,
				0.291684329509735,
				0.165583178400993,
				-0.157956272363663,
				0.0358528532087803,
				-0.066263347864151,
				-0.000451832398539409,
				0.235556542873383,
				-0.0268638953566551,
				-0.312782049179077,
				0.0564402006566525,
				-0.115623071789742,
				0.00450157560408115,
				-0.0705526024103165,
				-0.0808809027075768,
				0.0519547648727894,
				0.0148521922528744,
				0.0392013713717461,
				-0.0188126638531685,
				-0.00498683704063296,
				0.18499156832695,
				0.166335538029671,
				-0.149731531739235,
				-0.154220953583717,
				0.309938788414001,
				-0.0416800118982792,
				-0.290426284074783,
				0.112931862473488,
				0.0711235255002975,
				0.1164820343256,
				0.178781405091286,
				-0.2402503490448,
				-0.0670361667871475,
				-0.0296801943331957,
				-0.103706233203411,
				0.135161906480789,
				0.241900950670242,
				0.174748092889786,
				0.0911005362868309,
				-0.147730022668839,
				0.142470598220825,
				0.310052156448364,
				-0.209752544760704,
				-0.21294878423214,
				0.0400362387299538,
				0.0230166278779507,
				0.205724895000458,
				-0.0670402497053146,
				-0.0686817541718483,
				-0.195751577615738,
				-0.171393528580666,
				-0.0323440991342068,
				-0.351276993751526,
				-0.118903361260891,
				-0.24649940431118,
				0.248372077941895,
				0.141274258494377,
				0.104244604706764,
				-0.0956966131925583,
				0.0397697016596794,
				0.035081785172224,
				0.0124419461935759,
				0.00743484077975154,
				-0.205211296677589,
				0.0286013334989548,
				0.0375049561262131,
				0.0439749695360661,
				-0.185520857572556,
				-0.0247066039592028,
				0.0421137586236,
				0.00376433366909623,
				-0.284972339868546,
				-0.154542833566666,
				0.0802682638168335,
				-0.0714695379137993,
				-0.150137767195702,
				0.127007588744164,
				0.0394758395850658,
				0.0870783478021622,
				-0.0642510652542114,
				0.142947226762772,
				-0.0102490801364183,
				-0.192944124341011,
				-0.268738508224487,
				0.18615560233593,
				-0.0572656579315662,
				-0.26849302649498,
				0.0778126046061516,
				-0.254831343889236,
				0.174801245331764,
				0.0480298213660717,
				-0.190571591258049,
				-0.132799953222275,
				-0.182572975754738,
				-0.235458016395569,
				-0.0105315586552024,
				0.028322596102953,
				0.203176766633987,
				0.0747310742735863,
				0.00354135385714471,
				-0.0973471105098724,
				0.0466977693140507,
				-0.169100910425186,
				-0.135388374328613,
				0.298479199409485,
				0.23187580704689,
				0.207577913999557,
				-0.0665977746248245,
				-0.154305994510651,
				0.0725996121764183,
				-0.0120974369347095,
				0.0224594138562679,
				0.374301791191101,
				-0.128356575965881,
				0.196687459945679,
				-0.40984183549881,
				0.0123531688004732,
				-0.328632354736328,
				-0.0380777679383755,
				-0.099262960255146,
				-0.044905312359333,
				-0.00165965571068227,
				0.138342082500458,
				0.404095083475113,
				-0.176178574562073,
				-0.079458124935627,
				0.0766400322318077,
				0.0260461419820786,
				0.00370869552716613,
				-0.057580541819334,
				-0.00487620569765568,
				0.150882884860039,
				0.101842522621155,
				-0.157657876610756,
				0.192001953721046,
				0.179791390895844,
				0.179383620619774,
				0.0268021430820227,
				0.24923437833786,
				0.290812373161316,
				-0.172706246376038,
				-0.0534567311406136,
				0.339483201503754,
				0.0791526958346367,
				0.0169630944728851,
				0.0611514076590538,
				-0.207630947232246,
				-0.140382885932922,
				-0.0247224308550358,
				0.078034520149231,
				-0.0197169538587332,
				0.108784012496471,
				0.266079425811768,
				0.0804717317223549,
				-0.134822502732277,
				0.0133015103638172,
				-0.0536137893795967,
				-0.337240546941757,
				0.0234743189066648,
				0.0232724715024233,
				-0.136230498552322,
				-0.12915500998497,
				0.2474435120821,
				-0.0413633733987808,
				-0.00301421713083982,
				0.0730020850896835,
				-0.0135900238528848,
				-0.146333202719688,
				0.201246961951256,
				-0.00677363807335496,
				-0.0518142729997635,
				0.111780397593975,
				0.139837205410004,
				-0.0554070398211479,
				0.0246143322438002,
				0.0379227288067341,
				0.14849653840065,
				-0.132613271474838,
				0.118661545217037,
				0.109555028378963,
				-0.0909247249364853,
				-0.216947689652443,
				0.0644080489873886,
				-0.0309012662619352,
				-0.13860596716404,
				0.0249563213437796,
				0.0562532767653465,
				0.0316630192101002,
				0.229960069060326,
				-0.237403333187103,
				0.132739901542664,
				0.213603392243385,
				0.0166531410068274,
				0.273176163434982,
				-0.22742073237896,
				-0.0694454088807106,
				0.138528734445572,
				0.0141833908855915,
				-0.110187686979771,
				-0.0148520553484559,
				-0.158075004816055,
				-0.368405342102051,
				-0.146271750330925,
				0.38654500246048,
				0.0212234240025282,
				-0.127015337347984,
				-0.173078805208206,
				-0.175954505801201,
				0.251089572906494,
				-0.120298683643341,
				0.0226273704320192,
				-0.0952179655432701,
				-0.0368696339428425,
				0.116480797529221,
				0.0483657009899616,
				-0.279185026884079,
				0.00266579329036176,
				0.0915489122271538,
				-0.128448501229286,
				0.0334014669060707,
				-0.148279473185539,
				-0.14760933816433,
				0.0345068797469139,
				0.131901651620865,
				0.0706198811531067,
				-0.102706499397755,
				-0.175021350383759,
				-0.100506484508514,
				0.30425426363945,
				-0.121201127767563,
				0.110761821269989,
				0.122480690479279,
				0.377080410718918,
				0.0549708753824234,
				0.0177329462021589,
				-0.249879032373428,
				0.242396622896194,
				0.0892511159181595,
				-0.307835578918457,
				-0.088879220187664,
				-0.120468489825726,
				-0.171178996562958,
				-0.0285239201039076,
				0.173577472567558,
				0.105860881507397,
				0.0930782631039619,
				-0.0125219821929932,
				-0.187292829155922,
				-0.105713434517384,
				-0.2197135835886,
				0.0330049805343151,
				0.183519065380096,
				0.102387577295303,
				0.105084180831909,
				0.0520678982138634,
				-0.355885714292526,
				0.40349680185318,
				0.281122505664825,
				-0.100933916866779,
				0.00826128665357828,
				-0.162742644548416,
				-0.18687230348587,
				-0.0300248134881258,
				0.162203878164291,
				0.16524563729763,
				0.0203908905386925,
				-0.186799004673958,
				-0.105885840952396,
				0.457392930984497,
				-0.379846543073654,
				-0.153786092996597,
				-0.130173310637474,
				0.052421934902668,
				-0.0410790555179119,
				0.188518717885017,
				0.189398884773254,
				0.0353329218924046,
				-0.216879218816757,
				0.0327843427658081,
				-0.00644015055149794,
				-0.161252781748772,
				0.0947470515966415,
				-0.304999172687531,
				-0.0259751714766026,
				-0.0599426478147507,
				-0.124250866472721,
				-0.0419654026627541,
				0.046647135168314,
				0.0448137149214745,
				0.197483256459236,
				-0.0691159591078758,
				-0.021371603012085,
				-0.119723409414291,
				-0.121030934154987,
				-0.197188258171082,
				0.32097789645195,
				-0.265025198459625,
				0.00511534651741385,
				-0.131285071372986,
				-0.0144049283117056,
				0.0402516648173332,
				-0.0351845361292362,
				0.0594322495162487,
				0.340828031301498,
				0.272850006818771,
				0.176138192415237,
				0.0129261845722795,
				-0.0743816569447517,
				-0.0877036675810814,
				0.0102183753624558,
				-0.201268181204796,
				-0.0907566696405411,
				-0.0468402206897736,
				-0.0195529144257307,
				-0.0133171435445547,
				0.0156331639736891,
				-0.0465608984231949,
				-0.0039187278598547,
				-0.214450553059578,
				-0.295162290334702,
				-0.0491472184658051,
				0.21252278983593,
				0.124228268861771,
				0.173999980092049,
				0.117390714585781,
				-0.0590687096118927,
				-0.115531899034977,
				0.0315492413938046,
				-0.0357832759618759,
				-0.163757115602493,
				0.131479755043983,
				-0.0620941929519176,
				-0.179345294833183,
				-0.115539349615574,
				-0.0504347048699856,
				0.056519228965044,
				-0.0682543143630028,
				-0.142317563295364,
				-0.0302570965141058,
				-0.108888618648052,
				0.159462705254555,
				0.0376312583684921,
				0.0180118624120951,
				0.103787995874882,
				0.227348133921623,
				0.00219961255788803,
				0.0599132068455219,
				0.360951542854309,
				0.0680111795663834,
				0.375146508216858,
				0.215329617261887,
				0.0708876177668571,
				-0.177279382944107,
				0.0413943938910961,
				-0.181372940540314,
				0.171029418706894,
				0.132429480552673,
				-0.00442635035142303,
				0.0835347399115562,
				-0.10252521187067,
				0.0470674112439156,
				0.198789328336716,
				-0.231595128774643,
				-0.0147751476615667,
				-0.0669652298092842,
				0.218349441885948,
				-0.0336067788302898,
				0.197801232337952,
				0.361046254634857,
				0.00909171905368567,
				-0.0428009629249573,
				-0.14145165681839,
				-0.105603955686092,
				-0.0637773051857948,
				-0.0331804044544697,
				0.318944931030273,
				0.0432734563946724,
				0.0136795043945312,
				0.221158966422081,
				-0.470627188682556,
				0.0293910019099712,
				-0.296797543764114,
				0.095491349697113,
				-0.284130573272705,
				-0.0552848093211651,
				-0.083450011909008,
				-0.224629625678062,
				0.387706875801086,
				-0.170999690890312,
				0.0018487221095711,
				-0.0366392694413662,
				0.176993519067764,
				0.0575368963181973,
				-0.0838824808597565,
				-0.100555650889874,
				0.171564757823944,
				0.238442420959473,
				0.00939031969755888,
				0.189810767769814,
				-0.272697776556015,
				0.0925748646259308,
				0.134577557444572,
				-0.0474473163485527,
				0.0408666506409645,
				-0.129920363426208,
				-0.0870079845190048,
				0.00829130318015814,
				0.140215277671814,
				0.125642582774162,
				0.22465668618679,
				0.0678519010543823,
				-0.0942820385098457,
				-0.0892707705497742,
				0.192042827606201,
				-0.0387503616511822,
				0.0185656733810902,
				0.205116674304008,
				-0.118726015090942,
				-0.000726274505723268,
				-0.176306799054146,
				0.00776445167139173,
				0.0151684582233429,
				-0.0761583968997002,
				-0.222151011228561,
				-0.0415656343102455,
				0.0525275394320488,
				-0.0306729152798653,
				-0.0105780037119985,
				0.0678156688809395,
				-0.194746658205986,
				0.0982584282755852,
				0.237437173724174,
				-0.0899040773510933,
				0.169477730989456,
				-0.166749447584152,
				-0.019726013764739,
				-0.177153468132019,
				-0.241715237498283,
				-0.105302840471268,
				-0.250480711460114,
				-0.0630190297961235,
				-0.162173882126808,
				-0.230521112680435,
				-0.110252976417542,
				0.152930721640587,
				0.0629994347691536,
				0.0826047211885452,
				0.261217087507248,
				0.115088567137718,
				0.153284907341003,
				0.0686397328972816,
				0.137037202715874,
				-0.238500654697418,
				0.0349114052951336,
				0.240212887525558,
				0.059075728058815,
				-0.265166908502579,
				-0.268048256635666,
				0.278658598661423,
				0.241819590330124,
				-0.0368141047656536,
				0.124070838093758,
				-0.189748898148537,
				0.0831901729106903,
				0.186852559447289,
				-0.490065008401871,
				0.0232106614857912,
				-0.193710342049599,
				0.0273633990436792,
				-0.0641259774565697,
				-0.0876273289322853,
				0.106327868998051,
				-0.0877983346581459,
				0.124398604035378,
				-0.11318576335907,
				0.00994614791125059,
				0.0253588780760765,
				-0.152023270726204,
				0.0223337169736624,
				-0.208033159375191,
				0.226340472698212,
				0.119811564683914,
				0.0799208283424377,
				-0.307264059782028,
				-0.0312951691448689,
				-0.132707178592682,
				-0.0578265003859997,
				0.0708359852433205,
				0.112209513783455,
				0.203897148370743,
				0.0422623232007027,
				-0.062483262270689,
				-0.220344141125679,
				0.126678928732872,
				0.185594752430916,
				0.0575539954006672,
				-0.0820913463830948,
				-0.218300893902779,
				-0.103155180811882,
				0.150233060121536,
				-0.129458457231522,
				-0.108797021210194,
				0.0717069208621979,
				-0.0638317987322807,
				-0.0927800461649895,
				-0.114095658063889,
				0.00793646834790707,
				-0.0717775076627731,
				-0.0388957858085632,
				0.0851330757141113,
				-0.0454861707985401,
				0.0857355743646622,
				-0.266187489032745,
				-0.149445250630379,
				-0.0409690998494625,
				0.199669107794762,
				0.0381112545728683,
				-0.217108830809593,
				-0.0968081802129745,
				-0.0359297432005405,
				0.103711165487766,
				0.0533113852143288,
				-0.136088579893112,
				-0.378022402524948,
				-0.0387191139161587,
				-0.124516323208809,
				-0.308485925197601,
				0.189358815550804,
				0.189097031950951,
				0.033862940967083,
				-0.031488448381424,
				0.0815724208950996,
				-0.0153614431619644,
				-0.0512482225894928,
				-0.107385270297527,
				-0.192973062396049,
				-0.209923893213272,
				-0.135926395654678,
				-0.0237841792404652,
				0.078327976167202,
				-0.0530326031148434,
				0.0597752891480923,
				-0.015673378482461,
				0.0541031360626221,
				0.241444200277328,
				-0.223025530576706,
				0.20039290189743,
				0.033453531563282,
				0.174347445368767,
				-0.185215651988983,
				-0.19974610209465,
				0.0281459111720324,
				-0.285310655832291,
				-0.120327353477478,
				-0.0766675844788551,
				-0.00181059562601149,
				0.092354841530323,
				0.0242018345743418,
				-0.0463042259216309,
				-0.00504314294084907,
				-0.165949106216431,
				-0.0583760105073452,
				0.0237350855022669,
				0.0233031753450632,
				0.0499223656952381,
				0.0166000928729773,
				-0.103512980043888,
				0.129200950264931,
				0.104988068342209,
				-0.192330345511436,
				0.0638424456119537,
				0.144745007157326,
				-0.367775142192841,
				-0.125713422894478,
				-0.0942117869853973,
				0.030251195654273,
				-0.11930663138628,
				0.299679011106491,
				0.240830019116402,
				-0.305512994527817,
				-0.284953981637955,
				-0.292488604784012,
				0.0778893977403641,
				-0.06559968739748,
				0.0301016718149185,
				0.0615901574492455,
				0.00618563406169415,
				0.1792361587286,
				0.230042040348053,
				0.0230694599449635,
				0.0885748267173767,
				0.41963717341423,
				-0.252714365720749,
				-0.213373199105263,
				-0.0435781143605709,
				-0.0389992594718933,
				-0.0722494199872017,
				0.167270913720131,
				-0.326701939105988,
				0.119222059845924,
				0.19939823448658,
				0.0629901140928268,
				-0.120233178138733,
				-0.180120944976807,
				-0.0130837606266141,
				0.0253865290433168,
				-0.0161730498075485,
				-0.163260877132416,
				0.181369796395302,
				0.233138620853424,
				-0.276683658361435,
				-0.127064287662506,
				0.130802050232887,
				0.266276806592941,
				-0.0157365873456001,
				0.074496679008007,
				0.029759906232357,
				-0.0685059949755669,
				-0.131034001708031,
				0.000851597113069147,
				0.0864264145493507,
				-0.0292646419256926,
				-0.0749043598771095,
				0.154160112142563,
				-0.0619834251701832,
				-0.158192619681358,
				0.163882866501808,
				-0.18559218943119,
				-0.208123505115509,
				0.0261881183832884,
				0.180035382509232,
				0.215977475047112,
				0.137974500656128,
				0.00465352414175868,
				-0.41061806678772,
				0.192493170499802,
				-0.00981406401842833,
				0.0105859246104956,
				0.0307144094258547,
				-0.00728273950517178,
				0.116964422166348,
				0.024046516045928,
				-0.144292309880257,
				-0.00647854153066874,
				-0.157123222947121,
				0.0813427567481995,
				0.00761264143511653,
				-0.219180658459663,
				0.0759682953357697,
				0.139028742909431,
				-0.174922287464142,
				-0.0582546778023243,
				0.00749510060995817,
				0.141389340162277,
				-0.232406124472618,
				0.0377516001462936,
				0.0537753775715828,
				-0.0248300302773714,
				-0.332155674695969,
				-0.0790069997310638,
				0.00712358066812158,
				0.107583180069923,
				0.0643489435315132,
				0.23285673558712,
				0.0928781926631927,
				-0.191390201449394,
				-0.0132957734167576,
				-0.0416842401027679,
				0.0809600949287415,
				0.254499912261963,
				0.224004507064819,
				0.236777931451797,
				0.169697150588036,
				0.440968632698059,
				0.211518496274948,
				-0.0916924849152565,
				-0.130747333168983,
				0.058612085878849,
				-0.218186467885971,
				0.185050964355469,
				-0.310331702232361,
				0.124649979174137,
				0.214620292186737,
				0.0320400148630142,
				-0.0192025750875473,
				-0.0058395229279995,
				-0.198469936847687,
				-0.240270271897316,
				0.0391291566193104,
				-0.000286139606032521,
				0.133588016033173,
				-0.16318516433239,
				-0.104302428662777,
				-0.34388142824173,
				-0.186251103878021,
				-0.080766960978508,
				0.0415460504591465,
				0.126065030694008,
				-0.253595918416977,
				0.0190126523375511,
				-0.150596246123314,
				0.0706882774829865,
				-0.0541629754006863,
				0.0912159383296967,
				-0.326999843120575,
				0.113091625273228,
				-0.164993792772293,
				-0.16017010807991,
				0.0962986573576927,
				0.0718913972377777,
				0.112075984477997,
				-0.146041557192802,
				-0.137778073549271,
				-0.155230656266212,
				-0.0225639957934618,
				0.121844552457333,
				-0.0683384984731674,
				0.191086456179619,
				-0.260350525379181,
				0.124037593603134,
				-0.354309916496277,
				0.246392711997032,
				0.244625344872475,
				0.366995394229889,
				-0.176866129040718,
				-0.142640054225922,
				-0.0130237163975835,
				-0.0737744495272636,
				0.0565736517310143,
				-0.0096893822774291,
				-0.0740764811635017,
				-0.039532832801342,
				-0.178953006863594,
				-0.214894354343414,
				0.154341518878937,
				0.00589024089276791,
				-0.0352232903242111,
				0.257409155368805,
				0.00827543344348669,
				0.030970087274909,
				-0.437867999076843,
				0.163511618971825,
				0.0518962480127811,
				0.0979479253292084,
				0.0337064117193222,
				0.0026765454094857,
				0.012422495521605,
				-0.219118371605873,
				0.0862211883068085,
				-0.0529120750725269,
				0.13976426422596,
				0.15095342695713,
				-0.0451003611087799,
				-0.389583259820938,
				0.0820951387286186,
				-0.0523954220116138,
				-0.110972784459591,
				-0.0817926153540611,
				-0.0746167600154877,
				0.132599979639053,
				-0.00848873518407345,
				0.0400932244956493,
				-0.0635747164487839,
				-0.00377852655947208,
				0.0119775049388409,
				0.210993856191635,
				0.0310036558657885,
				0.0844007059931755,
				0.127136439085007,
				0.0320671983063221,
				0.0632636249065399,
				-0.114261247217655,
				0.117241121828556,
				0.180897012352943,
				0.169526502490044,
				0.0245513375848532,
				-0.186752170324326,
				0.063498429954052,
				-0.11690840870142,
				-0.084246926009655,
				-0.0675458759069443,
				-0.0494986660778522,
				0.195542216300964,
				-0.0424135960638523,
				0.0348856896162033,
				-0.164234101772308,
				0.000977946445345879,
				0.0342625565826893,
				-0.171067461371422,
				0.157954588532448,
				-0.0495586134493351,
				0.184033557772636,
				-0.0180962849408388,
				-0.195500627160072,
				-0.459000647068024,
				-0.0105275129899383,
				0.277228206396103,
				0.0704943314194679,
				-0.182176917791367,
				-0.0464384146034718,
				-0.130850628018379,
				0.220827773213387,
				-0.233218640089035,
				-0.107588186860085,
				0.133333206176758,
				-0.0554743036627769,
				0.030726358294487,
				-0.189016178250313,
				0.0723539888858795,
				0.414485692977905,
				0.0917729884386063,
				0.156081080436707,
				-0.191778391599655,
				0.0541062764823437,
				-0.401447832584381,
				-0.0750196650624275,
				-0.154144123196602,
				0.0450150556862354,
				-0.123669654130936,
				0.0834842771291733,
				0.0922447443008423,
				0.243101730942726,
				0.0304476656019688,
				0.154434725642204,
				-0.00810010638087988,
				0.0713424384593964,
				-0.0349456109106541,
				-0.130235984921455,
				0.0168445520102978,
				-0.0111841149628162,
				-0.320960164070129,
				-0.0752824693918228,
				0.00633980100974441,
				-0.471480399370193,
				-0.0955154970288277,
				-0.00856431294232607,
				0.0594605281949043,
				0.170892462134361,
				-0.277165144681931,
				0.232447668910027,
				-0.0844721645116806,
				-0.119362071156502,
				0.0103185772895813,
				-0.139210432767868,
				0.167442485690117,
				0.263365626335144,
				0.16219873726368,
				-0.0431708544492722,
				-0.0271683912724257,
				0.292128622531891,
				-0.0152542199939489,
				-0.0497664585709572,
				-0.12381474673748,
				-0.166203483939171,
				-0.227794423699379,
				-0.234495356678963,
				-0.00243378570303321,
				-0.00159263284876943,
				-0.190278694033623,
				-0.0822656750679016,
				-0.0861120373010635,
				0.158887282013893,
				0.138624936342239,
				0.120325930416584,
				-0.14519727230072,
				-0.334759503602982,
				0.096986822783947,
				-0.0177539363503456,
				0.126505196094513,
				0.132228419184685,
				0.201709866523743,
				-0.0036954446695745,
				0.122029684484005,
				0.0929976999759674,
				0.0912900045514107,
				0.143101841211319,
				0.18608470261097,
				-0.148667082190514,
				-0.0719566568732262,
				0.176559627056122,
				-0.0754076316952705,
				0.17605197429657,
				0.0600795075297356,
				-0.119940511882305,
				-0.110251285135746,
				-0.191098287701607,
				0.157746404409409,
				-0.240744426846504,
				-0.0953136160969734,
				-0.0153120728209615,
				0.22807152569294,
				-0.13177053630352,
				-0.0760655552148819,
				-0.0746995732188225,
				0.0278199557214975,
				-0.0983579903841019,
				0.00302899139933288,
				0.136384904384613,
				-0.133302196860313,
				-0.0262766908854246,
				-0.325263231992722,
				-0.168815180659294,
				0.0428784675896168,
				-0.0705386251211166,
				-0.006317890714854,
				-0.207844659686089,
				0.0512985326349735,
				-0.155637830495834,
				0.188908010721207,
				0.162146061658859,
				0.0597691833972931,
				0.0966475754976273,
				0.088217481970787,
				0.0434474721550941,
				-0.0222797635942698,
				0.0162400845438242,
				0.144586175680161,
				0.195445686578751,
				-0.266633450984955,
				-0.0064017167314887,
				0.184882029891014,
				0.0751375332474709,
				0.0491618439555168,
				0.0664989203214645,
				0.11891882121563,
				0.0772582739591599,
				-0.0253313481807709,
				-0.0159134417772293,
				-0.056511115282774,
				0.210845276713371,
				-0.266146451234818,
				0.0256154853850603,
				-0.0864081457257271,
				0.0589320138096809,
				-0.252083033323288,
				-0.142659649252892,
				0.0354327373206615,
				0.0474508590996265,
				-0.0719687044620514,
				-0.0340292602777481,
				0.26511487364769,
				0.0388010516762733,
				-0.137640535831451,
				-0.244576677680016,
				0.0156578496098518,
				0.0919550433754921,
				0.103614382445812,
				-0.274738490581512,
				0.0317391864955425,
				-0.175344005227089,
				-0.0524321310222149,
				-0.0816194713115692,
				0.341925889253616,
				0.178687617182732,
				-0.30382639169693,
				0.187642022967339,
				0.0127335991710424,
				-0.170183464884758,
				0.175299897789955,
				-0.0933813899755478,
				-0.042599331587553,
				-0.166849851608276,
				-0.161384105682373,
				-0.068447507917881,
				0.0634899288415909,
				-0.0635584369301796,
				-0.368086516857147,
				-0.0212938729673624,
				-0.145660251379013,
				0.274549424648285,
				-0.122736856341362,
				-0.304387718439102,
				-0.0672949105501175,
				0.0386188104748726,
				-0.18247352540493,
				0.0617710128426552,
				-0.148723915219307,
				0.263999909162521,
				0.293028652667999,
				-0.00705918064340949,
				-0.0074174776673317,
				-0.0577516965568066,
				-0.263688415288925,
				0.0430053807795048,
				0.0157534386962652,
				0.0463830195367336,
				0.184048891067505,
				-0.0325648002326488,
				0.0899510830640793,
				0.0884188115596771,
				-0.256718635559082,
				0.184557363390923,
				0.166028290987015,
				0.114127352833748,
				0.0201146714389324,
				0.0287707578390837,
				0.0435677953064442,
				0.157442659139633,
				0.140671581029892,
				-0.0303212255239487,
				-0.260628134012222,
				-0.118836559355259,
				-0.132455319166183,
				-0.204724743962288,
				-0.147554814815521,
				0.00732564320787787,
				0.111213900148869,
				0.0624830909073353,
				-0.122852116823196,
				0.0249391067773104,
				-0.115966379642487,
				0.241191640496254,
				0.0551706366240978,
				-0.307463705539703,
				-0.0238557513803244,
				-0.150286212563515,
				-0.151732966303825,
				0.0131274731829762,
				0.0547243542969227,
				-0.188935548067093,
				-0.292028307914734,
				-0.0129879601299763,
				-0.0872593447566032,
				0.0728997737169266,
				-0.0287139192223549,
				-0.0110349245369434,
				0.0952858850359917,
				-0.0723136514425278,
				0.108250185847282,
				-0.0791176036000252,
				0.209861978888512,
				0.0718279480934143,
				-0.122152827680111,
				0.0877302512526512,
				-0.184341683983803,
				0.137058421969414,
				0.227124035358429,
				-0.213818699121475,
				0.194076389074326,
				0.136455222964287,
				-0.163717836141586,
				-0.180935904383659,
				0.0150027396157384,
				-0.0290964245796204,
				0.00403403723612428,
				0.0872910842299461,
				-0.190825656056404,
				-0.0987281203269958,
				0.0416927076876163,
				0.0721315667033195,
				0.153058335185051,
				0.22213177382946,
				-0.0217184163630009,
				-0.128210812807083,
				0.191142946481705,
				9.36186115723103E-05,
				-0.140845119953156,
				-0.180015385150909,
				-0.0331185981631279,
				-0.210301488637924,
				0.0191907938569784,
				0.0909244790673256,
				0.0100158555433154,
				-0.0481929145753384,
				0.0480918735265732,
				0.0812211409211159,
				-0.396329253911972,
				-0.165830120444298,
				0.191827639937401,
				0.0221014656126499,
				0.309631019830704,
				0.116868451237679,
				-0.0599562488496304,
				-0.263325840234756,
				0.116088189184666,
				-0.068036787211895,
				-0.0872813761234283,
				-0.0380077473819256,
				-0.0050467518158257,
				0.168820232152939,
				0.153739407658577,
				-0.00844635721296072,
				0.409559190273285,
				0.212543398141861,
				0.140517756342888,
				-0.0510732531547546,
				0.0747836977243423,
				-0.235103771090508,
				0.084556020796299,
				-0.294313669204712,
				-0.340021759271622,
				-0.00988691579550505,
				-0.236341252923012,
				0.0123283192515373,
				-0.0692447870969772,
				0.0115533517673612,
				0.214003264904022,
				0.327253252267838,
				-0.103994071483612,
				0.296856582164764,
				0.161788836121559,
				-0.136553034186363,
				0.225170120596886,
				0.151602327823639,
				-0.00235160207375884,
				0.0896746516227722,
				0.0714985057711601,
				-0.117068737745285,
				0.10179079324007,
				0.159812957048416,
				-0.103920459747314,
				-0.311168491840363,
				-0.0666444376111031,
				-0.0225183591246605,
				0.173935189843178,
				-0.0357372090220451,
				0.335816890001297,
				0.132336527109146,
				-0.00300625432282686,
				-0.229511007666588,
				0.125690445303917,
				0.0953848883509636,
				0.134991928935051,
				0.0974120572209358,
				-0.081476554274559,
				0.0106144240126014,
				0.0852396786212921,
				-0.0748618617653847,
				0.234369844198227,
				0.173441350460052,
				-0.16642439365387,
				-0.0353859439492226,
				-0.089363805949688,
				-0.097682386636734,
				-8.17862819531001E-05,
				-0.0353716053068638,
				0.156234577298164,
				0.447602391242981,
				-0.0900470837950706,
				0.0663263946771622,
				-0.022415816783905,
				0.0960107520222664,
				0.225517839193344,
				0.0312516428530216,
				0.170720517635345,
				0.0501127913594246,
				0.16262973845005,
				0.325283169746399,
				0.159853234887123,
				0.0621449574828148,
				-0.145024508237839,
				-0.114332012832165,
				-0.0118348821997643,
				0.0167444422841072,
				0.0987556800246239,
				0.176978036761284,
				0.0195000674575567,
				0.110453955829144,
				-0.177427023649216,
				0.093905858695507,
				0.00511983502656221,
				0.103090658783913,
				0.00511885853484273,
				-0.168481737375259,
				-0.0113600241020322,
				0.0629384964704514,
				-0.27420961856842,
				0.241780117154121,
				-0.0425217039883137,
				0.0466518849134445,
				-0.123976342380047,
				-0.0555999390780926,
				-0.273604214191437,
				0.0906114131212234,
				0.376411110162735,
				0.0484390519559383,
				0.0735296905040741,
				-0.22167232632637,
				-0.172394707798958,
				0.289353400468826,
				-0.212768152356148,
				-0.165840789675713,
				-0.205779939889908,
				0.202764511108398,
				-0.0143470270559192,
				-0.0688599497079849,
				-0.241339549422264,
				-0.183407843112946,
				0.273552119731903,
				-0.0272485837340355,
				0.144652530550957,
				-0.171949908137321,
				-0.00392534770071507,
				-0.0482036955654621,
				-0.0888226702809334,
				-0.0188735239207745,
				0.0817826762795448,
				-0.0898213461041451,
				-0.199365019798279,
				-0.206508561968803,
				-0.182856842875481,
				-0.165241673588753,
				-0.153681322932243,
				0.0989545807242393,
				0.0692791044712067,
				0.144573971629143,
				-0.236988171935081,
				0.0158759169280529,
				0.216295123100281,
				-0.0548713654279709,
				-0.108096607029438,
				-0.29303303360939,
				-0.275332570075989,
				-0.0615924559533596,
				0.250228762626648,
				-0.0810007080435753,
				0.0820626690983772,
				-0.273285657167435,
				0.0919220149517059,
				-0.00231548701412976,
				-0.0715576931834221,
				0.0952390506863594,
				-0.0483743660151958,
				0.162735670804977,
				-0.0679861381649971,
				0.0635190159082413,
				-0.120140604674816,
				0.167241528630257,
				0.15003727376461,
				0.317014306783676,
				0.0960729494690895,
				-0.0801976546645164,
				0.083463728427887,
				0.0794796496629715,
				-0.0584886632859707,
				-0.221148267388344,
				-0.131828621029854,
				0.0797771364450455,
				-0.122013449668884,
				0.0737494230270386,
				-0.156428202986717,
				0.266902476549149,
				0.34021469950676,
				-0.017135864123702,
				0.0711467787623405,
				-0.0991313457489014,
				0.0298941042274237,
				0.0274887215346098,
				-0.0890019237995148,
				0.117486566305161,
				0.259220838546753,
				0.00572928134351969,
				0.0123438406735659,
				0.0902140140533447,
				0.202879205346107,
				-0.248605370521545,
				0.170602023601532,
				-0.0639608055353165,
				0.0657744854688644,
				-0.095821887254715,
				-0.160936817526817,
				-0.174709379673004,
				0.123511083424091,
				0.158340260386467,
				-0.0399629324674606,
				0.153678447008133,
				-0.0679132714867592,
				-0.182567432522774,
				-0.0742069333791733,
				-0.0356221683323383,
				-0.211512982845306,
				0.0352223999798298,
				-0.0687020048499107,
				-0.368589758872986,
				-0.0438518784940243,
				-0.0174261964857578,
				-0.155585721135139,
				0.00303633650764823,
				0.130240246653557,
				-0.134859681129456,
				-0.0334196798503399,
				0.0499217920005322,
				-0.115022480487823,
				0.0623374804854393,
				-0.0487766228616238,
				0.0260247625410557,
				0.0742943584918976,
				-0.0491518005728722,
				0.0670134872198105,
				-0.144459173083305,
				0.170960709452629,
				0.19637556374073,
				0.123431578278542,
				0.0516363680362701,
				0.177448451519012,
				0.0452995374798775,
				-0.438003957271576,
				-0.19192174077034,
				0.0815200284123421,
				0.0586341954767704,
				-0.181753620505333,
				-0.20422625541687,
				0.000511382822878659,
				0.00772324576973915,
				0.179342105984688,
				-0.13188923895359,
				-0.046895295381546,
				0.00656451843678951,
				-0.00188343599438667,
				-0.259244799613953,
				0.124826945364475,
				-0.0100835664197803,
				-0.126490503549576,
				-0.120247699320316,
				0.164197817444801,
				0.0382152870297432,
				0.103741653263569,
				-0.00528724258765578,
				0.0926445573568344,
				0.32274341583252,
				0.103799544274807,
				-0.200298175215721,
				0.029276380315423,
				0.047811359167099,
				0.111886717379093,
				-0.211922764778137,
				-0.036045640707016,
				-0.112437933683395,
				-0.160461366176605,
				-0.0798814818263054,
				-0.0635119453072548,
				-0.128647774457932,
				-0.160298451781273,
				0.26214399933815,
				-0.271739900112152,
				0.179724723100662,
				0.0371265895664692,
				-0.160863891243935,
				0.286069273948669,
				0.00928485579788685,
				0.0149284955114126,
				0.249732926487923,
				-0.273637026548386,
				-0.0282867234200239,
				-0.0587614625692368,
				0.180774584412575,
				-0.00842280499637127,
				-0.233627572655678,
				0.112730376422405,
				0.183392688632011,
				0.507037103176116,
				-0.154980689287186,
				-0.0550146549940109,
				0.107877835631371,
				0.154498502612114,
				-0.233870953321457,
				0.0274865254759789,
				0.0410304293036461,
				-0.0914319306612015,
				-0.079220287501812,
				-0.155432507395744,
				0.21343144774437,
				-0.142616510391235,
				0.0291320271790028,
				0.0641286075115204,
				0.137187585234642,
				-0.0969581753015518,
				-0.224381238222122,
				0.16736264526844,
				-0.101024650037289,
				0.241163268685341,
				-0.0230027344077826,
				-0.0326564535498619,
				0.13340063393116,
				-0.0333119183778763,
				-0.175090983510017,
				0.232137903571129,
				0.0254531763494015,
				-0.0412129573523998,
				0.0489174984395504,
				-0.140271484851837,
				0.09836445748806,
				-0.234789863228798,
				-0.0765626654028893,
				-0.136562421917915,
				0.0962520465254784,
				-0.0836897864937782,
				-0.146461516618729,
				0.115604318678379,
				0.0757578983902931,
				0.141853213310242,
				-0.0675432085990906,
				-0.0907905474305153,
				0.226789280772209,
				0.171738684177399,
				0.00424892781302333,
				-0.0793470144271851,
				-0.0589087978005409,
				0.149713546037674,
				-0.133502960205078,
				-0.0285002086311579,
				0.216061308979988,
				0.088480070233345,
				0.241295754909515,
				0.109111845493317,
				0.162564963102341,
				-0.144795432686806,
				0.0276813991367817,
				0.132560059428215,
				-0.216569915413857,
				-0.106624349951744,
				0.314100623130798,
				0.0298530962318182,
				0.437064468860626,
				-0.0587318167090416,
				-0.162533968687057,
				-0.0415224172174931,
				-0.142209812998772,
				0.174653649330139,
				-0.0245798099786043,
				0.133307278156281,
				0.18074107170105,
				-0.0456896908581257,
				-0.104087874293327,
				-0.050370492041111,
				0.0167756695300341,
				-0.178500309586525,
				0.0847262442111969,
				0.0543671473860741,
				-0.143950894474983,
				-0.227227762341499,
				0.0603555776178837,
				0.41458460688591,
				0.170090854167938,
				0.375494748353958,
				0.084521658718586,
				-0.0323062874376774,
				-0.0819623693823814,
				0.126232549548149,
				0.133481845259666,
				0.0985999628901482,
				0.0474649220705032,
				0.029806898906827,
				-0.238203316926956,
				-0.0325239524245262,
				0.0718759521842003,
				-0.0443569533526897,
				0.119611367583275,
				-0.128489106893539,
				-0.138243421912193,
				-0.0417208969593048,
				0.13117390871048,
				-0.0518863759934902,
				0.339290469884872,
				0.264873474836349,
				-0.14873856306076,
				0.117758773267269,
				0.0530794523656368,
				0.132980242371559,
				0.0748324915766716,
				0.329098969697952,
				-0.0575702451169491,
				-0.0829568952322006,
				0.0710316374897957,
				-0.0902921408414841,
				0.120290197432041,
				-0.0709054544568062,
				-0.157822370529175,
				-0.00388418207876384,
				-0.063499353826046,
				-0.15548937022686,
				-0.034634031355381,
				0.153011620044708,
				0.20089302957058,
				0.0800953879952431,
				-0.118600197136402,
				0.0100227706134319,
				-0.0584850944578648,
				-0.063919685781002,
				-0.129556983709335,
				0.172589585185051,
				0.0215017814189196,
				0.00471156928688288,
				-0.092912033200264,
				0.0758189409971237,
				-0.109862126410007,
				0.0468487069010735,
				0.0329320654273033,
				-0.0786294043064117,
				-0.235517755150795,
				0.158953830599785,
				-0.12886044383049,
				0.10621540248394,
				0.0510974787175655,
				-0.0804917737841606,
				-0.0504683144390583,
				-0.144182920455933,
				0.00608976045623422,
				0.0253164861351252,
				0.0737352818250656,
				0.121509581804276,
				-0.139506205916405,
				-0.115273848176003,
				0.271108984947205,
				-0.116875857114792,
				0.0582002550363541,
				0.072014331817627,
				0.0467363074421883,
				-0.0454205274581909,
				-0.0812707766890526,
				-0.314523547887802,
				0.0809540972113609,
				-0.293021857738495,
				-0.148109301924706,
				-0.03739358112216,
				-0.237066194415092,
				0.0593694075942039,
				0.340801686048508,
				-0.161089494824409,
				0.0441716909408569,
				-0.0251438394188881,
				-0.151089087128639,
				0.24235200881958,
				-0.115615405142307,
				0.0682821348309517,
				-0.0383548699319363,
				0.155576661229134,
				0.0775438919663429,
				0.082316942512989,
				-0.158603951334953,
				0.279447555541992,
				0.0990550816059113,
				-0.146487385034561,
				0.209218755364418,
				0.112618878483772,
				-0.143635004758835,
				-0.118004888296127,
				0.175717368721962,
				-0.122169487178326,
				0.326298803091049,
				-0.279301375150681,
				-0.0703218132257462,
				-0.124352030456066,
				0.0166980922222137,
				-0.0409836210310459,
				0.224191278219223,
				0.165205344557762,
				0.0751215443015099,
				-0.0207818988710642,
				-0.218741208314896,
				0.0673439353704453,
				0.0148045411333442,
				-0.0539893135428429,
				-0.198228627443314,
				0.0216050483286381,
				-0.110763683915138,
				-0.321662753820419,
				0.0807718560099602,
				0.036103930324316,
				0.0266523286700249,
				0.0775502026081085,
				-0.266446232795715,
				-0.0474601909518242,
				0.0492006093263626,
				-0.332604259252548,
				-0.0985813662409782,
				-0.043818473815918,
				-0.116379745304585,
				0.111907474696636,
				0.0904526039958,
				-0.241237103939056,
				-0.0460082069039345,
				0.132951498031616,
				0.0557036437094212,
				-0.424897640943527,
				0.0986382365226746,
				-0.0608630292117596,
				-0.174154713749886,
				0.0686362162232399,
				0.06139050796628,
				-0.022899067029357,
				-0.0497281029820442,
				0.0262357853353024,
				0.176268503069878,
				-0.0703436881303787,
				0.317617446184158,
				0.216666057705879,
				-0.0131818857043982,
				0.102851375937462,
				-0.132655441761017,
				-0.0101563446223736,
				-0.0273377560079098,
				0.00340176746249199,
				-0.0701403096318245,
				-0.16650977730751,
				0.0533833391964436,
				0.00650617526844144,
				-0.0312440879642963,
				0.122494600713253,
				0.0150597421452403,
				0.0277031809091568,
				-0.0664030089974403,
				-0.0805362239480019,
				-0.0125183099880815,
				0.0630432814359665,
				-0.0590637251734734,
				-0.323897778987885,
				-0.0596396885812283,
				0.10193158686161,
				-0.3018878698349,
				-0.0530118085443974,
				-0.127456545829773,
				0.200807392597198,
				-0.0404824279248714,
				-0.136431902647018,
				0.238514617085457,
				-0.233393609523773,
				-0.127807080745697,
				0.0110440328717232,
				0.0674246102571487,
				0.0223351493477821,
				0.147690370678902,
				-0.179705575108528,
				0.139639347791672,
				-0.0393147505819798,
				-0.170842364430428,
				-0.230935290455818,
				-0.202003881335258,
				0.22117792069912,
				-0.235554665327072,
				0.0641761049628258,
				0.154119700193405,
				0.0721919983625412,
				0.157251521945,
				-0.241872802376747,
				0.143290147185326,
				-0.226597547531128,
				-0.00200090906582773,
				0.0585283003747463,
				0.162568286061287,
				-0.203677296638489,
				-0.107581153512001,
				-0.0718047320842743,
				-0.111142694950104,
				-0.0459428541362286,
				-0.180677950382233,
				-0.14281065762043,
				-0.0379221364855766,
				0.128900840878487,
				0.217618867754936,
				0.137395605444908,
				-0.0747799500823021,
				0.00801742915064096,
				0.204845979809761,
				-0.213999584317207,
				-0.185843586921692,
				-0.0177343897521496,
				0.133533835411072,
				-0.171575471758842,
				-0.0664989650249481,
				0.347356170415878,
				0.00402614008635283,
				0.0537836477160454,
				-0.035219457000494,
				0.0615244470536709,
				0.247143566608429,
				-0.0908952951431274,
				-0.0797117948532104,
				0.193961083889008,
				0.193569630384445,
				-0.0880630016326904,
				0.0869551599025726,
				0.0870399102568626,
				0.110796473920345,
				0.529064774513244,
				-0.00340619613416493,
				0.321067661046982,
				0.128996685147285,
				0.31406044960022,
				0.111977949738503,
				-0.027508333325386,
				0.266229957342148,
				-0.184269860386848,
				0.124073468148708,
				0.0972418487071991,
				-0.0249656271189451,
				-0.0332597307860851,
				0.0884763821959496,
				0.0599375888705254,
				0.369021654129028,
				0.0402429811656475,
				0.0171726904809475,
				0.0991675928235054,
				0.547480165958404,
				0.141214117407799,
				0.14949993789196,
				0.0815094858407974,
				0.172506645321846,
				-0.0599860958755016,
				-0.124967195093632,
				0.0343390665948391,
				-0.053122591227293,
				0.0859768018126488,
				-0.164256021380424,
				-0.132339581847191,
				0.0224899984896183,
				-0.112370796501637,
				-0.0716850906610489,
				-0.091630183160305,
				0.247553080320358,
				-0.124145708978176,
				0.0637057721614838,
				0.172146111726761,
				0.172498092055321,
				-0.13991878926754,
				-0.105986870825291,
				0.245617777109146,
				0.179790586233139,
				-0.105380237102509,
				-0.0252704881131649,
				0.214858442544937,
				0.0830383822321892,
				-0.0168168395757675,
				-0.119893476366997,
				-0.130624607205391,
				-0.00661026779562235,
				-0.0879001393914223,
				0.199630081653595,
				0.166831985116005,
				-0.0393517352640629,
				0.307628870010376,
				-0.126193910837173,
				0.0719899162650108,
				0.175893858075142,
				0.133108898997307,
				-0.066520944237709,
				-0.00158892874605954,
				0.181518331170082,
				-0.0606621727347374,
				0.324641644954681,
				-0.0615086443722248,
				-0.363973706960678,
				-0.00749947410076857,
				0.0870212242007256,
				0.133592948317528,
				-0.0750746876001358,
				-0.127275481820107,
				0.153168737888336,
				0.164550125598907,
				-0.092395581305027,
				-0.0115471510216594,
				-0.0786167457699776,
				-0.017316272482276,
				-0.178918987512589,
				0.177560701966286,
				-0.121635504066944,
				0.101778954267502,
				0.154798939824104,
				-0.0141151333227754,
				-0.0367690175771713,
				-0.0306783393025398,
				-0.184643298387527,
				-0.0240446832031012,
				0.168110117316246,
				0.000130870525026694,
				0.168763726949692,
				0.0544499009847641,
				0.115625396370888,
				-0.0191485863178968,
				-0.0556005388498306,
				0.178958848118782,
				-0.250484079122543,
				-0.293492555618286,
				0.345015496015549,
				0.116288691759109,
				-0.244767561554909,
				-0.0161624401807785,
				0.242134839296341,
				0.129726380109787,
				0.162146359682083,
				0.0246815476566553,
				-0.0393811166286469,
				0.0733465924859047,
				0.170476213097572,
				0.0248196851462126,
				0.20235213637352,
				0.0187855064868927,
				-0.0332325324416161,
				0.145361244678497,
				0.0958072021603584,
				0.319931417703629,
				-0.176685243844986,
				-0.0411850623786449,
				0.0577260032296181,
				0.0213921945542097,
				-0.00128340639639646,
				-0.0947840809822083,
				-0.194019109010696,
				-0.439735651016235,
				-0.196234717965126,
				-0.088668130338192,
				-0.440232545137405,
				-0.176299557089806,
				-0.157475173473358,
				0.0291032250970602,
				-0.107908509671688,
				-0.214548036456108,
				0.00229707034304738,
				-0.340522080659866,
				-0.13403482735157,
				-0.0557626187801361,
				-0.0736904889345169,
				0.172595039010048,
				0.0281335134059191,
				0.217619732022285,
				0.0184645298868418,
				0.154069721698761,
				-0.102283775806427,
				0.393421620130539,
				-0.0665741041302681,
				0.108032144606113,
				-0.176518589258194,
				-0.275828778743744,
				0.236258968710899,
				0.0652130022644997,
				0.276905685663223,
				0.179933041334152,
				-0.208610236644745,
				0.199935704469681,
				-0.0905361250042915,
				-0.0436333566904068,
				-0.172602862119675,
				-0.0508953779935837,
				-0.0435946546494961,
				-0.135105475783348,
				0.104498721659184,
				-0.199635878205299,
				0.00498337112367153,
				0.0239166524261236,
				0.0843996182084084,
				-0.0822365656495094,
				0.0034355556126684,
				0.118692442774773,
				0.0750611573457718,
				0.0175464060157537,
				0.107401929795742,
				0.0694399923086166,
				0.0555318668484688,
				0.324707269668579,
				0.108617171645164,
				0.112155586481094,
				-0.111933693289757,
				-0.0790431648492813,
				0.133079349994659,
				0.123281329870224,
				-0.13454458117485,
				-0.055705975741148,
				-0.159325957298279,
				0.114021621644497,
				-0.105387687683105,
				0.0297405812889338,
				-0.0311161726713181,
				-0.0351678170263767,
				0.166247799992561,
				-0.10148362070322,
				-0.154182642698288,
				-0.0293249357491732,
				0.20251490175724,
				0.0989998281002045,
				0.198181375861168,
				-0.0764542669057846,
				-0.0613444782793522,
				-0.0410499721765518,
				0.0680961310863495,
				0.136489227414131,
				0.136284127831459,
				0.0777798965573311,
				-0.0429304353892803,
				0.00436418550089002,
				-0.0261593386530876,
				-0.0408562272787094,
				0.104589112102985,
				-0.253047466278076,
				0.0305963512510061,
				0.0637828782200813,
				0.0560567155480385,
				0.101844646036625,
				-0.292291015386581,
				0.173810943961143,
				-0.074807345867157,
				0.103090725839138,
				0.0335257723927498,
				-0.0306425169110298,
				0.0302521046251059,
				0.0617454499006271,
				0.0411448329687119,
				-0.0570172965526581,
				-0.138800263404846,
				-0.233786970376968,
				0.325511038303375,
				0.130594700574875,
				0.0190449226647615,
				0.0486501529812813,
				-0.0399174466729164,
				0.0144746359437704,
				0.00846366863697767,
				-0.0437377281486988,
				0.0202368665486574,
				-0.139460355043411,
				-0.149068892002106,
				-0.0573053918778896,
				0.121619887650013,
				-0.210908949375153,
				0.159786567091942,
				0.0803395733237267,
				-0.235977843403816,
				-0.168487682938576,
				-0.405430972576141,
				0.0864872932434082,
				0.06448033452034,
				0.290529280900955,
				-0.00171807629521936,
				0.162394180893898,
				-0.135386943817139,
				0.0431142561137676,
				0.187946319580078,
				-0.46165469288826,
				0.247684478759766,
				0.13578587770462,
				-0.150040477514267,
				-0.159986898303032,
				-0.049483597278595,
				-0.109778203070164,
				0.064455009996891,
				-0.0126705998554826,
				0.0870820581912994,
				0.0399987064301968,
				-0.0931407660245895,
				0.121451638638973,
				0.13784271478653,
				0.0348543226718903,
				-0.089750736951828,
				-0.142021015286446,
				-0.0461698211729527,
				-0.0173062644898891,
				0.172765329480171,
				-0.271521240472794,
				-0.162528917193413,
				0.125032231211662,
				-0.14152880012989,
				-0.281712472438812,
				-0.121279768645763,
				-0.279518723487854,
				0.164601430296898,
				0.0133426701650023,
				0.0305173303931952,
				0.191179856657982,
				-0.3518206179142,
				-0.261604934930801,
				0.379808068275452,
				-0.03781483694911,
				0.132405087351799,
				0.376411855220795,
				-0.0280308723449707,
				-0.231122121214867,
				0.146839410066605,
				0.0913931354880333,
				-0.0337408483028412,
				-0.0258353352546692,
				-0.174627780914307,
				0.00851555541157722,
				-0.319258958101273,
				0.105251029133797,
				-0.174591064453125,
				0.0380670316517353,
				0.00706020882353187,
				0.0098909568041563,
				0.062858022749424,
				-0.195353820919991,
				-0.0772959962487221,
				-0.20633165538311,
				0.0779371857643127,
				-0.0674843117594719,
				0.15778549015522,
				0.0553508847951889,
				0.0105705773457885,
				0.115250334143639,
				0.116209268569946,
				-0.0415799804031849,
				0.00113425450399518,
				0.238931462168694,
				0.00877971481531858,
				0.00936532393097878,
				0.112888135015965,
				0.184590205550194,
				0.0692421570420265,
				-0.0126976491883397,
				0.278301000595093,
				-0.0280022881925106,
				0.138132616877556,
				0.156358435750008,
				0.0648815780878067,
				0.0336590930819511,
				-0.226641267538071,
				-0.247539922595024,
				-0.21809433400631,
				-0.325075328350067,
				0.0222786273807287,
				-0.196751773357391,
				-0.133074417710304,
				0.0311438292264938,
				-0.134595438838005,
				0.0772606357932091,
				0.0257044583559036,
				0.188931852579117,
				0.24789796769619,
				-0.118702076375484,
				0.101901941001415,
				-0.118621587753296,
				-0.193489074707031,
				-0.18267223238945,
				0.0983795821666718,
				0.123672023415565,
				-0.00184993410948664,
				-0.0664053112268448,
				0.0106919938698411,
				0.0843777135014534,
				0.103792995214462,
				0.0812625214457512,
				-0.00768320262432098,
				0.0948573723435402,
				-0.0359394662082195,
				0.303942292928696,
				-0.107073955237865,
				0.0988629385828972,
				-0.213930651545525,
				-0.101219825446606,
				0.0566104799509048,
				-0.21952697634697,
				0.066062331199646,
				-0.213268786668777,
				0.0437306761741638,
				-0.070919007062912,
				0.0255255606025457,
				-0.0213074497878551,
				0.0923020616173744,
				0.123496606945992,
				-0.00411932170391083,
				-0.177206322550774,
				-0.0760737881064415,
				0.45922189950943,
				0.151382744312286,
				0.373987644910812,
				-0.00286371586844325,
				-0.135460987687111,
				-0.0753115266561508,
				-0.0165691506117582,
				-0.0684761703014374,
				-0.0416560918092728,
				-0.349555760622025,
				0.0209757629781961,
				-0.0508155934512615,
				-0.0543601028621197,
				0.126248568296432,
				-0.0486772321164608,
				-0.113223485648632,
				-0.0792586207389832,
				0.191656425595284,
				0.157064273953438,
				-0.0539890639483929,
				-0.073704719543457,
				-0.0762092545628548,
				-0.089421235024929,
				-0.335062474012375,
				0.00845448486506939,
				-0.229040563106537,
				-0.106211967766285,
				0.0487205646932125,
				0.170022860169411,
				-0.135529398918152,
				-0.00804386287927628,
				0.0925418585538864,
				-0.143225446343422,
				-0.0627721771597862,
				0.0749355182051659,
				-0.194662481546402,
				0.11474134773016,
				0.0165203381329775,
				-0.0580362975597382,
